3327 128
1 -6.08675 -18.5751 -25.543 41.733 -36.6343 -34.256 -48.6829 12.2941 -50.792 -6.94465 -53.7751 -66.1708 -40.5779 -11.2435 38.8747 -46.5339 66.515 30.1444 -19.8959 -24.1315 -24.3686 77.2458 -67.6476 -13.2344 17.4228 -32.2961 20.5179 -46.5517 56.3247 -29.8521 1.51798 1.12597 -63.6644 -51.967 -38.7438 40.9618 23.6601 -19.231 35.3961 -24.4173 -21.8903 64.3572 -27.2598 49.0239 5.97437 23.8312 85.5949 -3.25117 6.6282 16.1052 47.6211 -26.0929 -28.5785 34.6078 -31.868 -27.4237 -7.25472 -11.479 -21.5101 -20.9431 68.7911 -4.22147 22.4224 -3.94552 -5.46298 102.731 -12.9653 16.7719 7.71397 -13.9125 -18.5823 24.5452 -11.0965 -4.69903 29.5662 -54.0082 -31.1816 -46.3342 51.6303 -17.773 11.5821 27.4381 6.8893 98.8387 9.63478 -46.346 56.7013 -8.94565 70.7772 53.6087 5.56495 58.3678 -35.0302 -2.10584 -30.5879 10.3 -66.9582 -34.3234 28.8957 -17.6335 -64.3672 15.3085 22.834 16.6373 -66.9494 6.71386 56.5213 -18.6774 -9.29691 -46.6815 74.6184 -22.2134 -33.6154 47.3592 -3.77137 7.48237 -37.2106 54.5428 -1.96649 -5.60373 25.5164 -64.9043 -21.2759 55.204 82.9462 72.6043 -18.3604 -46.1171 
2 13.266 -49.0397 -22.055 -37.173 -46.7533 -37.2826 -46.4106 43.3839 -74.1266 30.2331 -17.1807 -2.68609 -82.2824 83.3803 -69.7322 -27.1242 0.0118721 -58.7885 18.9671 21.213 11.328 24.47 48.558 62.4063 -62.5749 -45.3832 -34.2394 -15.443 -47.2407 -54.2012 -44.966 55.9023 -5.22299 31.463 -78.0896 -35.4753 75.1078 -40.0365 -0.240651 -81.0864 71.4426 -18.0846 22.5988 10.0204 -25.3512 42.8122 -18.6862 -23.7747 -5.49091 6.10856 87.4887 4.61442 32.2635 43.779 -28.1818 -30.9339 -9.16369 -50.353 43.9678 20.8237 -16.1901 -0.555552 -18.777 67.0628 32.491 -7.76999 -61.0063 21.0532 49.4179 26.4648 47.8616 26.4527 -0.520927 67.5791 35.2158 67.5275 20.1045 15.265 -57.1887 9.35983 13.4687 -65.6301 15.5252 -50.8732 -25.5785 -12.1651 14.9535 -29.188 35.8195 -35.5885 -9.79034 13.4835 -29.1606 -28.8175 -10.7307 1.17288 -35.5828 20.9352 24.1194 -76.0909 -46.7821 -29.8348 39.4821 -40.5844 -48.2864 78.4832 32.9946 -27.5186 -8.63044 -24.8502 -10.9279 25.7949 3.39553 -1.86711 -24.9747 -4.52936 -13.669 -17.6104 48.1141 -65.4924 -56.7063 42.4228 36.4751 15.1446 15.6538 -67.6805 22.1225 -21.623 
3 -1.36965 3.24835 3.83202 4.10424 4.51896 -0.273763 -5.34742 -2.07861 6.12155 -2.47963 -3.11809 -0.197367 4.56433 1.35704 -1.59483 4.33095 3.72503 3.47284 0.357297 0.918917 -1.89885 -2.72739 1.73079 3.09668 -0.125995 -1.61678 2.6312 3.08124 -6.32896 0.143233 1.43229 -4.51308 -0.199983 -3.9162 -0.613653 -1.76317 8.47599 0.807478 -3.31242 4.19703 5.36584 0.717863 -0.566662 -2.67365 1.70315 1.72484 -2.47015 -6.25967 2.28898 -0.532577 0.052473 -2.10715 1.28765 -0.861462 -3.36297 -0.866799 -1.07017 -5.64971 2.48301 1.27423 0.109824 -3.14989 -2.26205 4.95769 -1.69124 0.399364 0.445851 -0.391661 -4.57905 0.228369 -1.20298 3.18386 3.72823 3.08494 -7.80425 0.096803 -0.355355 -1.17135 0.846563 0.715514 0.787907 3.53561 0.722139 2.59638 -1.22541 3.30479 1.22006 -3.24705 -4.19217 4.88541 4.97348 -0.298216 -0.423819 0.690808 -1.56821 -3.63857 3.26156 -0.76446 3.00632 -5.76631 3.55609 1.73726 1.53318 3.28841 3.20643 -1.51727 2.79245 1.941 5.70167 -1.39418 -2.00732 -5.40453 5.18435 3.85127 -7.14833 -7.48824 1.20426 3.54966 -1.3294 0.100717 5.09206 0.496142 -2.86051 1.52606 -0.156302 -0.904701 -0.868705 0.30263 
4 -41.5886 -35.6695 41.3452 -23.17 -12.3926 -44.8785 -44.8407 -20.3145 -27.5051 -2.42196 1.26703 -47.7211 69.7506 -33.6955 32.0787 -57.5632 -74.8641 -3.87924 -68.7004 -8.12079 39.566 -74.3052 39.7844 34.1818 -23.1754 -34.4299 37.4053 -52.3872 -25.5272 -18.7093 -58.7762 72.7547 30.5869 4.33671 65.2521 12.3362 -33.4739 25.7957 70.5489 -69.3779 -65.1304 47.3796 41.3493 0.180469 37.0094 -12.5511 -33.9139 46.7941 -27.8396 40.9086 15.1053 -67.0203 41.4987 -21.2505 -16.717 5.20737 22.4218 11.5591 -33.8141 -2.39564 3.31641 -6.6107 -75.3032 11.6909 -22.1468 1.49219 3.88238 31.4532 17.1488 -9.18414 59.8948 -7.97456 -50.7338 11.3662 15.6166 64.7266 -17.4538 18.2849 84.1141 33.2272 -86.2017 -42.9138 -19.762 29.2368 18.3934 3.35818 -39.6799 -100.014 38.4498 -30.2096 31.5643 86.3229 45.7666 -17.6792 16.2013 45.523 22.2182 4.85657 54.7698 -37.0359 -88.014 -38.4213 -29.8831 -54.2029 24.2558 -33.5976 -8.15338 -19.2257 -6.66634 3.69137 50.2908 2.68427 44.2053 -3.14441 19.5478 -8.13348 26.2421 -14.8428 20.4718 54.9223 36.4611 19.3662 52.0168 12.0675 -21.4329 54.1567 -25.0988 24.4104 
5 -1.13799 3.19283 2.74184 3.27112 4.8215 -1.62439 -2.88499 -1.47748 5.96474 -0.909247 -2.3124 -0.879759 2.81537 0.777699 -2.03725 4.37301 1.59842 3.67465 0.0523972 -0.00255361 -2.34874 -2.80234 0.870846 1.86487 0.0322171 0.143984 3.14222 1.69892 -5.49431 0.398455 1.2597 -3.09312 -0.15965 -2.88216 -1.20137 -1.16948 6.76009 -0.760615 -1.47059 3.5078 3.68615 1.62582 -0.080083 -1.73246 1.67492 0.400779 -1.92344 -3.79068 2.42703 -0.637537 -1.31568 -3.15691 0.689938 -1.67913 -2.46946 -0.590124 0.371153 -2.30023 1.72553 2.469 -0.286034 -1.09815 -0.265681 3.61244 -1.63399 0.433472 0.169321 -0.701653 -3.32779 0.28338 -0.41615 2.32359 2.38422 0.992528 -5.95451 -0.957937 0.17601 -1.08887 0.832162 0.168619 0.209237 4.58329 1.55804 2.07732 -0.864974 2.8086 1.03797 -1.24909 -4.2844 3.38693 3.10411 -0.383384 -2.34927 0.843794 -0.251923 -2.47074 2.89381 -1.53684 1.97873 -3.82491 2.58122 2.18603 1.52575 2.15959 2.16775 0.599146 2.92382 1.6781 5.19989 -0.423189 -2.11531 -5.29619 4.71332 3.76051 -4.94418 -5.22618 2.54648 3.2682 0.033575 -1.73985 4.12969 1.27226 -2.02495 1.45598 -0.580371 -0.0779914 -0.840146 -0.650698 
6 -1.23127 0.0323536 -0.296347 -3.98361 3.24699 -0.614953 3.32024 0.582934 5.05365 -3.4983 -0.739289 3.20551 0.36483 -0.629765 -4.06622 7.42288 2.32432 1.53416 -0.297578 -1.8699 -1.3627 0.347458 -1.38168 -3.47704 2.18739 -0.468114 0.0335521 0.776261 -0.381847 0.870125 -1.86614 -1.46352 0.760943 0.486854 -2.07438 -1.64587 0.531772 -3.63104 2.28896 3.66815 -0.821383 -2.49884 3.09033 -2.75163 -1.27257 -2.5977 1.40815 1.58101 -0.966932 -1.09852 -2.84726 -3.17103 -0.960917 -3.45467 1.83159 1.31792 0.0704024 2.72752 0.0329974 1.56373 2.97497 0.122847 2.2242 -0.252294 1.33703 -1.86922 1.26286 0.252083 -0.991217 1.3098 -4.49682 -0.487838 1.90501 -2.20555 0.125133 -1.93796 1.80435 2.56974 2.14488 -0.254822 0.431966 0.949147 2.25605 0.823644 2.37778 0.991425 -3.54925 4.91054 -0.665518 0.741951 -3.81409 -0.994719 -3.5394 -1.92581 4.58773 2.06066 -0.702917 0.172811 -0.880753 2.43826 0.547071 0.621448 -0.58937 -2.23048 -2.60622 -0.71727 1.52121 3.51223 0.125085 -0.231256 -1.43566 -3.06736 -0.571302 -0.0885587 0.623343 2.21361 3.37363 0.505323 -0.608254 -4.548 1.02246 -0.273226 1.52382 2.51834 -1.93633 0.362122 0.561302 -0.865416 
7 -3.15156 -2.49925 -9.05479 -9.51423 1.9453 -1.47848 -1.45078 4.16429 4.96523 -9.05424 -4.6785 7.70648 4.04852 -8.55307 5.59476 12.4833 4.01717 3.7053 -4.6239 -4.35106 -1.22971 4.54532 -0.0900981 0.669032 0.821876 -11.3551 1.97389 4.75365 1.78146 1.72719 -1.45645 1.30958 3.31354 -0.350625 -2.6732 -0.325357 5.67361 -4.21563 -2.32949 3.83125 9.65671 -6.13302 2.95188 -9.10112 -6.48098 -0.817937 7.57825 -4.31793 -4.41707 -0.132436 -3.27567 -4.18513 2.22811 -5.05464 -2.13195 -4.1566 -2.603 -3.28387 -2.21568 -1.24023 2.8697 -3.13167 1.81126 6.41036 -1.74026 -0.252146 -3.77064 6.46319 3.13014 3.73629 0.383671 -0.545849 -1.1969 -4.17461 -1.27494 -10.0569 5.82073 3.46127 -1.5162 -5.95291 3.36906 1.7665 -4.20975 -0.922873 2.9338 -0.612624 -1.5227 2.08051 0.408138 1.82903 -3.0347 -1.76281 4.37319 -0.680216 5.34359 -6.07389 -3.5949 5.06987 -1.84047 -0.63434 -3.79653 8.55652 -2.72861 -0.85934 -4.0965 -0.932618 -1.57565 1.94424 -6.77944 5.06971 -1.36324 -5.60085 -4.06236 -2.53354 0.338066 -4.68797 1.25469 -5.19128 7.39235 -2.37401 7.45942 1.45338 -3.45391 2.53707 0.848495 -0.366026 -0.57267 0.497444 
8 0.739591 -1.43199 0.430399 -4.67874 4.17952 -0.393168 2.68482 -0.896975 3.97142 -2.9901 -0.703669 3.96194 -0.746289 -0.482016 -4.84262 5.49895 2.35897 1.41119 -0.537915 -1.18091 -0.460901 1.48141 -2.63796 -3.83802 3.56367 -1.48816 1.99953 0.620076 -0.881897 1.00299 -2.15158 -2.03303 -0.2797 1.2927 -0.541815 -1.94202 -0.561625 -3.25204 0.34183 4.3127 -0.407592 -1.8654 4.23441 -0.933138 -2.87026 -2.09249 2.28379 2.59152 -1.7833 0.237355 -2.1626 -3.14527 -1.06181 -2.059 4.01373 0.224083 -0.687653 4.55085 0.294069 0.917724 2.04763 0.287292 2.12167 -1.25595 2.56163 -0.856664 1.43134 -0.372904 -0.0394647 2.39334 -5.67651 -1.50205 -0.031328 -2.39496 0.268242 -1.41226 0.69554 2.29396 2.23018 1.39614 1.41909 0.374589 0.945784 1.36467 1.72601 0.621392 -3.0372 5.08488 -0.783875 0.832499 -2.84513 -0.713397 -3.77359 -1.74682 4.46661 1.9142 -1.2824 0.0902722 -2.06723 3.68515 1.63571 0.970669 0.946292 -0.722192 -3.12906 -1.13205 1.10436 4.09027 0.253881 0.969246 -1.64787 -2.67894 -0.390477 -1.21701 0.971309 2.88836 3.09622 1.18005 0.653817 -5.02489 0.6004 -1.02778 2.45116 1.90625 -1.35035 0.642031 -0.786233 -0.798664 
9 8.55169 -51.0365 59.5993 -23.5096 75.616 -17.8745 -41.5582 28.6054 -28.6694 12.6144 70.7643 36.942 -2.98908 55.028 -11.2209 -43.2089 -30.0997 22.621 10.9309 41.0586 10.3929 31.8463 31.0399 -13.0658 -36.8828 3.11075 44.8678 21.8965 -72.7263 -17.0569 -27.6106 -40.3218 -21.9978 -12.8652 -18.5565 -51.2339 7.56774 -29.1906 14.2841 30.0057 -78.2422 39.205 42.3182 52.1083 -19.0664 -22.4854 -28.6588 -18.3665 -35.5334 24.2331 62.0507 28.4764 12.8603 -23.4818 -39.4081 8.38948 94.2575 -27.9078 -0.865377 -46.7238 69.0455 -50.883 -40.0432 -74.9867 50.1296 -21.6248 -9.87316 -52.6072 71.3874 -41.2162 36.5993 -50.0607 -56.219 -48.4742 46.8292 40.927 -18.0962 -27.7605 -102.472 -15.8192 42.6894 76.9083 -31.8289 9.97373 11.9845 44.1575 -3.72546 -12.0108 -26.8709 -45.9892 -13.911 -7.95656 -53.1135 -7.66232 -33.106 26.9683 15.2539 76.0842 13.0189 39.081 -6.43762 -2.59114 35.1039 58.6006 6.63174 40.9096 -18.146 22.0463 -46.2411 3.38695 71.6989 -36.5721 -36.316 -21.609 -47.8336 -40.1857 -0.597782 -38.2864 56.2352 8.39619 -41.2151 24.6183 42.24 31.839 -27.8841 -38.2957 -58.0625 -59.4372 
10 17.8873 25.3778 0.320668 56.8158 -43.9659 25.0638 34.6833 -1.91483 32.2262 -41.0383 -22.8738 -27.925 17.6564 -46.0977 -32.4455 -76.2029 -56.4881 -15.9435 -42.0921 -15.4188 40.5498 -50.5682 -68.9028 -50.6136 33.2912 6.43196 1.67364 -38.8914 -33.0972 6.06413 57.3493 53.8019 -36.1136 -9.21302 36.8927 -0.101589 -63.6352 -5.87917 65.464 46.7347 16.2906 -31.2286 -41.3162 -27.0137 -3.5856 -4.76433 -28.1975 13.2689 52.8597 2.3605 68.402 25.3089 20.9613 71.2233 41.0143 -13.8339 4.9123 -24.0939 16.1541 30.549 49.8607 5.93189 12.8147 -59.6377 63.7304 -23.8195 9.89121 -64.9918 43.9619 1.49993 65.9602 -13.2023 37.0885 -52.7573 33.6006 -37.5376 13.975 -69.3169 41.9547 -5.00956 1.8919 38.7433 -54.0856 -52.0144 37.6259 56.8451 9.12718 -28.343 -32.5538 -46.6813 -68.9302 -53.0084 32.7852 17.6706 -42.7985 25.7373 61.0132 40.4557 30.8151 34.7821 -30.1985 17.0596 -50.3166 -59.9691 41.4178 53.1553 -28.3437 -21.087 48.4049 -52.3529 54.9705 -8.98098 57.4241 64.5331 13.2951 32.5065 53.6403 -59.0817 -71.5527 -43.6476 -33.3699 -65.743 -32.2673 -67.2638 21.0208 -1.36049 30.7851 12.354 
11 -0.471859 2.64648 5.14681 4.98988 5.39998 -0.489018 -6.39353 -3.6438 6.49178 -1.11202 -3.38162 -0.582443 4.54832 1.49541 -2.84033 3.18629 2.75168 3.83039 0.0569131 0.760901 -2.22895 -2.72261 1.2842 2.87042 0.522047 -0.788529 3.52744 2.40536 -6.65544 0.155228 1.96279 -4.65063 -1.08951 -3.813 -0.256573 -1.60965 8.06176 1.26574 -4.16817 4.18377 5.20212 2.12397 0.15928 -1.6688 1.19853 2.43567 -2.41598 -6.52823 2.28427 0.0181702 0.048615 -2.40823 1.04101 -0.0901238 -2.43399 -1.44747 -1.36636 -4.925 3.07858 1.57461 -0.249181 -2.90649 -2.57114 4.80029 -1.49582 0.220891 0.810544 -0.631162 -4.13012 1.13038 -1.37139 2.95359 2.92132 2.93194 -8.74718 0.392607 -1.01942 -1.62495 0.4988 1.33323 1.51466 4.27624 0.509771 3.21648 -1.70269 3.44413 1.0683 -4.04882 -5.00442 5.49984 6.23974 -0.408042 -0.868682 1.08168 -2.12508 -3.74601 3.3695 -1.44501 3.00861 -5.55694 4.55568 2.28263 1.90472 4.5745 3.0471 -0.521979 2.71048 2.29822 6.83258 -0.755095 -2.1002 -5.62889 6.01399 4.16351 -7.36757 -7.11722 1.33868 4.35527 -0.418859 -0.627078 5.72439 0.585231 -3.11936 1.0447 0.232221 -0.462941 -0.818909 0.166929 
12 -1.31926 5.85158 4.35233 5.67711 5.13845 -1.45158 -5.12075 -2.43469 4.77227 1.15216 -1.6401 -3.24136 2.50766 2.30383 -1.35509 0.553985 1.73602 3.51461 1.04857 1.5696 -1.25349 -4.32305 0.664702 4.21498 -1.07004 0.854921 4.72231 1.33926 -8.10856 0.288421 2.59728 -3.72308 -0.224501 -5.47306 -0.869156 -1.49685 8.74491 -0.211854 -2.04859 3.24464 4.88966 3.61811 -1.75867 0.559007 2.85166 1.38992 -4.23464 -5.48717 4.76982 -0.717867 0.327535 -2.27206 0.593832 -0.883535 -3.82245 -0.926019 0.0623341 -3.10103 2.56626 3.47791 -2.9354 -2.01377 -0.00412636 3.96754 -2.5319 2.57191 0.286059 -2.3069 -3.99634 -1.46346 1.76196 3.80764 2.76942 2.92069 -7.73488 0.786891 -1.29814 -2.89356 1.46655 1.84525 -1.1351 4.42356 1.11902 2.74583 -3.33365 3.90128 3.75366 -2.70115 -5.05497 2.87604 5.44696 -0.0962562 -2.52838 2.87704 -2.74013 -3.0713 4.01066 -2.4699 3.48821 -6.83695 3.29735 0.802783 3.32526 3.45663 4.10229 -0.159213 3.82518 0.410611 7.01319 -1.10868 -2.15475 -5.26531 7.00869 4.53801 -6.38081 -8.31107 1.8749 4.37687 0.0934392 0.621491 3.12216 1.99166 -2.80464 0.140988 0.469893 0.380804 -2.69256 0.235796 
13 3.80397 -1.97478 -2.15072 -5.45887 3.0469 1.75439 1.10572 -4.06549 1.13448 -0.217395 3.63026 4.01498 -7.35717 -4.42667 -4.0494 2.11744 1.61192 0.355746 -0.455527 0.684085 0.390199 0.389601 -2.6521 -4.08554 4.03612 -4.19866 2.7061 3.20147 1.79784 0.583315 -2.16392 4.09249 -3.04328 -1.44835 1.56706 -1.62342 -2.49586 0.231799 0.525968 3.79442 -3.01714 -0.399235 4.7594 2.91856 -7.24509 -5.6311 1.95783 5.73377 -1.01054 4.38146 2.64744 -1.98318 -5.64305 1.70651 6.24297 -1.66626 -1.58301 11.2704 -0.352437 1.19522 -0.535394 1.11614 -0.0644143 -2.82607 1.73269 4.23383 3.50188 -2.64513 2.50156 -0.776973 -6.48647 -0.254557 -3.10405 -3.19535 5.5605 -0.849151 -1.53454 0.648273 4.14198 2.4922 -0.420308 -1.84498 1.6772 2.32189 4.70372 0.335261 -0.750158 3.4568 1.12733 -4.10247 -2.84073 -0.983689 -1.38791 -2.58487 5.6221 4.46473 -3.33873 -1.45187 -2.34498 6.70534 0.260864 0.372715 0.947606 -3.11805 -6.5742 -2.41646 3.78772 3.85041 -0.159862 4.47492 -2.2543 1.43117 -1.44329 -2.13716 4.75586 4.0136 2.66469 0.999859 2.95768 -4.32108 0.477839 -1.65674 5.08846 -0.44568 -1.25909 0.0530972 -0.601428 -1.29273 
14 -19.3104 -6.22004 -101.336 46.9466 10.0841 -97.1439 16.6783 -44.222 -43.9598 -7.37092 -3.25075 14.136 -72.0692 -55.4045 -76.2008 -28.9822 -38.0059 -25.0238 84.4495 -46.7552 -31.9939 -31.6093 42.9129 25.8741 27.1476 -40.0605 8.95313 3.76565 10.3705 -7.26277 3.31609 12.4866 112.727 26.9125 30.1916 15.2076 -106.381 -11.5988 17.3934 -17.523 -8.74563 56.7526 -34.4337 -14.4132 54.0262 7.13799 9.8882 -28.1942 38.3384 47.8968 42.4848 58.4286 -36.6672 -33.6728 -40.5962 20.4264 -27.515 -71.9099 -27.5808 -84.3606 35.754 -42.5588 -27.4844 22.02 28.2452 23.5805 14.0809 50.2186 -7.73845 -22.4607 -69.2026 30.1305 4.41898 8.22026 -28.9034 8.99158 -32.0141 -1.29474 -4.84241 -43.5453 19.1488 12.6364 -38.4049 2.0343 1.73855 38.1418 4.84542 23.3064 -5.35391 22.719 -17.7345 79.5675 30.3333 8.68468 -18.5907 14.3833 75.0326 -52.3559 38.5757 21.4659 -27.2007 79.8209 0.338868 4.17856 46.7413 17.3429 -35.0527 -38.58 -15.8864 13.9605 -18.0607 44.2547 -19.9919 -21.3707 29.0852 -28.587 -26.393 -31.5273 31.6619 -46.5061 -54.8957 -26.0314 -95.6923 34.5429 2.32944 8.70704 26.4258 57.4763 
15 7.65737 13.2936 -20.9301 3.86427 -45.8417 -14.2859 -65.6125 2.46567 -90.554 -6.41383 -4.47319 24.735 2.80646 29.9547 -6.00009 -24.7733 -74.2393 18.3954 32.4355 16.0382 -13.0108 -4.5548 -24.4518 -17.4339 -30.0868 67.2659 -3.74231 17.1731 29.8818 53.4485 -36.7284 27.3659 1.47747 17.2686 -34.3369 39.5768 -67.3777 12.2585 -15.9527 -89.0817 -4.66572 46.5642 12.8207 -54.9818 8.19556 6.84417 44.9477 -57.5099 -23.2064 69.1228 -35.3716 -38.9027 7.32863 63.4865 -70.4259 104.994 56.4428 3.75702 -4.33566 11.103 -18.7568 18.9077 -24.9724 48.1548 -21.3989 -0.822502 29.581 39.387 -38.5806 10.7878 89.7582 77.5077 -19.9386 31.9717 -33.15 -19.1134 38.2689 64.7383 -78.0688 68.2755 8.44913 6.83569 13.644 -48.4286 -0.587377 -50.4731 3.07814 -64.1996 80.3491 -63.355 63.4849 9.19289 -33.8078 -26.5739 60.1065 6.51231 37.4814 -32.6402 -27.1694 -8.41965 -25.1735 -8.41934 7.65172 18.5784 -38.2917 -19.4778 7.60396 55.1061 -85.0634 56.0415 15.6732 -2.58964 -5.3427 -53.8678 -42.7504 8.11909 -28.1278 -47.1562 -6.62258 -9.58641 -49.1554 5.84314 -6.01501 -15.7231 -15.3392 -66.7821 45.8307 22.7038 
16 77.6867 12.1828 0.836498 -0.321186 9.37424 10.8047 43.9594 20.1193 -73.9344 22.7966 -17.9724 -35.1891 -21.6065 -54.3636 2.15179 32.4514 -28.3617 -22.6261 36.8687 -26.7993 -12.7591 -10.7211 39.6753 49.4753 8.31351 68.068 30.0306 -50.7153 33.5003 -36.0474 -53.4385 8.64708 -16.5125 -44.6731 7.56628 1.47477 52.8539 -55.6394 22.3907 -6.0801 53.0647 2.225 -30.0989 45.13 -52.6398 -26.0808 84.3717 22.4196 -47.2442 23.2476 -11.9395 43.2234 5.59752 -68.4769 -10.2582 23.9877 -8.94886 -71.1382 68.3242 11.8669 -13.3918 23.963 21.5376 64.8613 -28.7813 21.7662 70.7938 27.2088 68.3637 -11.8061 34.8088 21.9063 -16.3722 0.438529 -28.6362 -73.0708 -28.5386 -49.0748 39.2276 23.6781 -25.3768 -73.366 -36.8424 -20.0638 -43.2168 48.1278 4.02202 -48.5039 -14.2786 74.7168 -45.8001 70.8817 1.66552 -22.373 38.116 -27.3013 -1.32773 10.0337 0.934994 66.2129 -4.65762 -73.4038 -14.8798 79.4862 33.9939 -49.2366 9.29459 -98.1179 -7.42243 49.4616 37.6643 -21.2225 -25.4587 -7.11557 62.5902 -53.41 41.1257 -44.809 -14.3368 -64.1807 34.7172 49.3426 -3.46349 40.5367 27.3451 39.6547 10.4531 24.7725 
17 0.226532 -3.04035 -4.02548 -6.72075 1.80066 1.57473 1.32669 0.59261 4.17411 -6.11549 -0.0394826 6.47197 -1.41932 -5.07327 -1.27002 9.32302 3.53171 0.995354 -1.4605 -2.1697 -1.10162 1.81777 -0.035194 -3.09215 2.48432 -6.10226 -0.655692 4.75637 2.72965 0.556778 -3.06337 1.03083 0.512591 0.556802 -0.0287682 -1.99809 -0.664414 -1.41497 0.669269 4.76852 -0.23053 -4.59885 4.02354 -4.23113 -5.09546 -3.76869 3.00145 2.2867 -2.93146 1.01349 -0.369614 -3.05121 -2.42817 -1.81487 2.93496 -0.503323 -2.42768 3.58487 -1.03362 -0.791097 3.57813 -0.641919 -1.24159 0.638906 0.900512 -0.424033 2.00355 1.47796 1.10326 1.26062 -6.5169 -0.192904 0.398892 -3.09088 3.35 -3.34995 2.16384 3.04622 2.18349 -1.75545 1.50075 -1.34498 0.661023 1.08533 5.99061 -0.47672 -4.06437 3.76302 0.867215 -0.228047 -4.47969 -0.8765 0.84282 -3.78736 6.60208 1.21157 -3.12188 2.45831 -1.32386 4.03615 -0.58898 1.7573 -2.05578 -4.43796 -5.33119 -2.91036 2.09943 3.99295 -3.121 2.21828 -1.76841 -0.784423 -3.74273 -1.87519 2.29511 1.92216 1.7531 -1.74007 0.933355 -3.75672 3.3278 -1.39783 2.7496 2.66006 -1.78475 -0.327414 1.66709 -0.800276 
18 0.293179 -2.13665 -2.11571 -5.49023 3.3664 -0.243494 1.3603 0.655611 4.025 -4.80486 -1.61601 5.02674 0.219039 -3.0859 -1.72991 7.40123 2.63377 1.90561 -1.64914 -1.96494 -0.84412 2.09241 -1.1969 -2.44724 2.66511 -4.58622 1.75301 2.5098 0.097353 0.883467 -2.25287 -1.25775 0.589587 1.38047 -0.355767 -1.57516 0.777105 -2.90374 -0.676364 4.45174 1.97961 -2.87691 3.68375 -3.30316 -3.78015 -1.97551 3.20076 1.18958 -2.5069 0.160003 -2.00291 -3.5386 -0.390616 -2.38074 2.74707 -0.949352 -1.35426 2.47931 -0.172733 -0.360781 2.19494 -0.357172 0.764209 0.72671 1.36848 -0.521665 0.428727 1.2521 0.725092 2.75271 -4.64617 -1.16783 -0.615281 -2.78077 0.380952 -3.49751 1.9223 2.44512 1.22056 -0.718686 1.98782 0.424565 -0.273601 0.83703 2.69732 0.171004 -2.66789 3.91717 -0.690148 1.27793 -2.57214 -0.471691 -1.29974 -1.82362 4.87165 -0.486787 -1.91307 1.77825 -1.83786 2.65451 0.328687 2.88614 0.0561644 -1.09293 -3.14709 -1.26955 0.911868 3.43727 -1.67928 2.08065 -1.9856 -2.95773 -1.67438 -1.53585 0.783224 0.940361 2.1072 -0.422697 1.95237 -4.21358 2.60361 -0.823172 1.46472 2.29719 -1.11234 0.295341 -0.588135 -0.893111 
19 54.4476 -4.47157 44.8275 -27.2304 -50.8155 -18.1201 5.89162 -58.3458 -89.795 -39.5397 -1.41471 -5.23856 -71.3315 47.3069 14.8321 -54.267 22.2143 4.64497 45.8003 -0.941132 27.4587 25.0279 25.6274 74.8167 -6.3818 13.3532 8.0228 -21.2669 11.4721 29.648 58.8103 41.0291 48.8256 -37.4888 32.1469 -4.43354 79.6643 2.36718 17.8253 -12.825 -25.5288 -12.133 -47.3291 -3.98169 -5.25482 10.9568 32.1344 67.2151 37.4615 -5.69036 40.5769 -15.9478 2.22608 50.5135 -30.4231 -12.4364 -14.9976 31.1868 -24.9919 52.4641 9.39092 -106.685 43.9329 37.8087 -2.1016 -11.9137 17.6882 -60.3393 -27.396 -55.2596 -38.9263 -38.8381 9.37037 -21.0621 7.8113 -23.024 -19.5819 -43.6761 -49.8282 28.8369 25.3416 -84.8351 -5.06428 -25.0734 51.218 -25.0223 -54.2432 50.7903 -32.2125 7.48378 13.8057 -36.2797 48.9275 -19.8416 -14.5163 3.9257 -59.8217 17.7872 17.342 -61.427 37.1091 44.706 42.1 27.1482 19.6321 -26.1658 -71.4284 5.83695 -3.89763 33.0696 -24.7222 123.164 35.1016 -28.6633 29.3785 12.9199 -61.8382 45.181 -30.8305 -0.467972 -32.844 8.32313 40.2459 49.2509 68.6216 4.62059 32.6317 95.6303 
20 -1.05866 2.97811 3.21487 3.47918 4.62669 -0.739843 -4.21257 -1.65843 5.68873 -1.79501 -2.76451 -0.313623 3.71756 0.967775 -1.69314 3.91686 2.81823 3.30843 0.0657468 0.579363 -1.86578 -2.50438 1.2691 2.53067 0.0525464 -1.1808 2.95434 2.47417 -5.75173 0.209204 1.27837 -3.85756 -0.214095 -3.24803 -0.526009 -1.34225 7.52512 0.125119 -2.72697 3.8655 4.6313 1.16177 -0.289083 -2.10733 1.39874 1.2006 -2.02988 -5.0233 2.08445 -0.539759 -0.328763 -2.35438 1.07586 -0.993355 -2.53843 -0.896535 -0.530027 -4.04324 2.32084 1.41847 -0.217112 -2.24748 -1.47346 4.10373 -1.48679 0.566765 0.344897 -0.583153 -3.94899 0.448867 -0.947306 2.60657 2.75225 2.05682 -6.79147 -0.323346 -0.267292 -1.14741 0.805159 0.592314 0.486877 3.6269 0.852465 2.36422 -1.2209 3.12578 1.25488 -2.41973 -4.09349 4.21788 4.26461 -0.227922 -1.19227 0.789176 -0.9563 -3.27884 2.87971 -0.976587 2.25226 -4.77954 3.1004 1.9664 1.71791 2.99148 2.74712 -0.68924 2.70951 1.80629 5.27289 -0.874054 -2.1961 -5.23871 4.66955 3.46541 -5.94497 -6.33798 1.55838 3.31448 -0.580073 -0.607216 4.34355 0.58738 -2.26924 1.33134 -0.422644 -0.544361 -1.11258 -0.160303 
21 0.207482 5.14098 6.03056 8.21283 5.39858 -1.17597 -5.01333 -4.33914 5.09732 2.3652 -0.216916 -4.14462 1.01314 2.76258 -4.05464 -0.00307214 0.797792 2.87656 2.02055 2.53012 -1.71462 -5.45517 1.26775 3.02577 -0.152242 2.69308 4.32427 2.23368 -8.7256 -0.0787123 2.96334 -3.34516 -2.7563 -6.23852 1.22996 -1.73536 7.57623 1.95544 -2.37719 4.25984 1.70541 4.78892 -1.61035 2.34082 3.26216 0.360551 -5.31639 -3.23427 5.64744 0.373777 2.04314 -2.01319 -1.02755 1.50601 -2.2065 -0.672818 0.284921 -1.2874 3.63876 3.97045 -3.04403 -1.49651 -1.77743 2.10777 -1.37306 3.42457 2.22695 -4.31605 -5.61068 -2.3845 0.174806 4.95863 3.1165 3.55133 -6.01619 3.30093 -3.06185 -4.02965 2.2607 3.22067 -1.45807 4.80629 3.00851 3.80637 -2.26725 4.35541 3.76424 -3.48444 -4.93136 2.45124 6.01004 -0.193764 -3.58068 1.75121 -2.67556 -1.93892 4.92329 -5.20323 3.50367 -5.17552 4.77902 -0.682595 4.17679 3.21269 3.612 -0.224384 5.24335 0.873313 9.84499 -1.30499 -1.80052 -3.99161 7.57184 5.6245 -7.39121 -6.64614 2.31724 6.44497 -2.20863 -0.258941 2.13192 0.811236 -0.390408 -0.075476 -0.627444 -0.355895 -0.656313 -0.45844 
22 -1.2998 2.78725 4.12796 4.71033 4.96434 -0.448438 -5.82115 -2.31462 6.51236 -2.38517 -3.90104 -0.162291 5.54218 1.27335 -1.80557 4.29658 3.46966 3.47541 -0.207063 0.824863 -2.32782 -2.48208 1.95228 3.32693 0.132453 -1.68331 2.75547 2.97664 -6.30766 0.0867515 1.9857 -4.56712 -0.567615 -3.88122 -0.260719 -1.0455 8.98279 1.04678 -4.17619 4.14329 5.76877 1.40655 -0.482506 -2.9223 1.4433 2.21816 -1.96454 -7.09449 1.74846 -0.379093 0.0476447 -1.83787 1.95002 -0.329058 -3.31155 -1.42768 -0.963948 -6.37861 3.1951 0.843004 0.337805 -3.35855 -2.65408 5.08588 -1.7228 0.142957 0.37934 -0.204704 -5.11574 0.861507 -1.1417 3.16664 3.49406 2.826 -8.77058 -0.182055 -0.573149 -1.40009 0.400398 0.60692 0.784672 4.09572 0.496001 2.78057 -1.91305 3.81124 1.32222 -4.46223 -4.37872 5.81367 5.90422 -0.477652 -0.291551 0.575127 -1.88691 -4.44649 3.39731 -1.07044 2.57646 -6.04581 3.84894 2.56766 1.59813 4.4457 3.46269 -0.914633 2.28036 2.15493 6.38863 -1.37402 -2.25847 -5.94459 5.37013 4.04275 -7.74266 -7.75074 1.23762 3.70115 -1.06063 -0.198672 5.50414 0.282538 -3.20099 1.39734 -0.445437 -1.19443 -0.602318 0.194679 
23 41.3103 -6.30193 -7.76484 40.8002 49.7872 -34.8437 -2.94548 27.4085 -39.5475 56.9467 -62.6624 43.7789 -10.6976 -30.6237 105.999 -48.8737 -5.80097 -4.24798 -57.4436 21.4136 9.3515 26.214 76.7998 -46.8801 42.3593 21.4038 -55.2215 38.5903 -21.3389 51.1065 -48.4369 -57.163 38.1739 -71.2511 26.3866 -24.4721 -39.1226 17.1708 -11.5429 -10.9585 -5.01011 -15.8226 -74.6942 -59.8138 5.39542 -94.8257 19.6434 10.6121 31.3999 -24.439 20.7705 -30.6199 -74.371 -25.8202 38.7391 48.441 -24.716 -19.5926 -41.0757 3.29463 36.672 39.4623 3.1466 -3.20814 23.8695 -98.5962 45.1483 -8.94083 -4.89811 29.3499 1.31046 -21.488 6.81159 -5.59883 44.0082 -39.4869 -52.0215 -63.8763 -45.7526 39.0112 33.2888 34.9394 -57.0869 31.3205 -45.3471 -19.376 11.0315 55.378 27.0459 16.9385 -7.4812 -59.3784 -67.4954 -10.9606 0.149676 9.42755 10.6432 -77.6836 10.3428 -9.0736 -47.0735 -60.5047 44.6257 -35.8498 -73.6352 29.5937 -17.1388 -7.5969 35.3975 8.03357 -14.6087 -42.5894 -79.7164 -22.6478 -17.2714 10.2058 -38.2727 39.9334 -0.52482 -0.45148 -2.56701 -76.5425 -6.16384 -3.36459 32.5016 10.4785 23.5706 55.038 
24 -2.39784 0.855072 -0.921231 1.06525 4.59771 -2.21253 -3.9919 3.41542 5.87827 -3.84737 -5.31689 1.92957 5.16099 -2.1349 2.77502 6.33518 1.64411 3.70763 -2.81048 -2.33391 -2.59163 -0.622973 2.50977 4.01514 -1.14511 -5.20486 3.43581 3.09092 -3.2477 0.0780417 -0.0184446 -3.52441 2.48044 0.317308 -0.321681 0.888264 8.54494 -1.65766 -3.14178 3.24448 7.24268 0.108224 -0.184884 -5.81696 0.431612 2.28857 0.410054 -5.9835 -0.271706 -1.69409 -2.64456 -3.80591 3.68373 -3.11864 -2.81672 -1.75982 -0.406563 -6.04599 1.31384 -1.60955 0.274795 -1.17066 -1.75756 5.53951 -3.15516 -0.805598 -1.84293 2.9056 -1.75105 3.76185 0.50312 0.329465 0.082295 -1.13934 -6.69339 -4.79537 2.09592 -0.450344 -1.68875 -3.30863 1.56982 4.09219 -1.72425 1.47645 -0.787131 2.11342 0.913414 -3.29158 -5.19144 6.40382 4.345 1.25481 0.683107 1.14798 0.553238 -7.49342 1.88297 2.34973 -0.178105 -5.88832 1.28763 5.58564 0.163469 3.48952 3.61943 1.99058 1.44671 1.08899 1.66811 0.651381 -3.52411 -6.71353 1.6324 2.63193 -4.04478 -7.46621 0.759176 0.361647 3.53289 -1.06702 6.52487 1.38187 -3.57001 1.62496 -1.0839 0.0418499 -2.02504 -1.3758 
25 -1.74995 4.54782 4.92991 3.44126 3.75441 0.352773 -1.40953 -3.37556 6.41202 -1.12958 -0.617233 -1.19682 2.90326 2.90606 -5.43276 4.53124 3.73708 2.36018 2.02538 1.32118 -2.17884 -3.83523 0.625656 -0.24476 0.666702 2.94548 0.00782717 1.34029 -5.17215 0.258704 1.39709 -3.25234 -0.860104 -4.7688 -2.11382 -2.49536 5.37712 -0.156457 0.701167 3.5837 0.410338 0.506213 -0.05215 -1.08844 2.72705 -0.88819 -3.50167 -3.26248 3.05794 -1.0376 -0.0857051 -1.3952 -1.13046 -1.16951 -2.36979 1.48855 0.368919 -2.14024 2.36406 3.7016 1.51506 -2.45126 -0.298337 2.26619 -0.29366 -0.528135 2.29326 -2.27268 -5.68406 -2.04542 -2.77292 3.70405 6.01674 2.99084 -5.29899 2.11924 -0.622591 -0.258329 2.85704 1.92529 -1.15794 2.68491 4.31386 2.1939 -0.0494147 3.67686 -0.797552 0.0030339 -2.45005 2.07936 1.1433 -1.66486 -3.33799 -0.590831 -0.273016 1.54304 3.03988 -2.84221 3.65892 -2.69229 3.08574 -1.34965 0.829494 -0.0293939 1.12494 -2.1801 3.44611 2.66948 6.46955 -3.16241 -1.13585 -4.02604 4.95924 3.83851 -5.50001 -3.22951 2.90834 4.05476 -4.80125 -1.20844 1.91466 0.269684 -0.771254 2.01641 -1.29076 -0.91121 1.09139 0.259701 
26 14.96 20.6402 12.8901 -15.1824 -53.2379 44.2331 -12.0808 -6.30058 -1.58702 65.953 -23.2169 3.51104 -24.9262 -58.6368 51.9998 -56.3537 46.493 -85.4341 -31.3788 -18.2993 37.1302 -5.70354 -26.9887 16.1946 0.38816 -6.33272 -13.3916 -102.776 -24.4745 -5.42398 32.4407 39.9111 14.6438 2.51763 -81.9632 -36.8721 -62.7274 -7.34901 -43.0795 -10.1236 -54.2427 -22.4857 47.6226 23.2125 -33.0107 32.1667 15.0105 0.84868 -32.3464 -19.6971 0.511127 -7.54801 -20.8669 18.7534 -37.489 25.3311 -79.5352 -89.8046 12.2383 27.5469 -5.24312 -45.6622 -33.9316 -37.0045 51.4465 -19.4617 -10.153 -20.3856 62.1924 -62.3133 -54.4993 -25.0865 7.50166 26.8956 42.7129 57.5484 12.7173 -39.4611 64.2391 -37.1611 -28.7346 -35.0369 17.7984 -16.8769 -9.06738 -5.29872 -22.2514 -49.9576 -55.244 38.3237 -29.5106 -7.07387 27.0307 40.7031 -31.2356 -13.48 -82.3989 -44.588 -16.9745 -58.7017 -17.6027 -40.5278 14.4367 -56.9194 33.1287 10.4264 -37.7295 55.655 -53.9137 20.3439 -64.9497 -18.6129 -49.2964 -42.4294 -12.6651 -6.65839 -61.5682 -15.716 37.3911 -3.51986 -65.4998 -83.166 75.5539 -25.7289 38.851 -49.2092 -41.8351 -31.3619 
27 2.51882 -4.9745 -7.13267 -10.9743 1.10274 2.13283 3.7332 -0.665989 1.69319 -4.7985 3.39197 8.12018 -7.1879 -8.43031 -1.98576 7.88716 2.51849 -0.198015 -1.95419 -1.87702 0.275521 3.17909 -2.1755 -6.07552 4.62742 -8.05145 -0.0963369 4.87012 6.06343 0.876727 -4.49522 5.9426 -1.31833 0.560838 0.793849 -1.73958 -4.79509 -1.22212 2.19037 4.53155 -3.57584 -5.00161 6.34129 -1.17303 -10.0324 -7.14655 5.5695 7.6196 -4.19621 3.91335 1.21098 -2.62254 -5.87964 -0.401144 7.13184 -1.4524 -2.76096 11.6772 -2.25819 -0.529702 2.31727 0.930178 0.109963 -2.5412 2.15738 2.36735 2.99714 0.343656 4.6716 0.470928 -7.98664 -1.39505 -3.38231 -5.83552 9.72858 -4.04583 1.34878 3.42661 3.49678 -0.695639 0.938344 -3.51328 0.886403 1.17772 8.61555 -1.67606 -4.02552 6.39312 3.43073 -4.90194 -7.43744 -1.40006 0.857251 -4.78913 9.55242 4.54861 -6.2536 1.50571 -3.94296 9.44133 -2.44861 1.68866 -1.88256 -6.87584 -10.0995 -3.26878 2.6808 4.56968 -5.58075 5.70261 -1.62716 2.32798 -6.46586 -4.48209 7.71316 6.69344 2.48533 -2.8828 4.00953 -5.51511 1.45588 -2.18419 5.85624 1.12865 -2.08301 -0.0839005 1.61836 -1.50617 
28 -0.110274 4.30143 3.88555 4.6894 4.86702 -1.41401 -2.56196 -3.21225 4.96201 1.76458 -0.261782 -2.64855 0.405994 1.50392 -3.65857 1.52928 0.693718 3.0632 1.10247 1.28393 -1.88142 -4.21839 0.287736 1.34087 0.237967 2.20947 3.61716 1.13379 -6.02224 0.225194 1.80602 -1.8249 -1.65196 -4.32237 -0.551576 -1.23505 5.83891 0.160157 -0.624711 3.09468 1.34996 3.33295 -0.364669 1.27759 1.91746 -0.686306 -3.34525 -2.06532 4.00073 0.199358 0.240143 -2.49645 -1.1014 -0.256073 -1.53103 -0.326978 0.975968 0.566402 2.17608 3.82865 -1.79056 -0.376789 0.030332 1.95011 -1.30103 2.15499 1.30347 -2.91426 -3.6312 -1.4344 -0.230403 3.07643 2.08595 1.47726 -4.587 1.01044 -1.45558 -2.26388 1.9507 1.83653 -1.17529 4.33245 2.96948 2.63381 -1.04477 3.33625 2.22239 -1.21711 -4.0407 1.46123 3.32144 -0.514004 -3.64146 1.19574 -0.759628 -0.549736 3.29325 -3.73203 2.27929 -2.93963 2.96926 0.542376 2.5338 1.78676 1.88252 0.618265 4.19374 1.34895 6.99529 -0.387552 -1.99115 -4.06228 5.71723 4.22184 -4.30398 -4.18363 2.95705 4.631 -0.610832 -1.5941 2.29814 1.16764 -0.697635 0.353218 -0.738448 -0.0447297 -0.932446 -0.868831 
29 2.51882 -4.9745 -7.13267 -10.9743 1.10274 2.13283 3.7332 -0.66599 1.69319 -4.7985 3.39197 8.12018 -7.1879 -8.43031 -1.98576 7.88716 2.51849 -0.198015 -1.95419 -1.87702 0.275521 3.17912 -2.1755 -6.07552 4.62742 -8.05145 -0.0963368 4.87012 6.06343 0.876727 -4.49522 5.94259 -1.31833 0.560838 0.793849 -1.73958 -4.79509 -1.22212 2.19037 4.53155 -3.57584 -5.00161 6.34129 -1.17303 -10.0324 -7.14655 5.5695 7.6196 -4.19621 3.91335 1.21098 -2.62254 -5.87964 -0.401143 7.13184 -1.4524 -2.76096 11.6772 -2.25819 -0.529702 2.31727 0.930177 0.109963 -2.5412 2.15738 2.36735 2.99714 0.343656 4.6716 0.470928 -7.98664 -1.39505 -3.38231 -5.83552 9.72858 -4.04583 1.34878 3.42661 3.49678 -0.695639 0.938398 -3.51328 0.886403 1.17772 8.61555 -1.67605 -4.02552 6.39312 3.43072 -4.90194 -7.43744 -1.40006 0.857251 -4.78913 9.55242 4.54861 -6.2536 1.50571 -3.94297 9.44133 -2.44861 1.68866 -1.88256 -6.87584 -10.0995 -3.26878 2.6808 4.56968 -5.58074 5.70261 -1.62716 2.32798 -6.46586 -4.48209 7.71316 6.69344 2.48533 -2.8828 4.00953 -5.51511 1.45588 -2.18419 5.85624 1.12865 -2.08301 -0.0839006 1.61837 -1.50617 
30 -0.853487 3.04655 3.66389 4.39762 5.02673 -1.04244 -4.19105 -1.98675 6.24517 -1.50408 -2.86177 -0.775337 3.7545 1.12308 -2.10343 4.38033 2.39012 3.67043 0.144696 0.530717 -2.46116 -2.93178 1.5982 2.52383 0.0701324 -0.468968 3.05644 2.56684 -6.15006 0.163231 1.49174 -4.06361 -0.534493 -3.23056 -0.409615 -1.40142 7.63169 0.276315 -2.78597 4.10681 4.37406 1.69455 -0.359511 -2.08345 1.87612 1.02976 -2.41042 -4.89337 2.39643 -0.484479 -0.505039 -2.78726 1.07631 -0.881443 -2.71567 -0.807768 -0.197929 -3.90199 2.44728 1.74941 -0.108223 -1.92112 -1.77895 4.17903 -1.59867 0.474225 0.545505 -0.829974 -4.38376 0.350207 -1.12978 2.85698 2.99379 2.01091 -7.06699 -0.274145 -0.326241 -1.39375 0.83573 0.568944 0.48819 4.4381 1.41398 2.471 -1.09036 3.19807 1.20121 -2.64042 -4.57268 4.44162 4.44305 -0.247258 -1.66763 0.586814 -0.911703 -3.28102 3.35642 -1.48114 2.44652 -4.73118 3.40177 2.07339 1.83681 2.96512 2.93939 -0.244085 3.04685 1.9558 6.09377 -0.959758 -2.37643 -5.40105 5.23633 4.11948 -6.48518 -6.33608 1.96755 3.85098 -0.957351 -1.14309 4.69414 0.666849 -2.09697 1.6335 -0.660268 -0.552384 -0.683595 -0.489733 
31 -20.2201 48.5168 -47.196 -15.4566 42.0602 -29.5974 -20.8611 -14.5169 28.0769 34.7579 -5.75455 22.2118 -34.0269 -7.46669 -29.3864 -16.4432 53.154 -47.1214 20.8562 22.3357 -42.6628 58.7048 -3.85796 12.7556 15.4739 -23.1564 58.6417 -34.0625 56.1901 5.21608 45.1134 32.8903 0.478481 -56.9813 13.0939 69.2102 -95.1683 41.1282 -20.1509 56.3507 -49.4719 28.3321 23.8245 2.10623 -32.918 105.416 45.368 23.63 -50.6608 11.6425 -13.4932 -18.8436 13.1004 96.8991 2.73475 -8.18312 71.2774 -46.0731 10.6416 53.6846 68.6954 3.46874 27.0656 -48.0363 -57.6776 -76.0738 -51.0304 -32.1843 81.4527 -4.78973 -70.3572 -27.0402 -23.9267 58.5297 -9.10846 -1.968 50.8828 18.7216 -42.7818 -2.08313 -13.7802 -70.7907 -23.9722 51.4882 -45.7873 33.1983 -22.6168 23.7472 35.2595 0.561735 18.0073 -7.7147 61.6194 7.45242 -42.0799 -50.3476 -15.7251 21.8858 -11.8127 8.86112 31.6125 19.237 -6.17492 -59.8989 -27.0511 -85.0306 50.8401 15.4603 -2.66833 -1.13184 29.512 -16.5125 1.58289 -20.2431 -17.4247 6.87151 -40.5811 -38.8343 -19.5056 18.6473 -53.2107 21.0733 -12.703 -40.3929 9.01602 62.0951 -74.0439 65.1357 
32 21.162 -2.19303 -59.046 -43.6602 9.32192 41.2845 -33.1043 41.7157 -52.0077 -16.5298 -39.5415 -58.7629 -74.6184 38.5212 55.6548 44.3618 -37.2937 22.4932 2.17877 -14.9211 66.0527 67.0644 -13.3031 -10.2516 15.8962 -54.6347 -35.3277 81.051 43.7421 58.6723 52.6683 59.1995 -42.8975 -1.15276 13.9099 -25.3523 -73.9444 -31.3179 17.3027 -11.4497 42.2698 -29.7685 48.6257 -13.281 15.1646 -0.754718 30.4896 -22.2443 22.7979 37.4119 -36.0665 -10.2606 -1.20291 55.8478 -21.4672 15.7461 0.917967 53.6168 -8.898 25.424 4.73764 50.8628 -21.0377 61.053 43.0656 -14.4783 39.1978 -21.085 -39.2601 47.7573 -17.8659 6.55907 16.7384 18.5893 -8.94939 26.7382 13.8086 -86.9447 0.0577813 40.9947 -56.1749 -41.7022 30.1767 42.906 16.6249 2.42653 -40.7776 -85.0754 -41.3655 -48.0096 40.286 -40.0284 9.18317 26.8235 23.1429 -48.8515 12.3935 59.8489 -74.5585 -28.7335 3.54977 -1.99214 -29.7372 19.8401 28.2 64.4069 48.5115 39.5738 -33.7602 49.7948 -9.57354 -71.457 14.8202 5.51595 80.2225 -60.7427 -92.1065 30.2676 -52.1802 -21.1269 -20.6563 -6.51793 33.5219 0.387548 20.6199 55.8286 -51.4608 31.2276 
33 -2.18158 0.917608 -2.94023 -1.54465 4.1095 -2.13447 -4.60635 2.30372 4.64947 -4.22417 -5.10315 2.69248 4.7233 -3.67817 4.22586 6.07101 2.43396 4.15382 -3.23127 -1.87719 -1.46367 0.776719 0.976571 4.0976 -0.689404 -7.31483 4.64386 3.09826 -3.11417 0.794689 0.454643 -1.89826 2.26277 -1.28503 -1.17814 0.530114 8.92229 -2.19702 -4.06369 2.96231 9.85012 -0.707248 0.199635 -5.39157 -2.05516 1.85589 2.51223 -6.63646 -0.81675 -0.559886 -2.14382 -3.44044 3.47303 -3.08068 -3.40355 -3.57919 -1.07964 -5.33836 0.407052 -0.809045 -0.520864 -2.3264 0.0744063 6.40748 -3.01457 0.986165 -3.20535 3.39355 -0.00863396 3.17596 2.0129 0.488109 -0.940541 -1.28564 -6.33066 -6.26264 2.59903 -0.0506309 -1.55191 -3.11574 1.88358 3.71803 -3.35644 0.740842 -1.26554 1.6519 2.10948 -2.4193 -3.5523 4.48686 3.49288 0.166454 2.01948 1.80683 0.543692 -7.58973 0.421618 2.63959 -0.313713 -5.35565 -0.196903 6.94055 0.468511 3.73463 1.81613 0.887793 0.253262 0.773722 -0.275805 2.7028 -2.8167 -6.73542 1.37916 0.979462 -3.38805 -8.27555 0.75388 -0.808815 5.88084 -0.514045 6.79115 1.81416 -4.59899 1.00414 0.674784 -0.0615161 -3.12408 -0.220183 
34 0.541236 -3.79602 -3.63449 -7.75084 2.78241 0.413387 2.06488 1.14471 3.99136 -6.48172 -1.55432 6.87734 -0.134869 -4.55893 -1.33233 9.34331 3.12699 1.63207 -2.10138 -2.76709 -0.899501 3.34115 -1.2201 -3.44472 3.20791 -6.15102 0.875742 3.43269 1.79362 1.01548 -3.17942 -0.829534 0.953523 2.41372 -0.195977 -2.06705 -0.848546 -3.24563 -0.50513 5.06829 1.66627 -4.42855 4.64274 -4.4738 -5.2051 -2.72403 4.39112 2.20392 -3.89441 0.349034 -2.19188 -3.97965 -0.764132 -2.63297 3.6074 -1.08379 -2.18581 3.21681 -0.86047 -1.10933 3.45329 -0.480972 0.388014 0.530865 1.92775 -1.06302 0.68467 2.1002 1.80597 3.20686 -6.139 -1.67089 -0.788144 -3.70842 2.03039 -4.41829 2.76026 3.55064 1.36563 -1.44411 2.75701 -0.569793 -0.690027 0.476176 4.31989 -0.762403 -4.20811 5.15633 0.263233 0.903282 -4.37604 -0.598623 -0.500917 -3.00354 6.46678 -0.0262698 -3.26055 3.04674 -2.3016 4.30062 -0.310636 3.15243 -0.845687 -2.6807 -4.8515 -2.08552 0.585943 4.02425 -3.75915 2.69736 -1.86284 -2.18312 -3.51847 -2.78043 1.90641 2.26126 1.92349 -1.68904 2.06172 -4.85764 3.00586 -1.30992 2.32126 3.01363 -1.19982 0.337903 0.189525 -0.859654 
35 -0.711649 2.6902 4.25068 4.23862 5.12401 -0.617072 -5.48894 -2.78105 6.19272 -1.46869 -3.20743 -0.355901 4.23193 1.17686 -2.27764 3.60767 2.79043 3.6715 -0.0288503 0.614426 -2.11934 -2.5466 1.2755 2.72676 0.358834 -1.09818 3.33504 2.454 -6.21253 0.191199 1.63961 -4.30917 -0.67728 -3.47197 -0.388441 -1.4599 7.84721 0.738412 -3.61799 4.06085 5.07154 1.69484 0.0409362 -1.94528 1.18424 1.92223 -2.14349 -5.91778 2.09286 -0.182335 -0.193248 -2.44885 1.11324 -0.500945 -2.46999 -1.27633 -1.02281 -4.54988 2.71508 1.44377 -0.187065 -2.62084 -2.11763 4.55594 -1.5124 0.331245 0.557461 -0.509093 -3.95648 0.952467 -1.23628 2.72133 2.76476 2.4585 -7.96064 -0.0674686 -0.631606 -1.3813 0.578942 0.952552 1.16113 4.03804 0.57759 2.83269 -1.46753 3.26866 1.10374 -3.37142 -4.65198 5.01839 5.40279 -0.313915 -0.958969 0.938499 -1.58026 -3.62266 3.10833 -1.16375 2.61512 -5.19367 3.91589 2.29591 1.79173 3.93327 2.87511 -0.542826 2.66066 2.12571 6.08887 -0.715223 -2.18427 -5.51561 5.39991 3.8293 -6.71836 -6.80118 1.44817 3.85223 -0.345582 -0.695573 5.26612 0.60994 -2.79803 1.19144 -0.0284175 -0.494438 -0.9697 0.0052455 
36 18.7961 -54.5071 -12.4771 40.8419 16.9656 -15.0503 -50.9508 49.4602 5.61234 -54.8057 39.1037 32.4559 10.4624 53.5772 30.4307 27.2174 -64.1063 -39.6336 -13.2471 16.5309 12.887 -7.03006 -1.14268 -37.4013 -97.5415 11.5508 0.206421 -2.31768 57.45 -27.3756 -39.0349 25.1474 -49.9411 58.9555 -47.3864 25.6424 -11.1571 3.61765 23.7516 -30.839 -32.8251 33.224 -12.6302 21.783 41.6241 -31.9692 19.696 26.84 -19.2505 -40.019 10.0689 30.4967 0.201512 37.3416 -45.8021 15.6587 -62.493 68.9995 -19.01 12.1493 6.2781 -27.0668 64.1035 -93.9082 -18.6435 42.539 38.8248 23.5991 -60.4875 10.6783 -18.6566 13.6066 -69.4335 -9.88142 3.07554 78.5566 -9.39543 52.7166 -9.27225 -1.42062 57.9907 -46.2203 72.8947 5.20924 -58.8254 -2.38991 -3.80969 -12.1896 40.1909 5.79105 -34.0858 -0.467494 89.4971 66.0193 12.3593 -35.5563 -4.64345 4.76426 -41.5448 44.2956 -12.6994 38.4171 -52.211 28.7006 6.89624 -76.7963 -2.91418 -41.5507 78.4708 22.563 79.303 39.9921 6.65917 34.1561 20.8206 4.12261 -75.6792 35.3865 -43.0628 3.62311 -67.7462 38.7369 25.8994 -80.6904 -8.42177 71.1323 -5.81079 20.5941 
37 -1.92755 6.46583 4.58593 3.83657 5.3431 -0.924624 -4.6234 -3.12197 5.25713 0.963908 -1.8058 -2.57398 2.46369 2.69788 -1.56479 0.913029 2.89676 4.11564 1.14659 1.49146 -1.22043 -4.07727 -0.115962 3.80027 -0.718808 0.861024 4.62338 0.377638 -7.74463 0.290767 2.20111 -3.71921 0.906609 -5.47762 -2.70484 -1.66458 8.62897 -1.27705 -0.912419 2.6724 5.49795 3.16488 -0.993577 0.384657 2.45427 1.04504 -4.00416 -6.07876 4.41431 -0.722861 -0.72881 -2.21513 0.380027 -1.84084 -4.2194 -0.388953 0.181657 -2.53052 1.55048 4.01338 -2.40497 -2.2011 1.09994 4.41076 -2.79599 1.85528 0.136195 -1.72735 -3.16789 -1.41885 1.19394 2.93082 3.14458 2.55734 -8.7513 0.00019244 -0.751619 -2.01639 1.68662 1.99998 -1.18822 4.03697 1.32684 2.54833 -3.17842 3.67547 2.91691 -1.57401 -5.18202 2.35489 4.33744 -0.356743 -2.5843 3.03619 -2.60992 -1.58874 3.49054 -1.55181 3.81872 -6.62373 2.85353 0.821817 2.67216 2.78772 3.25703 -0.72256 3.31918 0.965364 6.33698 -1.34013 -2.27931 -5.63367 7.39144 4.09678 -5.17932 -8.32758 2.45408 3.74814 0.733829 0.415655 3.58292 2.85552 -3.71303 0.487018 0.92242 0.737727 -3.42752 0.776797 
38 55.9341 10.5447 -10.3828 72.9204 -0.339811 21.9476 -24.6361 47.0111 -23.3648 4.86371 -70.1993 -84.0129 3.5524 -52.7468 -58.5915 -4.27703 -3.77511 28.0019 12.4564 -38.9437 80.4402 -10.3427 46.4117 72.4168 -65.7153 8.76696 81.4701 3.57831 -10.7512 34.9598 -15.9602 -59.8063 -48.082 -22.3917 4.97168 64.8608 -23.7135 -27.4694 8.69652 -25.0058 65.0258 30.3889 6.43742 -13.3692 -23.4316 42.5002 -6.99099 -9.9243 71.8467 10.1805 45.9437 57.6417 -11.5917 -5.47907 30.566 29.4221 5.43424 19.8754 -71.5379 -30.2884 -52.0564 20.6718 7.68519 -8.81386 -11.4974 13.1154 -41.6947 -19.4014 -11.4707 -44.9093 -33.3775 -50.5065 -24.2869 -43.4286 -48.9862 54.7092 -94.079 33.7944 29.0254 -17.0322 34.2703 -28.9117 31.1764 -82.4453 69.2504 -45.514 50.9368 -21.966 -13.3013 -27.1919 -70.1144 -74.3976 2.76183 44.2631 22.4194 -9.95134 46.6642 -25.8878 -30.768 -59.1867 27.091 27.2782 -15.7796 11.146 91.7721 31.0911 -31.5818 -11.7083 45.8225 9.29769 -8.95537 1.16269 -26.3246 2.38289 27.6741 -38.5036 -28.8231 55.8214 21.7717 -43.4696 38.1228 64.2424 -20.5079 46.25 6.56479 4.50883 40.3368 -42.1404 
39 1.38209 -2.65656 -1.07139 -5.81333 2.98799 0.393148 3.42169 0.0128817 3.57859 -4.8282 -0.950807 5.01155 0.164038 -2.21322 -4.0692 7.026 3.10738 1.03962 -0.975167 -1.22106 -0.555973 2.33281 -1.67673 -4.48915 3.75349 -2.82778 0.779635 2.03186 0.494724 0.710341 -2.58121 -1.79378 -0.360769 2.02976 0.449506 -2.21422 -1.32022 -2.82778 -0.453917 4.70236 -0.047891 -3.37789 4.13745 -2.49556 -3.37372 -2.69598 3.21045 3.1444 -3.00631 -0.0750633 -1.4631 -2.80644 -0.961816 -1.68235 4.53492 -0.215462 -0.860037 3.5138 0.568682 -0.385873 2.97693 -0.153945 0.844767 -0.827298 3.3629 -1.00582 1.23157 0.0294173 -0.535202 2.60957 -6.2288 -1.3774 -0.0324066 -2.23235 1.68618 -1.7171 1.34274 3.04031 1.77616 0.385321 1.87099 -0.601025 1.04962 0.503142 3.04547 0.256601 -3.56296 5.59627 0.323528 0.678872 -3.85877 -0.905722 -2.73659 -2.72146 5.43727 1.19928 -2.10443 0.956789 -1.96428 4.87966 0.703568 1.68335 0.634346 -1.73308 -3.71549 -2.29841 0.684312 4.01616 -1.34461 1.16045 -1.81619 -2.40493 -2.23767 -2.31226 0.786162 3.68142 2.08502 0.251671 -0.779973 -4.69936 0.285502 -2.31141 3.2259 2.82078 -1.87294 -0.182495 -0.0194764 -1.19729 
40 -44.7851 -8.90704 35.6493 15.3065 -18.1024 -39.0417 -57.3983 -31.2509 -49.5252 -2.05887 -8.8926 -55.2402 -34.7887 -26.3291 -79.7914 84.7934 11.0722 -37.0218 35.2455 37.5819 -11.1678 -81.324 48.8815 -58.1968 -19.6699 -4.92116 13.0038 6.65258 71.5791 5.27752 -37.4749 24.951 -0.630935 101.504 35.3408 -6.36332 -47.7223 -29.3982 -41.2591 12.7599 -42.3827 46.5906 73.7195 -64.0839 23.4622 91.7583 -75.5378 37.7925 -41.1853 -39.8017 73.5192 52.1269 -22.0817 22.6918 -11.0474 -37.2753 13.8273 9.21805 -34.1251 -31.0421 8.9598 32.447 -8.91696 5.45831 30.492 -77.5204 -1.69015 -10.3052 -2.59132 52.9282 19.4559 -47.3 -6.16689 -15.6255 -6.90449 16.498 -23.3497 12.224 47.876 35.7471 -29.707 19.3307 -16.9985 45.3848 -60.2544 -30.8177 13.2265 55.0878 -16.5121 -23.545 20.5424 94.0541 12.3813 15.9749 -1.41536 44.9487 34.5085 -2.5359 32.593 -67.3044 -50.4202 42.1199 -15.7769 -53.3696 34.2792 77.2526 -37.1003 5.05028 -18.9606 16.3479 53.6773 -33.4931 36.861 -75.2923 16.5362 -12.4071 -1.19826 16.4406 34.1597 -9.84507 -5.22194 -38.9336 -24.6207 14.6612 74.2372 -23.7426 -39.9218 10.6846 
41 -2.59859 2.98661 -1.03571 1.66568 4.91515 -2.97735 -5.54786 2.74422 4.50886 -2.28024 -5.4815 0.294773 5.34297 -1.72273 4.51062 3.44057 1.59132 4.41339 -2.83199 -1.10971 -1.43304 -0.913706 1.55863 6.01936 -1.88808 -5.67419 5.82631 2.11987 -5.28013 0.452647 1.36693 -3.06562 2.40144 -1.77154 -1.05563 1.34749 11.1162 -1.92842 -4.34705 2.21377 10.4294 1.48825 -1.42909 -4.30215 0.339699 3.14703 0.495613 -7.99888 0.992527 -1.335 -2.07214 -3.10329 4.45551 -3.04477 -4.55544 -3.20514 -0.0245227 -6.81862 1.4179 -0.575821 -2.28444 -1.83592 0.0629524 6.70361 -4.04935 1.47922 -3.62641 2.49334 -1.38484 2.89231 3.89228 0.855979 -0.916822 -0.228765 -8.61429 -5.26244 1.68381 -1.59608 -1.95849 -2.56032 0.830332 4.85316 -3.12188 1.17201 -3.52273 2.80964 4.18405 -4.27058 -5.32172 5.56592 6.23266 1.0335 1.041 3.44771 -1.52217 -8.88714 2.29838 1.73267 0.176329 -8.11555 0.673682 6.57121 1.68755 5.79113 4.87115 2.18713 0.898165 -0.275602 2.11113 1.55443 -3.44333 -7.74037 3.50263 2.63544 -4.74003 -10.3848 0.540132 0.626138 5.72987 0.553084 6.28431 2.42889 -5.58136 0.23625 0.571147 0.108982 -4.58158 -0.555895 
42 3.50119 0.285634 1.01489 -1.69111 4.2136 1.04197 -0.373389 -4.96264 1.53427 1.65092 2.92867 1.3666 -5.94657 -1.62372 -4.73986 -0.16455 1.20877 1.02185 0.387411 1.72742 0.290235 -1.35893 -2.38536 -2.39423 3.26258 -1.81099 4.06057 2.02121 -1.50759 0.474001 -0.810982 1.9076 -3.33224 -2.53543 1.37967 -1.56314 -0.145059 0.526989 -0.339411 3.54676 -1.94408 1.88298 3.3095 4.16241 -4.59605 -4.05101 -0.296458 3.7687 0.975225 3.64994 2.57821 -1.74222 -4.55677 1.95336 4.62726 -1.37189 -0.770531 9.19606 0.900655 2.11432 -1.94583 0.887024 0.0492624 -2.20667 1.21788 4.50072 3.19731 -3.81087 0.623301 -1.16917 -4.9751 0.615783 -2.19386 -1.2846 2.13175 0.750863 -2.58006 -0.788164 3.97899 3.77294 -0.934796 -0.170618 1.9733 2.84003 2.05704 1.56672 0.943299 1.80203 -0.716071 -2.68488 0.0497925 -0.581069 -2.85535 -0.99867 2.94033 3.48362 -1.08166 -2.7678 -1.07042 3.83208 1.9063 -0.145449 2.53979 -0.697116 -3.58707 -1.72546 4.22511 3.20111 3.02244 3.04869 -2.43847 0.0620825 1.73545 -0.277791 2.05351 1.60963 2.74297 3.14568 2.00953 -3.39798 0.240096 -1.08144 3.74672 -0.845303 -0.827602 0.161168 -1.78352 -1.19774 
43 -1.03251 -2.47347 -4.37354 -6.41747 2.25656 0.0682734 1.46755 2.38611 4.736 -6.40416 -1.61278 6.07844 0.454794 -4.85749 -0.176112 9.86763 2.98505 1.64063 -2.14739 -2.95259 -1.36143 2.10266 0.104716 -2.24004 1.84976 -6.10189 0.00218561 3.89163 1.85854 0.680322 -2.71979 0.126283 1.47382 1.11928 -0.757559 -1.09806 1.23666 -2.67918 0.407172 4.35046 1.71065 -4.42993 3.44528 -5.49639 -4.10203 -2.62777 3.65248 0.799326 -2.94578 -0.175982 -1.96713 -3.49995 -0.652648 -3.09671 1.81471 -0.627912 -1.62926 1.39125 -0.894881 -1.00417 3.2842 -0.621485 -0.138494 1.54774 0.329515 -1.1203 0.486051 2.56954 0.829233 2.47307 -4.49272 -0.696029 0.0576214 -3.41631 1.61881 -4.68172 3.0035 2.97134 0.927235 -2.75408 1.69891 0.0398352 -0.0351426 0.617728 4.53212 -0.107203 -3.45438 3.41892 -0.0401529 1.11517 -3.6979 -0.613538 0.45682 -2.62823 6.00089 -0.951118 -2.39372 2.70634 -1.75185 2.35667 -0.961373 3.17772 -1.83341 -2.83311 -3.81719 -1.39421 1.15883 3.30361 -3.11427 2.10527 -1.88126 -2.6592 -3.40555 -1.38176 1.47327 0.545012 1.904 -1.93749 2.0307 -3.84949 3.68768 -0.617897 1.26308 2.70243 -1.764 -0.145922 0.938533 -0.989841 
44 -1.67677 4.96015 3.94813 4.72053 4.73123 -1.31806 -3.74953 -1.9708 5.56554 -0.0293855 -1.79396 -2.25931 2.97327 2.20466 -2.21581 2.59537 1.95809 3.31167 0.86606 0.90028 -1.81256 -3.79729 0.795764 2.83695 -0.640015 1.16652 3.09805 1.28861 -6.77664 0.39725 2.05495 -3.53936 -0.145673 -4.5021 -1.50235 -1.43574 7.76413 -0.470883 -1.18561 3.21514 3.6959 2.4077 -1.11748 -0.701964 2.71616 0.916853 -3.41516 -4.88294 3.75561 -1.01074 -0.509724 -2.3498 0.505642 -1.50332 -3.43592 -0.202435 0.242458 -3.12396 2.31639 3.20247 -1.16902 -1.77308 -0.0366176 3.68514 -2.04506 1.01613 0.514585 -1.62925 -4.2501 -0.988105 0.476117 3.37765 3.44429 2.33883 -7.00335 0.389088 -0.565089 -1.78534 1.45328 1.13056 -0.831593 4.29777 1.77871 2.40682 -2.18784 3.66197 1.99573 -1.89867 -4.34442 3.1555 4.04191 -0.472487 -2.57282 1.64985 -1.59729 -2.11207 3.59723 -2.11802 3.06708 -5.53634 3.00877 0.778795 2.09902 2.58508 3.23048 -0.0490647 3.37296 1.20157 6.32809 -1.53177 -1.92043 -5.16428 5.94915 4.36103 -5.8884 -6.55637 2.27503 3.89158 -0.825562 -0.381346 3.33282 1.5005 -2.48788 0.904874 -0.26578 0.0625137 -1.36839 0.0258486 
45 -2.91682 -2.32545 -3.81787 -2.3713 3.56204 -1.94473 -0.237918 7.46 6.25766 -6.45466 -5.11882 5.00412 3.82282 -4.13258 3.10935 10.2295 0.943907 2.32216 -3.82024 -5.0828 -3.35605 0.916511 3.3836 1.64455 -0.885316 -6.53619 0.667609 4.01304 1.02702 -0.281014 -2.89089 -3.03984 4.21452 4.62354 0.320122 1.36206 4.7289 -3.16875 -0.3997 3.75147 3.66018 -2.49157 1.35053 -8.56716 -0.337764 0.620986 1.7038 -2.29284 -2.7335 -2.81271 -4.36176 -5.07698 3.3594 -4.67541 -0.228771 0.077666 -0.531739 -4.00005 0.0526554 -3.99029 2.99433 0.764979 -2.61877 3.45999 -2.55045 -3.43824 -0.722931 4.61007 -0.325526 5.54905 -2.67061 -1.83769 -0.515162 -4.3486 -2.29499 -6.35008 3.80821 1.59226 -1.81328 -5.70627 2.00939 2.28273 -1.1398 0.976065 2.81233 0.451864 -2.92747 -0.755394 -4.46305 6.57415 0.445913 2.30104 0.583992 -1.36367 4.5426 -6.47322 0.176155 4.8003 -2.38803 -2.7309 0.128512 5.08312 -2.19589 -0.216511 1.79622 2.61029 1.54143 2.01997 -1.86676 0.447359 -4.06516 -5.17524 -2.94941 1.2586 -0.439503 -3.24277 0.843994 -1.95681 3.16531 -3.21194 6.06746 0.507584 -0.745915 3.09733 -3.42044 0.613657 -0.0471226 -2.86489 
46 -2.99073 -3.07795 -4.74788 -3.81153 3.07367 -1.64108 1.0691 8.03793 6.39399 -7.25387 -4.49156 5.99438 2.85913 -4.80073 2.7068 11.4664 1.01361 1.8464 -3.77462 -5.61662 -3.34739 1.28533 3.3845 0.497409 -0.56862 -6.74947 -0.327626 4.40443 2.33671 -0.288915 -3.69566 -2.35683 4.39071 5.22698 0.288294 1.13127 3.30142 -3.49706 0.745591 4.02371 2.18231 -3.58211 2.01302 -9.04737 -0.918513 -0.409969 2.12126 -0.857874 -3.24879 -2.82981 -4.55879 -5.30621 2.58476 -5.01474 0.726857 0.6886 -0.698767 -2.68487 -0.511072 -4.14308 3.88424 1.15139 -2.63114 2.6377 -2.14916 -3.8727 -0.0883933 4.8316 0.107391 5.42455 -3.86054 -2.1638 -0.405332 -5.10768 -0.438119 -6.49891 4.16999 2.3142 -1.36839 -6.06514 1.93216 1.46815 -0.576968 0.939118 4.29298 -0.0571669 -4.1496 0.525857 -3.75155 5.89021 -1.33282 2.23372 0.58184 -2.33505 5.96976 -5.35032 -0.560929 5.14831 -2.78813 -1.23608 -0.306001 4.49631 -2.99042 -1.85934 0.562139 2.2385 1.74026 2.51388 -2.90022 0.490044 -3.9073 -4.35878 -4.27159 0.722874 0.829605 -1.66606 1.07776 -2.59502 2.75614 -3.87397 5.69784 0.224 0.313674 3.55437 -4.00899 0.694653 0.778875 -3.03231 
47 1.43245 1.99583 3.75269 0.832956 5.15953 0.293473 -1.96849 -4.62903 3.66149 0.63126 0.439348 0.37359 -1.71777 1.11835 -4.75787 1.15258 2.11932 2.25871 0.834344 1.42061 -0.548252 -1.94642 -1.65654 -0.601903 2.29486 -0.385829 3.87417 1.19365 -4.37488 0.588496 0.17125 -1.79365 -1.93296 -2.87365 -0.23266 -1.99536 2.94085 -0.238053 -1.0365 3.93573 0.70436 2.12232 2.10835 2.17076 -1.61254 -1.4794 -1.59184 -0.205738 1.85529 1.68281 0.640334 -2.24523 -2.15375 0.430151 1.59769 -0.629376 -0.780251 3.89367 1.63005 2.54005 -1.12699 -0.645855 0.183671 0.032808 0.42998 2.30024 2.30879 -2.85954 -1.37998 -0.43849 -3.98848 1.2537 0.590119 0.480544 -2.89247 0.87469 -1.82263 -0.802481 3.24114 3.6395 -0.205876 1.62904 1.65225 2.91852 -0.195162 2.45586 0.57423 0.622163 -2.59615 0.573726 1.98673 -0.37406 -3.30002 -0.0114148 0.7353 1.63188 0.922623 -2.25687 0.6436 -0.0794177 3.32273 -0.126308 2.68875 1.3657 -0.761634 -1.43228 3.51424 3.06411 4.87885 0.690775 -2.155 -2.40537 4.21131 1.53979 -1.7358 -1.62631 2.78086 3.98542 0.53302 -2.73749 1.82417 -0.0735637 1.08661 0.153577 -0.200658 0.355282 -1.91993 -0.282735 
48 -3.69617 -29.209 -8.93699 60.4132 -22.0785 42.8872 70.357 -20.6432 -12.1169 14.3866 -36.804 -21.7033 31.3477 -70.8082 17.9543 -41.1078 7.77995 23.8181 -1.95282 -20.4963 0.785496 -48.6424 39.862 -59.5329 -32.0905 74.9915 -8.54078 -43.2735 -20.4892 -63.3221 -69.9055 73.8048 7.74834 18.0131 29.134 -8.34447 -42.6993 -2.37792 -27.5128 48.952 -97.8239 -68.9659 -57.8985 -51.1713 -39.7112 -44.0096 9.62239 64.9434 -12.2215 -89.0135 -54.0911 -12.9485 -37.9975 -17.1477 17.5457 -61.6571 57.4641 18.2984 -8.62263 -75.1173 -51.9623 21.2325 -7.28481 54.8774 33.7897 24.3972 -55.4165 -0.333761 17.0015 12.0909 61.3222 17.6278 -64.0971 2.19467 63.0523 -7.41589 54.8554 -27.4634 -46.5204 -57.2109 -18.8341 -0.920547 24.0441 38.3362 -19.5747 -56.6544 80.8406 32.3936 -36.9873 -28.4076 -35.4471 12.4187 -9.71907 -35.7697 -35.978 30.3617 -19.7726 10.6788 25.792 -0.133295 22.4305 -23.6157 13.3892 -36.0637 -17.6003 -20.6185 51.6187 -68.5728 -46.7517 14.4482 -15.438 44.0816 12.1301 -4.35149 -15.3417 2.56574 39.6519 -42.2715 -65.8427 17.5461 27.5846 2.25415 23.6767 -76.8206 -42.3854 -10.3079 -49.1926 37.668 
49 -1.58111 1.15486 -1.18496 -2.12484 4.16418 -1.15072 -2.68931 0.338089 4.93602 -3.75005 -3.0239 2.65236 2.47965 -2.22185 0.964129 6.31491 2.8121 3.65086 -1.59445 -1.4077 -1.25533 0.221831 -0.147862 1.69168 0.501383 -4.88246 3.48869 2.57173 -3.1273 0.958168 -0.170356 -2.02016 1.54549 -1.62249 -1.81786 -1.11627 6.06879 -2.42703 -1.89304 3.77932 6.29933 -0.973346 1.36747 -3.72389 -1.9567 0.0821945 1.36314 -3.83561 -0.116464 -0.268282 -2.04777 -3.60639 1.18066 -2.97029 -1.83173 -1.94363 -1.29534 -1.80705 0.121383 0.843529 0.255882 -1.85243 0.760619 4.23138 -1.59353 0.606468 -1.12046 1.73141 -0.0235073 1.70197 -0.70522 0.688319 0.458269 -1.01853 -4.45574 -4.28486 2.00405 0.635296 0.447514 -1.23615 1.43656 2.77032 -1.34425 1.20693 0.0548573 1.41987 0.248811 0.417661 -2.78935 2.66694 1.09339 -0.334192 -0.00193036 0.67028 1.62917 -3.43841 0.07759 1.61848 0.378942 -2.84222 0.567422 4.07816 0.519275 1.32357 -0.133171 -0.502246 1.34117 1.90103 0.345825 1.76218 -2.16403 -5.05029 1.68175 0.818092 -2.29013 -5.22342 1.86244 0.123125 3.55258 -1.8283 5.18256 1.41166 -2.39895 1.56359 0.440055 0.375336 -2.04385 0.0734186 
50 -1.56842 3.60017 4.48974 4.45311 4.28876 0.2111 -5.41281 -2.24738 6.3039 -2.79299 -2.72141 -0.173456 4.37579 2.06247 -2.09659 4.46988 4.33282 3.29045 0.983415 1.27682 -1.73777 -3.21354 1.94867 3.00308 -0.23613 -1.3857 2.04606 3.35619 -6.58822 0.0122851 1.11282 -4.90295 -0.174589 -4.18486 -0.749263 -2.16595 8.54374 1.2734 -2.88713 4.4143 4.69327 0.208816 -0.693201 -2.68561 2.2269 1.64751 -3.20266 -6.14578 2.69291 -0.624103 0.309645 -1.86594 0.882027 -0.870964 -3.47663 -0.178247 -1.25695 -5.93598 2.41838 1.326 0.352611 -3.32561 -2.70845 4.83565 -1.62888 0.190819 0.944635 -0.671588 -5.07502 -0.219362 -1.89935 3.4616 4.5441 3.81269 -7.70106 0.964288 -0.571982 -1.08382 1.26101 1.07123 0.696695 3.0881 1.18853 2.87576 -0.762623 3.346 0.908945 -3.16159 -4.15312 4.93759 4.93755 -0.14338 -0.369522 0.433573 -1.69278 -2.99886 3.57915 -0.767926 3.4353 -5.96054 3.99427 0.729407 1.36704 2.88617 3.40521 -2.21629 3.27178 2.12183 6.08432 -2.0959 -1.79482 -5.07344 5.38258 4.14959 -7.40272 -7.50255 1.12318 3.91305 -2.38895 0.451165 4.99667 0.309328 -2.67538 1.64695 -0.306059 -1.08809 -0.601341 0.465844 
51 5.74144 -4.66587 2.56225 -0.257901 -1.60325 5.40002 3.00273 -2.13918 3.7651 -10.6245 -4.56331 3.35039 13.9343 -2.38773 -6.88181 9.74502 9.76515 -0.665375 0.215751 3.64569 -2.70633 2.57592 4.66907 -6.18305 4.90854 0.987324 -6.1078 7.2835 0.466417 -1.45516 0.84132 -7.57451 -4.32326 1.39775 7.62101 -6.36523 -2.34583 3.39634 -9.25981 6.72184 2.46574 -7.00446 0.00743217 -7.47147 2.70588 -0.563814 1.72101 -0.52286 -6.12747 -3.27843 5.15685 2.24805 2.33972 4.34796 3.20383 -1.85971 -0.404674 -11.4557 7.69611 -4.08416 9.0989 -6.85339 -8.1974 4.21603 9.66852 -3.5624 1.52842 -2.35949 -13.1142 1.21837 -8.28423 4.1036 8.48035 7.35569 -1.28182 5.56382 0.617035 3.94755 -0.601048 -0.259452 4.26434 -3.12825 5.06679 -3.38491 3.61802 2.01078 -5.09781 3.21661 3.91311 4.45522 -3.19803 -4.46396 -0.490958 -6.86384 2.6993 -2.81825 -0.478566 0.0358543 5.13097 6.59328 1.54424 2.51037 2.10902 -2.31749 -0.363075 -10.783 -1.91542 3.6916 0.943493 -4.9254 -1.74986 -3.99078 -3.87573 -3.72999 -12.4713 4.14273 -4.14909 1.63982 -19.726 1.19591 -3.82429 -10.5689 4.85743 8.50885 -4.13061 -6.81667 5.73117 -1.48818 
52 0.20522 -1.98144 -1.34045 -5.6168 3.62887 -0.565738 2.76544 1.07593 3.95241 -4.49063 -1.4452 4.85767 -0.108923 -1.93631 -2.83746 7.01704 2.34843 1.60529 -1.32266 -2.01048 -0.550845 2.09137 -1.76189 -3.2582 2.93618 -3.42683 1.67971 1.50236 -0.128904 0.883639 -2.70245 -1.93125 0.70085 2.18 -0.588873 -1.49285 0.095804 -3.63698 0.142885 4.36489 0.891232 -2.84768 3.92445 -2.83551 -3.17219 -2.07063 3.05861 2.21472 -2.42389 -0.372228 -2.67777 -3.53617 -0.338472 -2.84309 3.57256 -0.0564839 -0.81694 3.26293 -0.0711302 -0.255976 2.22814 0.324131 1.61373 -0.414813 2.01066 -1.08866 0.60586 0.851733 0.467173 3.09436 -5.10548 -1.84654 -0.637218 -2.97285 0.683031 -2.92807 1.7847 2.71779 1.44598 -0.140498 1.75634 0.288899 0.196114 0.842236 2.35224 0.257816 -3.04697 5.02016 -0.779824 1.29509 -3.05164 -0.18617 -2.65663 -1.75712 5.07217 0.30625 -1.69467 1.49391 -2.3928 3.1572 0.66396 2.09391 0.421476 -0.950382 -2.86938 -0.927881 0.810956 3.63402 -1.38291 1.45061 -1.97908 -3.03508 -1.64133 -1.60192 1.29975 2.18736 2.495 0.0467023 1.43965 -4.84324 1.41569 -1.01666 2.05603 2.32602 -1.51196 0.562887 -0.91272 -1.13585 
53 -1.26106 3.09548 3.87301 4.0859 4.56895 -0.224348 -5.41922 -2.30918 6.21805 -2.47757 -3.02446 -0.132945 4.37987 1.30632 -1.73158 4.47536 3.59375 3.52638 0.366643 0.839758 -1.93278 -2.69983 1.69423 3.01706 -0.0407499 -1.57948 2.61062 3.1324 -6.29521 0.187555 1.43955 -4.4315 -0.288307 -3.94869 -0.661673 -1.84764 8.24153 0.863743 -3.27931 4.30646 5.19186 0.773088 -0.420147 -2.61935 1.5278 1.6474 -2.45258 -6.11594 2.2886 -0.407219 0.028243 -2.21407 1.10572 -0.807337 -3.26178 -0.905687 -1.23031 -5.34381 2.42054 1.40497 0.15994 -3.07936 -2.33379 4.89193 -1.68858 0.378343 0.60391 -0.416336 -4.41392 0.187614 -1.37927 3.23391 3.71139 2.98566 -7.68679 0.0954313 -0.346704 -1.14034 0.930136 0.748425 0.868155 3.59671 0.714176 2.70724 -1.0595 3.21445 1.05299 -3.16707 -4.16513 4.8026 4.87181 -0.350446 -0.391259 0.576227 -1.45671 -3.44758 3.15823 -0.761267 3.05718 -5.59646 3.63208 1.69058 1.47515 3.16682 2.94254 -1.506 2.85929 2.05658 5.69179 -1.26866 -1.94575 -5.23983 5.19437 3.85782 -7.05635 -7.33641 1.28855 3.55384 -1.23196 -0.077901 5.27462 0.5082 -2.79265 1.56482 -0.0847095 -0.801462 -0.693112 0.348069 
54 -86.1557 -41.2705 -56.9208 -3.66504 -68.4163 -2.82284 10.4878 22.0041 -11.8379 40.9706 56.1021 -24.0397 21.6279 48.702 9.86524 -43.7115 -29.6272 63.2368 71.4078 61.1317 4.16333 -11.4645 25.8137 31.9215 58.0965 -17.2654 36.5847 -9.2883 -44.9457 -19.829 -8.14571 -30.6892 46.0949 42.1206 -42.7527 92.1244 -74.3726 -35.505 8.22443 26.2845 -0.916784 -42.8155 -87.4799 30.1165 13.7844 23.3181 -15.2045 -16.2903 -12.7186 -44.9593 -60.4381 0.318255 43.7739 -28.1972 24.2935 3.64719 -44.005 -35.7386 93.502 -0.849432 -54.4825 -13.2219 68.9599 90.2068 -78.6245 28.1205 79.4355 -42.2799 -9.89198 -19.4308 -5.40777 -17.078 -61.7696 2.11801 21.6089 -53.3422 31.6647 -4.25054 25.9479 13.6008 -46.7779 -30.8446 5.73013 -2.80923 -64.3754 31.7103 0.514516 -5.15296 6.64362 -9.58015 -15.5356 -53.7336 -15.8818 -45.1148 -66.2767 11.0904 -26.6222 18.5431 -38.6092 -28.6403 -6.38227 -48.1938 -44.7366 38.2194 -34.5159 -28.9561 -11.2742 -11.7945 -36.1167 15.4954 19.9804 34.1642 -10.5334 19.5439 31.5197 38.0938 -47.677 24.3201 19.1486 70.1417 -87.0971 17.4199 14.427 6.54111 -25.8519 53.276 13.7476 53.0309 
55 0.476089 -3.00815 -3.83507 -7.00419 2.08203 1.3227 1.72932 0.352289 3.87393 -5.63847 0.149421 6.37472 -1.92406 -4.86122 -1.67296 8.76172 3.25448 1.02231 -1.44011 -2.07942 -0.866791 1.97533 -0.630071 -3.4517 2.80361 -5.8647 -0.170908 4.22438 2.55248 0.681703 -3.11447 1.08102 0.315409 0.718884 -0.137235 -1.93817 -0.963873 -1.76432 0.764608 4.6884 -0.367156 -4.28509 4.3044 -3.59666 -5.37498 -3.91 3.23002 2.79437 -2.91069 1.16646 -0.57361 -3.12423 -2.53616 -1.81145 3.44347 -0.551376 -2.24247 4.50434 -1.03163 -0.564541 3.19948 -0.35742 -0.583777 0.108774 1.19766 -0.168573 1.93664 1.20391 1.46062 1.39125 -6.49017 -0.559272 -0.14615 -3.33304 3.51561 -3.35651 1.99276 3.02565 2.3155 -1.27084 1.45787 -1.29748 0.608959 1.08095 5.63489 -0.452858 -3.89327 4.25379 0.885008 -0.54958 -4.55121 -0.849767 0.243262 -3.54169 6.62432 1.54978 -3.23048 2.16206 -1.70553 4.46953 -0.549042 1.74703 -1.62371 -4.11672 -5.50474 -2.67401 1.98588 4.03358 -3.05147 2.49641 -1.77649 -0.789135 -3.56563 -2.09708 2.71186 2.4274 2.01433 -1.5086 1.38249 -4.16131 2.8751 -1.36743 2.95557 2.41103 -1.67388 -0.127595 1.20335 -0.856934 
56 6.40975 22.2847 89.6762 -66.616 -5.33309 52.9775 -72.0834 34.8612 -17.9253 0.695428 2.52806 -37.8102 -66.7875 -26.1068 15.4154 -34.2629 0.410423 41.677 10.7322 -11.1719 48.4058 -12.6944 33.4021 -61.0291 -2.97364 18.8947 25.3622 -20.9996 30.4181 10.194 71.6517 -25.5167 -34.7606 16.703 -39.0985 -39.3778 -14.9209 26.5819 78.4997 -8.13549 13.4237 -69.4696 45.5636 52.7939 -18.7001 -14.8432 8.21522 -32.2324 -56.4418 19.9602 -28.4574 86.0093 6.45232 -8.65449 90.5312 8.48899 -52.0774 -25.2532 -91.5151 46.8096 54.4803 0.596761 -69.267 30.3064 -1.57926 35.144 -12.9344 5.40588 -8.2224 -13.4517 4.40004 17.569 -16.1674 -34.5155 -17.4759 21.1172 -46.8715 -89.672 -1.75154 -15.7394 -12.9459 -45.8054 -24.2977 -12.849 -58.035 -83.4526 2.33712 -20.3638 46.7538 -1.5677 -65.4936 -44.2063 -13.1916 18.4526 42.3559 1.7732 47.7039 90.333 -7.60721 41.0396 -12.2196 -76.1884 40.095 -38.8319 46.9972 23.523 -3.25697 63.4528 0.80507 -14.2352 51.3602 21.0179 31.231 14.1549 28.1096 0.257412 8.1093 -57.8387 -44.0984 -6.63322 16.3586 -26.878 -79.1365 27.2942 2.46859 -47.1213 14.1127 -37.3035 
57 0.0684979 -3.12333 -4.11812 -7.04266 1.85755 1.09399 2.19837 1.10303 4.28556 -6.24421 -0.449849 6.44076 -0.751948 -4.93531 -1.57767 9.5984 3.40348 1.00874 -1.63747 -2.39824 -1.18653 2.15766 -0.28027 -3.56869 2.67022 -5.56141 -0.697977 4.19617 2.76534 0.635215 -3.04105 0.741189 0.610778 1.04542 -0.144932 -1.84296 -0.7807 -2.06672 0.733824 4.64089 -0.145289 -4.77668 4.10758 -4.50204 -4.78791 -3.6507 3.52032 2.42946 -3.26247 0.54024 -0.954791 -3.11008 -1.94398 -2.20989 3.11662 -0.410429 -1.94245 3.30651 -0.873708 -0.774116 3.84331 -0.520631 -0.551283 0.501975 1.33393 -0.896409 1.59354 1.64185 0.812875 1.74189 -6.19913 -0.547173 0.361575 -3.30442 3.24211 -3.55958 2.44629 3.31887 1.85124 -1.94331 1.60146 -1.09066 0.767633 0.712929 5.62039 -0.407593 -4.24973 4.36369 0.947531 -0.0201342 -4.88233 -1.0541 0.221435 -3.68897 6.76559 0.994783 -3.07388 2.31616 -1.65654 4.36179 -0.784044 2.1192 -1.93302 -4.18439 -5.20909 -2.52669 1.55755 3.96735 -3.25668 2.0656 -1.72833 -1.35089 -3.96779 -2.05732 2.19697 2.46864 1.92585 -1.80348 0.726107 -4.11517 2.77379 -1.47736 2.71143 2.86719 -2.00333 -0.353314 1.6332 -0.971226 
58 -2.48883 1.7547 -1.53273 0.118564 4.21196 -1.79167 -5.93903 1.42504 5.33333 -4.50598 -5.43567 2.063 5.93258 -2.72096 3.82088 6.09818 3.31007 4.43241 -2.61646 -1.13308 -1.60603 0.0525788 1.59179 4.84933 -0.897742 -6.86514 4.38429 3.57206 -4.45714 0.686206 1.16522 -2.81915 1.88503 -2.55371 -1.23919 0.0447997 10.3523 -1.22386 -4.84209 3.34542 10.5233 -0.601148 -0.408752 -5.60939 -1.07205 2.54963 1.56733 -8.20181 -0.0454642 -0.640572 -1.51824 -2.98511 3.70917 -2.6763 -4.53233 -3.51357 -1.3744 -7.33495 1.0583 -0.513 -0.431369 -3.35628 -0.75311 7.34804 -3.20808 0.94017 -2.99614 3.11653 -1.44527 2.54778 2.09494 1.54594 0.479095 0.343081 -7.97086 -5.25097 2.15822 -0.459211 -1.50062 -2.65091 1.89996 4.10638 -3.03226 1.13242 -1.78885 2.29098 2.47896 -3.62363 -3.87303 5.2774 4.75889 -0.127856 2.42154 1.92316 -0.587667 -7.9924 1.35686 2.13986 0.887813 -6.7431 0.577543 6.50828 0.658303 4.4498 2.74046 0.0953104 0.510397 0.787454 1.16101 1.74204 -2.55261 -7.13551 2.64437 1.91339 -5.39366 -9.77173 0.493473 0.0336542 4.4504 0.341744 7.3059 1.71902 -5.29686 1.18698 0.912388 -0.606273 -2.74523 0.298268 
59 -3.03814 2.47725 -2.19373 1.02391 4.80247 -3.19035 -6.37023 3.39 4.62436 -3.02817 -6.45274 0.924599 6.4286 -2.74383 6.06631 4.28137 1.72558 4.78833 -3.64856 -1.73881 -1.73628 -0.204167 1.83627 6.77268 -2.19735 -7.06272 6.02576 2.4771 -4.79192 0.60727 1.53505 -2.91795 3.01427 -1.51248 -1.22839 1.65424 11.7897 -2.18227 -5.09355 2.05743 12.1192 1.11792 -1.50188 -5.48627 -0.188025 3.75037 1.38359 -9.25889 0.265497 -1.37505 -2.47448 -3.37391 5.36642 -3.42465 -5.45525 -4.01951 -0.359212 -8.1933 1.11625 -1.0909 -1.9535 -2.36561 -0.0047444 7.88679 -4.61969 1.24855 -4.51053 3.69837 -0.722999 3.52258 4.63743 0.715796 -1.1732 -0.677117 -9.33861 -6.69408 2.46039 -1.41535 -2.69271 -3.64485 1.44805 5.1619 -4.2503 0.766366 -3.68037 2.49621 4.18466 -4.94922 -5.34956 6.18026 6.43923 0.950774 2.18371 3.58576 -1.5682 -10.2771 1.91911 2.68376 0.0439944 -8.75931 0.096412 7.95896 1.12624 6.08865 4.88181 2.48116 0.20244 -0.516734 1.04086 2.15328 -3.48457 -8.27649 3.00441 2.33133 -4.95872 -11.465 0.210205 -0.389491 6.92004 0.85646 7.48131 2.8312 -6.61878 0.353977 1.01232 0.0883197 -4.65722 -0.360016 
60 -2.64279 -2.60465 -4.06445 -3.37648 3.36484 -1.61661 0.528091 7.05914 6.16019 -6.76516 -4.49651 5.53425 3.07799 -4.31661 2.38006 10.581 1.25069 2.08208 -3.59408 -4.94643 -3.00817 1.19367 2.89221 0.68258 -0.361575 -6.59029 0.3383 4.06261 1.43918 -0.170711 -3.26156 -2.56638 3.90191 4.50095 0.167136 1.02854 3.87817 -3.25103 0.0344165 4.02018 2.87916 -3.11996 1.90148 -8.31023 -1.01378 -0.106588 2.12081 -1.29213 -2.96108 -2.53223 -4.19341 -4.93715 2.59262 -4.66016 0.571105 0.261411 -0.673057 -2.81841 -0.159725 -3.74852 3.27184 0.825681 -2.26545 2.8205 -1.91533 -3.33922 -0.367957 4.3379 -0.116556 5.29675 -3.42559 -1.89817 -0.525187 -4.4947 -1.18709 -6.12992 3.78785 2.05079 -1.30131 -5.34772 1.95711 1.73992 -0.821104 0.983652 3.47367 0.313503 -3.35686 0.338527 -3.74647 5.774 -0.581034 2.02881 0.389462 -1.80147 5.24388 -5.42423 -0.362984 4.62098 -2.59499 -1.57945 -0.020224 4.63578 -2.28092 -0.891426 0.762215 2.02381 1.5762 2.43233 -2.2833 0.639352 -3.81362 -4.7349 -3.42191 0.72737 0.2799 -2.12529 1.07329 -2.02026 2.88661 -3.65241 5.55721 0.145723 -0.0799334 3.18175 -3.47883 0.528566 0.186932 -2.76092 
61 5.91941 2.50656 10.1445 -1.36227 8.3769 4.03794 -3.66754 -14.7754 -0.000513356 4.54977 5.24026 1.33239 -10.4748 5.47199 -9.66339 -4.93918 3.55919 2.62423 3.84271 4.65816 2.56997 -1.50314 -7.59886 -3.06577 6.10397 -0.773711 7.49825 -0.710907 -6.89319 2.43909 -0.85043 -2.91753 -4.5713 -4.18766 -2.16961 -6.02171 -2.78184 -0.261515 -0.718102 5.77621 -1.50036 5.78245 5.89929 10.6887 -7.06156 -4.06631 -3.84459 3.76677 3.27244 6.66053 2.30851 -2.79993 -7.1159 3.50907 5.38372 -0.761723 -4.31928 15.6843 0.639352 5.38707 -3.60945 -1.0949 2.05012 -5.09464 2.8004 6.43134 6.07878 -7.5183 4.1703 -3.55837 -11.7228 0.142121 -0.779783 1.11581 -2.38346 3.93113 -5.043 -0.601841 10.1193 13.0823 0.149551 -1.76614 0.451674 4.8348 -1.247 1.62326 -0.309578 4.07082 -1.38746 -4.18437 1.94567 0.352464 -6.23059 -0.631633 -0.235807 11.0334 -1.77464 -2.89865 1.03921 3.90279 6.75222 -5.68154 6.3317 0.898654 -5.41753 -6.10778 5.58322 6.20173 6.10906 2.52022 -2.08237 3.02094 8.75667 -1.06746 1.84458 1.43543 4.52385 7.17172 2.45853 -5.22127 0.897191 -0.301012 4.75905 -1.76706 4.40132 2.86925 -6.0867 2.286 
62 -89.7626 -8.09385 43.9165 -8.48588 -42.1376 -36.9019 44.9388 9.72599 -23.7531 27.3323 80.5158 71.2339 -27.0805 -30.3665 -6.19455 -14.6314 -46.3728 -2.44086 15.6805 -52.1493 4.55409 -39.1845 38.1341 -11.6462 -25.1304 5.73483 16.8769 -41.73 2.68742 -67.8263 6.09985 -28.3179 14.0436 63.5467 95.3148 46.7409 -1.76966 -5.57051 -8.46967 2.66493 0.341202 76.8785 -45.1913 -1.96174 34.4652 29.9768 56.8887 60.2151 23.0507 12.3271 11.5468 -36.7551 -20.4076 45.3249 30.2039 -58.0473 -36.6862 36.5414 31.6263 -42.7984 49.1942 24.3395 -4.34903 48.9209 28.1402 1.51297 -42.5497 -27.8392 5.76908 5.16685 -62.3169 -54.1971 -58.4461 17.6091 4.57929 42.2989 56.1059 -1.81475 33.7593 7.03824 -9.90204 28.5972 27.4275 -53.8264 -63.2803 44.7461 29.5239 -14.3265 32.1896 -0.829125 7.07922 19.8344 -31.0041 66.3788 50.7627 -17.233 -6.54352 3.18312 21.6788 70.1395 13.5739 -70.469 -5.51713 26.531 41.0164 -57.7001 74.4269 4.64776 66.9204 -20.5017 -55.7238 -10.7609 70.0257 -24.0885 26.1261 35.5634 -43.5557 -20.3378 -74.1586 -62.5822 -24.6062 0.56278 -70.6424 14.8431 71.5171 0.605506 -61.6629 -17.2199 
63 -1.5553 -2.41745 -4.17835 -5.37745 2.06782 0.327682 1.72314 3.71163 5.33053 -6.60363 -1.5251 5.96898 0.278238 -4.49315 -0.0932948 10.345 2.73015 1.21972 -2.02081 -3.40915 -1.9296 1.13302 1.38222 -1.81929 1.03388 -5.73622 -1.0686 4.40131 2.48869 0.167686 -3.33045 -0.15593 2.13994 1.87971 -0.374692 -0.691538 1.19694 -2.25936 1.45657 4.27793 0.129001 -4.49042 2.99676 -6.18865 -2.9197 -2.70031 2.32397 1.0762 -2.62146 -0.762935 -1.98337 -3.63021 -0.678241 -3.42835 1.73286 0.533552 -1.4609 0.990457 -0.84291 -1.68019 3.84206 0.160111 -1.50959 1.31506 -0.416212 -1.98851 1.29513 2.61627 0.0711912 2.43695 -5.33587 -0.696498 0.759473 -3.57981 1.99483 -4.17787 2.99725 2.89143 0.997921 -3.5223 1.13884 -0.279843 0.791776 1.09032 5.4173 -0.0177182 -4.06738 2.68207 -0.699357 1.96178 -3.54843 0.196772 0.50738 -3.26415 6.39688 -0.83371 -1.78529 3.15806 -1.75287 1.72401 -0.569426 2.28056 -2.67637 -3.71798 -2.87643 -0.964745 2.18152 3.43198 -2.74961 0.95622 -2.46741 -2.2734 -3.88237 -0.525004 1.75969 0.635145 1.68994 -1.95542 1.02147 -3.67747 3.9119 -0.724816 1.69616 2.992 -2.88842 -0.07483 1.5807 -1.64132 
64 -8.3013 12.2371 7.72044 6.29095 2.42417 -2.36545 5.00295 -1.98491 9.51886 2.96488 0.607484 -7.26194 5.15837 7.632 -9.20996 6.80793 2.09929 2.73272 4.64293 -0.66914 -4.85977 -8.44166 0.198196 -3.13097 -2.28294 14.8701 -5.94322 -4.67598 -4.26778 1.27664 3.48443 -1.26198 1.09621 -7.50759 -10.7435 -1.6496 5.29612 -4.5449 10.6021 -0.584672 -5.42694 1.40962 -2.47764 -1.75593 9.23416 -3.627 -7.08895 -4.25074 7.16593 -5.95002 -5.02964 -1.43164 -1.4553 -6.94124 -8.33976 7.2905 5.65326 -2.62372 1.95831 10.3363 4.75518 -1.41439 6.62517 2.0461 -1.93886 -4.85203 1.79119 -3.15917 -8.42629 -6.58823 1.5764 5.47417 13.7312 3.22805 -6.89934 2.53869 1.61678 1.07157 4.75036 0.239155 -5.58655 5.64525 11.1206 -0.25217 -1.60836 5.6146 -3.50357 3.03106 -0.791651 -0.592685 -4.42948 -3.85953 -9.04266 -0.406675 -1.05694 8.58656 5.42424 -6.57755 6.95823 -3.68173 0.209592 -4.74693 -3.58489 -4.28495 2.03555 1.65235 4.05838 1.84693 9.04331 -8.72158 0.442474 -5.50374 8.00209 7.72938 -4.55533 0.330915 7.06668 4.33653 -9.99467 -2.52433 -1.1432 3.69093 -3.92704 2.35857 -2.56081 -0.99064 4.72462 0.471503 
65 46.717 -13.4398 19.8708 21.0707 -60.2822 16.7789 9.06643 -16.8746 -17.6889 77.7124 -15.1768 -8.65146 -4.50981 -37.5258 -10.8905 -57.8418 -54.7504 -22.0175 58.8524 49.5309 -13.2952 35.1495 5.6769 27.2199 71.7086 42.3741 28.0859 -5.16842 -2.45897 -0.656245 57.6263 11.633 21.0381 30.9454 -22.5323 23.4534 8.02895 -69.0134 32.7549 45.3378 45.0869 -17.1784 5.83586 -72.6588 -20.0777 22.1128 -0.232827 56.1005 50.8924 -65.8542 -24.2409 -4.24292 16.4062 -67.1206 -32.8388 43.6097 22.4 -28.8088 -13.582 -47.4458 -3.27837 -0.17796 88.382 -17.294 -4.78098 -64.0417 -44.7823 -39.6182 -3.15786 -46.5699 -23.1936 -87.4753 -39.8168 100.082 -31.0907 66.5017 -4.17916 13.9237 -12.6951 -3.90337 -4.84114 9.11779 -58.2605 -42.2707 -10.1242 33.0156 -39.6788 -37.3204 41.2849 -7.43585 -37.9545 84.1994 -36.5764 -71.9135 -59.8778 87.7948 -14.2553 22.651 -80.7815 -46.0611 6.74017 12.7132 -9.24998 -59.7435 -6.39287 9.34321 -24.6901 -65.8296 -14.1279 14.3636 -4.48679 26.9138 -21.7323 52.3195 35.9848 25.1053 -36.6567 31.8327 -66.2512 59.7164 -4.27277 -50.1074 8.8586 -3.74955 0.965074 1.49751 -40.8847 39.1909 
66 -3.12385 -2.7041 -4.35992 -2.79822 3.52386 -2.03587 0.105982 8.25468 6.55819 -7.01079 -5.27272 5.52447 3.83335 -4.54144 3.3133 10.9793 0.888872 2.24936 -4.07797 -5.5159 -3.46815 1.05115 3.674 1.52124 -0.966978 -7.00611 0.389593 4.30236 1.50653 -0.354546 -3.31284 -2.96287 4.53212 5.16518 0.378964 1.57719 4.67723 -3.33284 -0.15857 3.9105 3.42645 -2.94593 1.50758 -9.22082 -0.44014 0.511452 1.93656 -2.03065 -3.0555 -3.02812 -4.67532 -5.29491 3.40548 -5.04839 0.072816 0.279468 -0.526836 -4.04584 -0.0813071 -4.43409 3.33588 1.0268 -2.84699 3.41024 -2.61572 -3.81347 -0.697661 4.98487 -0.247446 5.94631 -2.96991 -2.08864 -0.676184 -4.81415 -1.85735 -6.73753 4.10897 1.83344 -1.9547 -6.23998 2.07556 2.18704 -1.13272 1.02182 3.34221 0.35582 -3.29583 -0.572318 -4.55845 6.87318 0.128522 2.54994 0.725461 -1.62324 5.11021 -6.72793 0.0259963 5.18088 -2.7504 -2.59566 0.0136629 5.24969 -2.57711 -0.509476 1.7403 2.83389 1.6115 2.17004 -2.29074 0.465071 -4.23896 -5.27109 -3.56787 1.20698 -0.0379827 -3.01085 0.816142 -2.27706 3.29451 -3.48557 6.26824 0.421655 -0.591843 3.31273 -3.82987 0.62573 0.122706 -3.1295 
67 -0.743006 1.52777 1.34922 0.44527 4.61542 -1.41809 -1.45962 0.388488 4.61906 -2.10255 -2.65088 1.08644 2.28404 0.113484 -1.2989 4.04706 1.88686 2.81585 -0.841969 -0.536495 -1.21031 -0.920053 0.0990361 1.10515 0.623483 -2.06321 3.36062 1.43578 -3.99205 0.39837 -0.231777 -3.3145 0.604787 -0.565121 -0.56965 -0.572946 5.43646 -1.80333 -1.70031 3.48459 3.81361 0.427072 0.844074 -2.13793 0.140275 0.474221 -0.181944 -2.44928 0.590954 -0.84292 -1.74456 -2.91822 1.26405 -2.10052 -0.339215 -0.65023 -0.00325005 -1.41398 1.48111 0.447742 -0.224403 -0.558684 0.191051 2.36738 -0.662266 0.137069 -0.28723 0.0428014 -2.04484 2.0103 -1.40595 0.337928 0.443304 -0.28905 -4.46743 -1.81193 0.536919 -0.107061 0.519834 0.080749 0.670702 2.83203 0.12253 1.68665 -0.830347 2.2276 0.588731 0.0310693 -3.59368 3.51253 2.35539 0.447851 -2.13528 0.703886 0.894927 -2.90143 1.50618 0.10635 -0.128139 -2.63618 2.05806 2.55898 1.71284 2.50711 1.75646 0.37505 1.88037 1.93065 2.83161 0.152763 -2.61072 -5.00613 2.5366 1.74491 -2.84132 -3.69607 1.83628 2.12467 1.32514 -2.1166 3.02965 0.366783 -1.10076 1.25092 -0.898444 0.183175 -2.21284 -0.948369 
68 -17.5571 -52.1297 -75.319 -87.797 -28.6335 27.456 -48.6876 -26.2839 -19.5911 40.2068 -27.9598 -104.702 32.5976 -6.85968 -53.6835 -59.6427 5.7732 -76.9385 -9.25498 -36.7911 20.6649 3.99544 28.9127 3.66391 -4.25337 79.817 -85.7901 -2.55198 24.5518 -28.6217 9.14467 -6.9838 -5.13736 7.03212 -2.68616 3.85238 -59.929 -9.40809 38.7748 -89.8084 17.7318 -33.3713 -43.6105 21.4473 0.960324 1.0011 -32.0366 -27.8335 13.3593 -28.4874 -25.6906 76.4394 -4.99759 -12.5573 25.412 -6.99339 36.8364 -25.6965 -17.9697 40.3612 -62.5633 18.8482 -16.7161 -22.7753 -10.5475 3.63394 -3.03514 -10.271 -10.0358 -65.5922 -7.91328 1.71338 23.6074 13.962 37.1896 29.858 -2.26509 43.018 -8.86117 21.9252 -38.1671 10.3208 -51.9224 -4.79085 -5.54981 3.20312 -44.678 -57.155 36.0086 -7.54287 -2.2349 -11.0237 -57.7526 45.6815 -29.8714 38.1318 43.0322 36.8792 -95.5146 -3.51932 35.0889 -34.5588 25.3797 -47.2258 -39.0233 51.9209 -56.1207 61.7638 -41.2802 27.774 43.2623 -15.7612 18.1296 124.919 -34.4969 49.7255 -6.90924 21.7945 -51.1531 19.2715 -47.0293 -1.55865 11.0123 -65.5664 -2.86893 4.69256 -14.4823 42.4751 
69 -1.33957 3.02232 3.9182 2.52758 4.32419 0.563417 -4.2411 -2.26728 5.90989 -2.75392 -2.25157 0.712093 3.40347 1.67047 -2.45655 4.39062 4.38429 2.98907 0.724346 0.919502 -1.42374 -2.51414 1.09601 1.98341 0.368839 -1.66449 1.92701 2.76657 -5.43407 0.122615 0.510028 -4.2871 0.179498 -3.42665 -1.17672 -2.02073 7.05949 0.413201 -1.99755 4.22786 3.86837 -0.00801628 0.241564 -2.32397 1.10321 0.92894 -2.46841 -4.92546 1.89955 -0.454116 -0.127363 -1.86373 0.307526 -1.11554 -2.2794 -0.0468285 -1.32243 -3.96834 1.97278 1.23853 0.588744 -2.86214 -1.93382 3.84541 -1.18521 -0.02259 1.20494 -0.626975 -3.91694 0.0923972 -2.78129 2.52729 3.77238 2.70543 -6.64272 0.450448 -0.317628 -0.402093 1.63145 1.24964 0.586457 2.26253 1.11351 2.71917 -0.340656 3.0027 0.0903368 -1.78378 -3.64339 4.08693 3.61255 -0.141547 -0.769522 0.160773 -0.755697 -1.76247 2.49484 -0.23688 2.68477 -4.52638 3.54654 0.608839 1.16058 2.0967 2.12112 -2.30223 3.0103 2.54491 4.94556 -1.66494 -1.97563 -4.57541 4.46589 3.09021 -5.50728 -5.97221 1.42361 3.22596 -1.592 -0.305926 4.4193 0.254097 -2.02429 1.5621 -0.397934 -0.675412 -0.942559 0.424514 
70 -31.4139 -7.3023 73.4077 -10.8103 -58.9439 -6.00988 3.09025 60.906 1.93385 -34.3703 -20.2608 -41.8022 33.8865 -84.1848 19.1181 -33.5074 -42.608 11.713 6.75356 -17.5114 -14.8493 -22.8531 -48.8948 -31.7147 -56.3761 66.6509 36.3962 35.4667 -34.5239 -25.7852 -31.5808 32.4262 -23.3804 -54.8961 -83.2056 31.5404 27.6415 12.3495 -12.7435 37.8718 -28.8044 -34.375 4.50207 16.7097 -11.6574 24.4432 -9.05602 -52.7498 36.9355 3.46316 29.6889 31.9533 79.0371 -13.7236 -6.37261 -75.2444 45.14 42.3763 58.5363 -2.32379 -91.5709 28.4698 23.5526 -18.4266 -25.3386 38.7579 19.0271 6.13252 61.5376 -4.24266 54.3563 -71.5959 -37.2263 54.5796 -44.4872 -53.6308 -19.9208 42.3347 -12.1338 11.9611 37.2763 -87.5703 44.3215 9.50433 3.15911 -69.7286 40.1761 -53.4298 81.9127 -3.20637 -68.1005 -16.1026 -75.1058 64.2161 -27.8245 5.44557 -4.08999 -14.2346 2.75286 -41.2547 -14.821 52.4677 -14.4771 51.8729 11.709 40.168 -4.80845 -16.6876 67.8254 -6.64378 12.7852 20.3728 8.28764 -57.7708 30.3953 20.1462 -18.5924 53.3333 56.2862 -32.8107 -50.9155 -5.84894 -49.8216 -14.2357 -46.9582 25.2425 -13.1592 -42.3368 
71 -0.309954 -0.951853 -1.17742 -5.07733 2.89983 -0.079459 3.5279 0.272429 4.37758 -3.75446 -0.167526 3.99481 -0.67009 -1.75922 -3.97732 7.35088 2.43194 1.18788 -0.522753 -1.71553 -1.05982 0.925079 -1.53283 -4.08325 2.72449 -1.53705 0.0416635 1.4344 0.572174 0.818967 -2.26273 -0.580459 0.255317 0.728321 -1.31978 -1.75331 -0.528173 -3.20254 1.94738 3.87987 -1.21171 -2.89362 3.63555 -2.44308 -2.5721 -3.30504 2.09563 2.67372 -1.61016 -0.359343 -2.08536 -3.01729 -1.65379 -2.73888 2.96227 0.810898 -0.317506 4.04846 -0.12915 1.07075 2.92962 0.238889 1.75824 -0.755035 1.82848 -1.21667 1.55944 0.103441 -0.325274 1.30914 -5.24116 -0.709414 1.02531 -2.60181 1.62616 -2.0345 1.62694 2.75274 2.32559 -0.152108 0.5989 0.132431 2.08606 0.776196 3.25935 0.599851 -3.62953 5.26811 0.0532187 -0.0644774 -4.36154 -1.06699 -3.01259 -2.43735 5.33851 2.409 -1.5692 0.347573 -1.36123 3.80472 0.198059 0.793395 -0.56028 -2.8011 -3.70571 -1.29609 1.56025 3.71463 -0.720105 0.630634 -1.51372 -2.25452 -1.53504 -0.969419 1.53148 3.14555 3.09993 0.141004 -0.298983 -4.72603 0.794856 -0.879137 2.45054 2.41542 -1.99101 0.186385 0.660021 -1.02304 
72 26.4388 72.7676 -48.3003 -10.7513 -36.8717 -11.1762 -16.5234 -0.751419 -24.3167 -10.3556 22.6364 -38.6087 -41.0872 -1.38965 57.4975 -19.1591 -71.8337 -20.4158 31.7643 44.1609 38.7512 11.7626 36.4278 103.781 -15.8212 -66.4283 -52.5788 -17.7431 47.1553 -69.1267 16.027 73.4972 -47.6668 39.7574 1.26119 52.2259 17.7803 32.1724 -17.5566 0.915578 11.2868 2.97479 -19.9133 43.115 5.69164 -89.1207 -32.0903 -54.9327 18.9252 -58.5543 -21.2189 4.61096 -46.4077 24.1097 -20.9098 0.747161 12.3322 57.4077 -79.4441 45.1466 -73.2648 9.94382 -7.8026 -1.53037 45.8398 47.3354 -75.1272 -53.6683 18.708 28.6476 -32.4375 -40.2657 25.5507 3.17774 -53.3379 -30.4476 38.9666 34.525 30.987 54.0044 -23.2454 -49.5405 -69.5051 -10.749 -33.5997 -35.521 2.61777 -18.5752 -28.982 -19.0657 18.9352 -43.1649 -7.21597 76.2802 18.7396 40.7225 -4.58867 -63.223 -14.1771 12.4034 32.6373 -62.7411 -28.2384 -6.33576 -50.6245 43.0179 26.0596 40.9507 -55.5497 -61.0073 -13.4314 0.154065 15.6805 -26.8917 -13.4602 0.250325 -60.2996 -23.4439 -30.7549 44.7676 -42.1134 1.70568 59.3757 -41.2752 -50.3712 16.835 1.56423 71.1693 
73 -0.276989 2.78628 11.8781 11.9842 7.9215 -0.320324 -12.68 -6.34511 10.1654 0.576756 -7.23795 -2.01066 10.3574 3.745 -5.07675 1.30864 2.81619 5.9425 -0.801347 0.964578 -4.08882 -4.94246 4.31525 5.14038 0.453106 0.459132 4.2143 2.23035 -9.54128 -1.22359 3.78351 -8.52989 -2.48338 -3.88082 0.749934 0.00788289 12.9229 5.41574 -8.67581 3.82746 7.71188 5.22105 -0.121536 -2.96643 3.7712 7.4345 -4.87113 -12.6507 3.06101 -0.428148 0.506112 -1.72512 3.02512 2.09746 -3.30715 -1.98576 -1.80401 -12.3378 6.82516 -0.271967 -0.118023 -4.47808 -8.32067 8.00013 -2.58921 -2.39807 1.16234 0.0103091 -7.33176 4.6649 -1.66369 3.34984 3.84032 6.35583 -16.7651 2.6339 -2.62569 -3.46991 -2.3096 1.71956 4.35674 6.8157 0.524664 5.25169 -3.28584 5.72815 1.25373 -11.6733 -9.67502 12.3662 14.9627 0.925112 0.245409 2.85095 -7.16411 -8.32328 6.69374 -2.6628 5.20612 -10.7593 9.21285 4.24548 2.25718 11.234 8.04488 1.67577 3.05689 2.81916 13.0209 -2.19658 -3.50611 -9.07013 9.76154 7.96296 -12.9805 -11.1935 -0.506865 7.92978 -1.71523 0.478493 10.0694 0.1267 -6.91114 0.439503 0.65117 -1.72234 -0.39246 -0.666654 
74 0.947454 0.117735 2.57207 1.38913 2.6984 1.22551 -1.53161 -1.68296 5.18682 -4.7789 -3.08682 1.51771 6.20051 -0.385987 -3.48311 6.21851 4.91849 1.93711 -0.0194971 1.11837 -2.09251 -0.571007 2.01184 -0.703738 1.83781 -0.910616 -0.0625203 3.91849 -3.16549 -0.221966 0.675986 -4.5951 -1.34658 -1.44743 1.76059 -2.8164 3.86325 0.845896 -4.1934 4.82482 3.36558 -1.75997 0.410284 -3.87235 1.1175 0.264152 -0.401879 -3.03272 -0.840025 -1.17486 1.06554 -1.11934 1.09761 0.419755 -0.208187 -1.00075 -0.687017 -5.38519 3.56941 -0.378812 2.98596 -3.41375 -3.32763 3.65229 2.0377 -0.966297 0.957198 -0.843113 -6.13516 0.937237 -3.85546 2.63449 4.22354 3.03248 -4.36874 1.12284 0.184488 0.813923 0.555359 0.239085 1.73777 1.2451 2.11186 0.697709 0.848274 2.5079 -1.3284 -0.174813 -1.37732 4.03999 1.2886 -1.52567 -0.953779 -1.91973 0.853113 -2.56458 1.37766 -0.415059 2.61698 -0.59361 2.48195 2.02728 1.41864 0.874554 1.01653 -3.73268 1.25419 2.74649 3.37695 -1.84375 -1.98851 -4.51961 1.46748 0.939408 -7.01811 -2.35148 0.0776586 2.46026 -5.95496 -0.621578 1.94265 -2.81358 0.274247 3.53634 -1.69363 -2.29776 1.21376 -0.59329 
75 46.8324 -13.5413 19.9595 21.1617 -60.3798 16.7812 9.04216 -17.024 -17.6401 77.7716 -15.1664 -8.67814 -4.48708 -37.5773 -10.8809 -57.888 -54.7796 -22.0029 58.8857 49.6405 -13.349 35.1718 5.6485 27.2618 71.7302 42.4367 28.2063 -5.12012 -2.46685 -0.590856 57.8178 11.6941 21.0505 31.0149 -22.5961 23.5916 8.05063 -68.9797 32.7843 45.2757 45.0486 -17.1873 5.89057 -72.7973 -20.0867 22.2119 -0.289631 56.1956 50.8727 -66.0039 -24.1682 -4.17694 16.4928 -67.2951 -32.9426 43.4998 22.5144 -28.8329 -13.5162 -47.5733 -3.20152 -0.13235 88.4437 -17.2568 -4.71279 -64.1739 -44.8247 -39.7462 -3.11983 -46.6265 -23.243 -87.6117 -39.8465 100.204 -31.23 66.59 -4.07364 13.9444 -12.6429 -4.04114 -4.75316 9.10829 -58.1925 -42.3193 -10.0828 33.0998 -39.6991 -37.3815 41.3883 -7.5221 -37.9357 84.2434 -36.6646 -71.9555 -59.9179 87.9053 -14.3062 22.6916 -80.9312 -46.1131 6.76238 12.6428 -9.31354 -59.7929 -6.46403 9.35813 -24.6866 -66.0165 -14.1457 14.2855 -4.58295 27.0383 -21.6861 52.4075 35.932 25.0632 -36.6028 31.9694 -66.2296 59.7374 -4.26391 -50.1957 8.79748 -3.77468 0.959212 1.61144 -40.929 39.3582 
76 -2.05192 3.85849 6.09186 4.90662 4.86425 -0.140474 -2.16219 -3.63729 8.36154 -1.67 -2.07021 -0.978724 4.87899 3.22013 -6.60574 6.07112 3.724 2.74006 1.59544 0.759666 -3.47961 -3.79983 1.25138 -0.336318 1.18449 3.35911 -0.092154 1.61623 -5.89024 0.190602 1.90324 -4.48578 -1.32952 -4.54922 -1.58719 -2.21011 6.50068 0.12952 -0.352578 4.47823 0.674386 1.01272 0.370227 -2.21564 3.18855 -0.0489599 -3.25694 -4.57368 2.60712 -1.25838 -0.728806 -1.88669 -0.173806 -0.879198 -2.44633 1.36239 0.352949 -3.95435 3.37884 3.33661 2.63765 -2.98789 -1.23604 2.71919 -0.160418 -1.77817 2.65123 -1.78535 -7.10239 -0.746948 -3.51736 3.88434 6.75787 3.00791 -7.19468 2.01649 -0.734831 -0.403754 2.28448 1.69515 -0.463944 4.08763 4.62183 2.7377 -0.435846 4.35971 -1.67344 -1.47278 -3.47786 4.31983 2.40206 -1.9134 -3.77546 -1.12779 -0.449934 0.262357 3.95557 -3.52255 3.53383 -3.30405 4.2635 -0.488652 0.720462 1.31574 1.69841 -1.41252 3.17889 3.44003 8.25923 -3.70259 -1.3806 -5.35461 5.64929 4.93347 -7.49032 -3.72994 3.39747 4.9428 -5.40992 -2.26701 3.07971 0.0696737 -0.987171 2.47704 -2.06 -1.24695 2.31447 -0.0357763 
77 59.5002 -13.7678 -21.1699 8.05065 40.6861 13.8926 25.7571 47.4543 -61.7157 79.499 -16.7479 -47.0914 -22.1271 52.6371 62.0285 -45.4867 -30.3692 -13.8382 -9.55883 37.2954 26.173 10.1259 -27.6214 26.4289 -24.8638 42.7568 11.5108 70.415 -24.9114 -28.7124 17.5744 -87.1056 12.641 -45.4054 35.84 18.1171 2.9447 30.5417 42.9847 4.59669 -18.73 38.7788 -76.4565 -4.17343 -21.2952 30.3879 3.30033 -62.3166 69.8682 -54.3796 18.2879 51.3337 67.9898 -54.0197 -40.0622 -68.4161 5.15004 -1.43916 -22.1392 -57.5205 13.3513 22.3742 -30.6751 -30.1194 21.8094 -48.5884 38.1709 -83.0914 -29.7917 26.8296 -42.7113 -34.1528 40.1836 -12.3029 17.3294 -29.2913 -26.7532 61.5919 16.6154 -75.9239 -44.6647 -14.169 22.2316 66.8658 -18.266 -4.28944 53.527 -29.6973 -17.5979 50.1667 20.0762 13.4399 -42.0086 15.0743 34.8875 31.6879 10.1678 -45.1261 -37.0471 3.5656 -40.1846 28.5747 -54.999 -43.8802 3.53755 -60.1768 -23.6071 22.0408 9.24759 -17.7853 79.6998 31.9593 15.4119 -30.2671 -11.1755 -36.9772 -6.98032 -24.6004 -30.8602 98.7548 -88.7218 19.175 86.7611 -4.25613 12.5052 4.07658 -20.5173 7.13136 
78 -0.556329 3.40232 3.27842 3.4502 4.77822 -1.10042 -2.84706 -2.36072 5.26299 -0.0339295 -1.36527 -1.19256 1.66438 1.0921 -2.82332 2.93213 1.62453 3.11859 0.481295 0.694618 -1.86374 -3.10177 0.48122 1.50888 0.344689 0.499154 3.20551 1.59068 -5.46793 0.311674 1.31288 -2.60842 -0.841435 -3.45898 -0.741836 -1.2605 6.12395 -0.245804 -1.28341 3.44715 2.63562 2.14184 0.0143301 -0.374379 1.29243 -0.0686069 -2.38411 -3.0454 2.78407 -0.119319 -0.321814 -2.57359 -0.176345 -0.832302 -1.67008 -0.5034 0.256074 -0.973666 2.03047 2.6605 -0.823025 -1.05961 -0.356911 2.65115 -1.2533 1.22327 0.895985 -1.67425 -3.37806 -0.391539 -0.907563 2.52078 2.20404 1.27353 -5.23061 0.0537798 -0.695932 -1.43371 1.53484 1.20643 -0.372621 3.84143 1.94054 2.40411 -0.937359 3.06745 1.38597 -1.27512 -3.8676 2.53744 3.21058 -0.403641 -2.64793 0.807892 -0.407679 -1.44618 2.74585 -2.23252 1.94279 -3.29727 2.8333 1.22464 1.97655 2.04316 1.83474 0.0687389 3.35848 1.76398 5.72596 -0.464223 -2.12188 -4.47179 4.8771 3.55686 -4.47585 -4.61723 2.48868 3.7501 -0.31927 -1.5485 3.1725 0.898615 -1.20695 0.887988 -0.636143 -0.119744 -1.01396 -0.572281 
79 -3.3767 -3.30448 -5.04528 -3.44053 3.36588 -2.06051 0.648818 9.26555 6.7284 -7.70159 -5.48175 6.18304 3.86741 -5.00733 3.67799 11.9031 0.80351 2.0862 -4.4126 -6.13644 -3.63595 1.4074 3.94072 1.29673 -1.03958 -7.54981 -0.0662626 4.53894 2.24235 -0.424059 -3.86837 -2.99214 5.03279 6.0269 0.435103 1.78101 4.29256 -3.66751 0.210247 4.02633 3.12868 -3.50637 1.71439 -10.0258 -0.560401 0.381121 2.28172 -1.62465 -3.5882 -3.34513 -5.11278 -5.57223 3.57278 -5.50354 0.358183 0.550656 -0.575757 -4.07596 -0.315923 -5.03004 3.83285 1.33387 -3.04481 3.26951 -2.63845 -4.39213 -0.684944 5.51272 0.0210593 6.48502 -3.37504 -2.51479 -0.830862 -5.44533 -1.26683 -7.2691 4.58022 2.23877 -2.1516 -6.90906 2.24717 1.9687 -1.24069 0.894805 3.92807 0.0784988 -3.92846 -0.247442 -4.53448 7.14613 -0.422317 2.82423 0.865338 -1.98048 5.81335 -6.92828 -0.25629 5.82664 -3.21121 -2.32306 -0.251941 5.40332 -3.05705 -1.0103 1.57452 3.0482 1.54416 2.28056 -3.06068 0.454083 -4.39897 -5.22775 -4.46455 0.985616 0.536532 -2.53518 0.761892 -2.81223 3.44172 -3.82392 6.41516 0.311034 -0.297517 3.59836 -4.23242 0.716695 0.396028 -3.41213 
80 -0.656967 2.67164 6.40712 3.01004 5.04494 0.399067 -0.665517 -5.0599 7.31091 -0.717023 -0.775444 -0.126154 2.50088 3.38867 -8.60343 4.66044 3.52192 1.89472 1.75406 1.01182 -2.82535 -2.91773 -0.492172 -2.43126 2.69755 3.85007 0.160029 0.573748 -4.63138 0.348781 1.13891 -3.59397 -2.17454 -3.6387 -1.26135 -2.36793 3.63058 -0.215797 0.34243 4.37138 -1.54246 1.09852 1.99307 -0.217687 1.49098 -1.04076 -2.41805 -2.04438 1.70832 -0.148329 -0.485955 -1.61851 -1.58139 -0.12033 0.274608 1.58221 0.262581 -0.0769493 3.03759 3.43867 2.6918 -2.14094 -0.319075 0.421352 1.25018 -1.65238 3.5665 -2.54064 -5.82239 -0.394699 -5.46302 2.63193 5.43401 1.97022 -5.23742 2.62408 -1.53711 0.135206 3.14168 3.17719 -0.446567 2.83713 4.86458 2.95759 0.0489542 3.89987 -2.58125 0.223699 -2.5412 2.91872 1.02014 -2.10727 -4.86292 -1.73545 0.602921 2.77531 2.76124 -3.94427 2.18934 -0.363285 4.49549 -1.34153 1.01378 0.758835 -0.256179 -1.64032 2.96398 4.34328 7.78972 -3.00422 -1.20255 -4.04272 4.96276 3.59729 -5.13932 -0.628631 3.95157 5.09146 -4.86399 -3.57251 1.62435 -0.51518 0.699707 1.94595 -2.18089 -0.853027 2.06363 -0.123114 
81 1.86189 -6.26682 -7.83364 -12.4673 0.4849 1.55119 5.85173 1.61363 2.57427 -7.6966 1.16928 9.35456 -3.55359 -8.25874 -2.25248 10.8054 3.46352 -0.126479 -2.46587 -2.95074 -0.172229 4.94604 -1.96532 -7.26729 4.9494 -7.67914 -1.44709 4.58258 6.39149 0.891696 -4.84238 3.63992 -0.243413 2.66223 0.893422 -1.9884 -5.02107 -2.90073 1.35612 5.03227 -2.33407 -7.31909 6.61751 -4.08528 -8.75024 -6.23738 7.32711 7.2163 -5.99673 1.86662 -0.556799 -2.90513 -3.86477 -1.85894 7.22986 -1.10744 -2.22567 8.19112 -1.86759 -1.61465 4.45716 0.425059 0.643601 -1.97769 3.83246 -0.241788 1.79132 1.75657 3.15684 2.51914 -7.83395 -2.2641 -2.49036 -5.69899 8.99115 -4.61813 2.99141 5.10934 2.08427 -2.1702 2.21276 -3.41264 0.585471 -0.160028 8.27724 -1.8482 -5.6615 8.33132 3.9861 -3.03763 -8.99218 -1.90325 0.299285 -5.2261 10.3312 2.86632 -6.17406 2.58998 -4.26532 10.0518 -2.77819 2.73228 -2.11077 -6.54298 -9.62327 -3.47432 0.5562 4.73364 -7.17533 4.56966 -1.30384 0.4994 -8.06731 -5.36889 6.21037 7.62866 2.05119 -3.71565 1.84943 -5.97905 0.559565 -3.06914 5.64279 2.98905 -2.73806 -0.525216 2.26491 -1.55667 
82 -57.3376 11.1318 27.8657 7.9595 -29.4226 -25.9857 9.96261 64.9428 -13.0189 -33.1976 -75.2945 -13.1932 -14.3302 99.9368 77.5974 8.75208 13.1521 -13.4737 29.9589 -56.2604 29.127 -14.5049 -65.2387 36.5939 -37.0506 -13.9657 -86.8096 16.6808 14.7934 -29.6619 7.66593 11.3476 7.96064 59.6591 36.1418 43.5607 -106.316 -14.541 -24.5389 20.2353 -10.8573 25.4129 -27.0237 -28.059 -1.5542 26.1846 40.6045 72.8899 40.5258 16.3398 -42.1328 17.3117 54.6175 23.7772 -80.4021 -33.735 -44.6975 -31.0733 34.9674 8.49603 -45.3871 -8.60968 -40.9627 10.5541 25.7959 -29.3348 3.11073 -51.7935 -20.239 -49.6355 44.7126 19.7921 -8.54358 -43.327 -58.9593 41.107 5.4255 27.8112 -23.5616 24.2583 -16.3744 62.6548 -14.6196 -21.1751 -44.5229 -48.3941 6.51036 -32.8089 -17.0566 -90.0785 -85.0938 68.8868 33.414 9.47912 -49.9313 -66.8704 -3.05782 8.27367 8.77108 30.9081 -18.0343 -14.3497 -4.1324 -45.452 -71.2315 -11.3933 -26.4844 -19.3276 -42.7071 -22.4814 -32.5208 8.04541 20.219 -8.0879 -58.6896 42.6897 5.8774 -10.7884 -55.1968 19.0606 -48.3477 -2.14536 57.2367 49.4347 54.1791 -12.2677 -72.8933 1.75991 
83 47.3998 45.7019 -18.5239 20.0664 42.238 -18.1227 0.129286 50.5595 1.95813 -35.7527 65.236 -41.2946 17.9437 -11.0045 19.1581 -37.5704 -24.582 -15.3569 29.8114 41.0298 -39.1747 51.4812 -20.6427 -15.4127 36.5632 -58.4419 -15.5464 7.39741 -50.3441 28.7613 17.8268 89.3827 -15.6689 6.94353 11.0347 -55.9259 -24.2639 -1.23926 -3.94679 -21.7609 -40.9906 -33.1851 44.5398 82.36 50.2669 67.5917 -45.7607 22.4008 -37.5419 -20.7692 69.6177 20.1966 35.3301 -43.505 4.83184 69.6888 -10.3013 -10.9481 -17.8905 18.9292 -79.0076 8.22607 12.7645 -2.88646 6.34984 15.0868 32.0919 -6.78695 21.5869 19.6145 80.5267 72.1035 74.4726 24.1581 61.3855 30.3993 -1.25123 6.67164 -45.2023 -34.3849 -9.60328 -69.9385 75.2758 -72.4321 -21.3503 -13.8341 -90.7606 60.8503 -13.5754 -16.9137 -14.6603 2.31599 -12.102 6.57317 -9.22581 -10.1152 11.7274 31.5297 -12.2476 39.6188 -42.1963 -34.4696 16.6814 -57.5598 90.3865 -14.2298 64.9024 -10.8113 -7.61365 -68.4291 60.9791 87.9905 -43.7475 34.0042 -74.0872 36.3677 28.4067 -81.8159 -1.17503 17.1958 -4.12222 -4.46269 4.93736 -17.0817 -6.05119 5.93068 -19.5939 11.8851 
84 0.108268 -2.55062 -3.73022 -7.19522 2.48963 0.00063126 3.43189 1.70071 3.55128 -4.90674 -0.195422 5.75177 -1.88023 -4.1462 -1.92959 8.02354 2.18178 1.05901 -1.64273 -2.4297 -0.556165 2.16397 -1.30168 -3.89198 2.76224 -4.80902 0.510824 2.63531 2.08273 0.747592 -3.28651 0.647966 0.660505 1.80986 -0.610411 -1.11094 -0.830213 -3.19266 1.42586 4.04853 -0.380647 -3.80862 4.21563 -3.314 -4.64579 -3.76873 3.69038 3.49191 -2.77695 0.261171 -1.9108 -3.34822 -1.75997 -2.70192 4.00792 -0.106263 -0.999306 4.95685 -0.909073 -0.505341 2.50472 0.68992 1.12967 -0.79041 1.52493 -0.447429 1.09072 1.17886 1.49787 2.25945 -5.34833 -1.65171 -1.1786 -3.98122 3.47856 -3.75221 2.1896 3.05332 1.77716 -1.21108 1.10561 -0.667446 0.707304 0.659568 4.45434 -0.200312 -3.3917 5.25953 0.462983 -0.443289 -4.64144 -0.409486 -1.39981 -2.60225 6.57244 1.17448 -2.85425 1.75136 -2.74413 4.50422 -0.849137 2.07416 -0.880736 -3.05517 -4.61607 -1.20133 1.38167 3.55077 -2.9493 2.42744 -1.93516 -1.70254 -3.47676 -2.14764 3.33853 3.20876 2.4851 -1.18888 2.06529 -4.92791 1.56342 -1.11045 2.91433 2.13255 -2.00041 0.262404 0.15678 -1.43137 
85 -2.04646 2.56959 -0.182834 1.39966 4.89534 -2.33921 -4.60152 1.87873 4.62575 -2.24687 -4.67914 0.63191 4.46498 -1.16269 2.79206 3.58905 1.84475 3.97341 -2.2756 -0.855303 -1.41696 -1.00565 1.21802 4.68356 -1.13616 -4.8434 5.04047 2.01954 -4.85924 0.38222 0.861444 -3.11741 1.86762 -1.47379 -0.979555 0.878952 9.62967 -1.67984 -3.64734 2.58331 8.51921 1.23906 -0.719201 -3.703 0.156904 2.39023 0.207666 -6.56822 0.8186 -1.04966 -1.89435 -2.94445 3.46878 -2.66626 -3.34622 -2.46175 -0.086536 -5.30812 1.49397 -0.426584 -1.63959 -1.52899 -0.154699 5.50591 -3.16707 1.06556 -2.55025 1.77072 -1.59691 2.65846 2.11041 0.705671 -0.522308 -0.202065 -7.59294 -4.25468 1.26774 -1.17951 -1.18512 -1.7211 0.756293 4.20837 -2.18093 1.44163 -2.69718 2.75442 3.12361 -3.3159 -4.90102 5.11278 5.35293 0.945507 0.275129 2.5822 -0.90824 -7.08952 2.07355 1.32044 0.0897733 -6.64461 1.19174 5.40871 1.61214 4.94444 3.99273 1.59404 1.26223 0.485701 2.4533 1.10076 -3.31741 -6.93904 3.3267 2.45092 -4.16215 -8.57023 0.880069 1.12455 4.47432 -0.206654 5.5731 1.78814 -4.36712 0.473398 0.109399 0.0370401 -3.92517 -0.662931 
86 1.71318 1.23415 5.73106 1.35808 5.81139 0.510525 -1.58397 -5.96187 4.78765 0.717656 -0.11149 0.643895 -0.496955 2.46505 -7.57857 1.3114 2.62441 1.86983 1.01032 1.54633 -1.20864 -1.68364 -2.13568 -2.03677 3.52008 1.35245 3.22142 0.342968 -4.41617 0.506621 0.368766 -2.80919 -2.76746 -2.43937 0.0617865 -2.08538 2.31109 -0.0474773 -1.33621 4.30156 -0.599012 2.2403 3.06561 2.37071 -1.31419 -0.918365 -1.34099 -0.389839 1.05759 1.70771 0.347435 -1.86404 -2.0354 1.01521 2.71332 -0.104154 -0.629317 3.51652 2.52897 2.52036 0.317737 -1.00562 0.0412471 -0.685287 1.66159 0.66977 3.14892 -3.07267 -2.74215 0.60174 -5.69797 0.921092 1.48567 0.782603 -3.99004 2.00914 -2.51237 -0.443246 3.21755 4.53349 0.263483 1.84712 2.48306 3.37346 -0.56993 3.00286 -0.925023 0.469139 -2.73186 1.88296 2.13129 -1.01367 -4.43643 -0.77148 0.669913 2.45786 1.36098 -3.19376 0.358118 0.851424 4.67275 -0.461934 2.61681 2.2238 -0.948638 -1.37555 2.8961 4.22225 6.49343 -0.337786 -1.9102 -2.96872 4.69299 1.81434 -2.67689 -0.165293 3.31795 5.02279 -1.00215 -3.79456 1.45335 -0.727984 1.43362 0.408794 -0.987966 0.0448418 -0.823362 -0.257379 
87 -0.630036 2.24583 2.35427 2.66195 4.93764 -1.2847 -3.45733 -1.16024 5.36834 -1.23406 -2.76419 0.00266019 2.88366 0.203157 -1.48705 3.67148 1.8545 3.32243 -0.624069 0.0341263 -1.97862 -2.04418 0.857202 2.11557 0.309192 -1.48602 3.5681 2.00339 -4.89202 0.25727 0.921311 -3.08921 -0.203235 -2.166 -0.365187 -0.625228 6.8235 -0.423506 -2.53849 3.50986 4.30318 1.58004 0.253782 -1.81682 0.616359 0.882498 -1.1954 -4.04378 1.49331 -0.262523 -0.865168 -2.77867 1.09 -1.14291 -1.57207 -1.19443 -0.0943677 -2.50476 2.04533 1.09996 -0.478226 -1.22132 -0.95101 3.49923 -1.48431 0.632481 0.0434592 -0.350481 -2.93127 1.26182 -0.875496 1.64648 1.23102 0.678726 -5.98769 -1.29923 -0.10639 -1.08996 0.477772 0.216558 0.532486 3.85654 0.572859 2.22393 -1.10057 2.83911 1.28423 -2.07928 -4.2551 3.99293 3.98275 0.0356813 -1.57875 0.847412 -0.243845 -3.37844 2.39136 -0.87279 1.07046 -3.83498 2.6846 2.82668 1.6907 3.1292 2.31149 0.496585 2.50682 1.83345 4.67287 0.0593478 -2.61354 -5.27045 4.045 3.05676 -4.52737 -5.34069 1.86951 2.97785 0.943014 -1.54086 4.28442 0.714457 -1.93564 1.02222 -0.685167 -0.220302 -1.53965 -0.780891 
88 -3.37478 -1.72866 -3.54342 -0.793055 4.16174 -2.70401 -1.56698 8.3978 6.5624 -6.05999 -6.23111 4.35409 5.08713 -3.86333 4.34792 9.67516 0.501506 2.8213 -4.30346 -5.23982 -3.68704 0.293004 4.13899 3.32506 -1.81413 -6.89121 1.49438 4.03939 0.0880758 -0.447361 -2.4334 -3.71571 4.70945 4.71424 0.599587 2.24607 6.86982 -3.02292 -1.35296 3.49096 5.13932 -1.54189 0.488378 -9.1271 0.588529 1.91906 1.20516 -3.93741 -2.30821 -3.3394 -4.65126 -5.15539 4.56988 -4.8718 -1.25537 -0.314548 -0.11367 -6.05774 0.528504 -4.64464 2.22181 0.778552 -3.16096 4.58564 -3.61102 -3.46364 -1.54138 5.03207 -0.857981 6.25363 -1.31397 -1.77329 -0.905512 -4.20237 -4.18392 -6.82417 3.82782 0.750432 -2.73264 -6.36713 1.98435 3.30164 -1.69751 1.17333 1.68354 1.01172 -1.73799 -2.66094 -5.85758 8.10636 2.49697 2.9663 0.944382 -0.424065 3.40997 -8.64161 1.1509 4.95958 -2.37357 -4.88948 0.479656 6.07719 -1.8866 1.44207 3.74857 3.77983 1.60322 1.41317 -1.00979 0.282738 -4.73407 -6.36123 -2.15078 2.16769 -1.52217 -5.34809 0.396329 -1.69798 3.93541 -2.58275 7.02116 0.948613 -2.00645 2.83647 -3.45718 0.591318 -0.80297 -3.24301 
89 -37.6298 37.4235 -27.7848 30.2352 9.19797 -69.9411 59.8833 46.9343 3.35 68.4319 71.6162 -49.8109 -1.56059 20.7827 -29.2721 -32.3032 -0.124879 -15.6319 68.6627 38.6092 65.4931 -12.3233 20.2833 61.2347 18.104 -12.3049 20.9357 -56.8826 -58.5872 2.05031 -87.417 -3.82023 50.5828 -12.5877 18.2483 -24.1507 -0.761707 72.5577 -76.1751 -80.6134 32.7597 -4.757 -19.2842 -48.2847 13.7107 -48.1631 20.28 -74.7926 -63.0186 -7.11638 -44.7535 12.3787 -18.1906 73.3293 65.4236 -0.409888 53.4534 -2.3557 36.3711 -16.8455 -0.368327 50.4244 -27.8268 -51.2555 -62.4837 -8.76945 21.3765 41.4635 -26.6759 36.0205 -17.1374 -1.9893 20.7591 49.7443 -39.2254 40.381 0.909796 -32.2403 54.0466 -57.7262 53.7498 11.2169 -54.4819 -65.0871 -10.3833 12.4304 35.5788 39.402 11.3852 -26.7946 -80.3009 5.06536 21.8419 -7.05609 -39.0859 -32.6083 -16.0289 -22.339 -0.129098 56.8674 16.1321 -20.9569 56.329 -55.4609 31.0984 8.9677 -19.3298 32.385 -28.2078 45.739 -6.59661 -52.334 51.6577 23.8734 -15.1157 51.1332 37.1772 -0.103345 -18.03 -41.5823 72.4406 6.75171 -37.1962 6.4403 2.64523 20.1297 70.2995 -15.562 
90 -44.9752 70.8815 -30.2141 -47.0535 -84.1371 -6.77452 -10.9657 76.4384 4.63093 -27.6775 46.5281 -10.7032 -68.6789 75.9349 48.3179 -47.3636 39.1415 -21.1144 13.2428 -6.51699 29.4024 35.1528 28.0327 -36.4542 21.9212 -66.5601 -38.2027 -16.7799 57.5995 -8.50874 53.248 5.39095 -35.707 -77.2949 -41.4623 -5.98071 9.57919 43.257 -35.8435 17.7911 10.0804 14.3565 25.1021 53.6414 -9.13695 -29.4506 5.65098 26.4834 -51.608 24.4234 14.5506 -13.6154 -42.5796 -58.8561 45.5037 -21.351 -26.6077 17.3907 61.2911 10.9172 2.02543 14.7266 20.0436 -31.8114 36.2919 77.5526 62.0216 48.1222 20.5215 -78.9702 -19.2122 -73.1575 -74.2204 3.31351 -22.3321 16.6135 -31.1399 -15.2924 31.5815 -79.9732 2.56673 51.8771 5.0405 -40.7449 -4.53439 -52.6352 44.9927 -36.7639 -32.7076 3.07287 -22.1426 -24.3572 -81.7168 -2.96092 43.2602 58.3692 75.4999 5.85149 3.47886 -5.94985 28.5563 -22.8676 20.5323 59.943 -17.1002 4.3522 -27.6154 -51.1323 -22.7749 -92.3782 -14.5966 -2.78368 63.6525 -23.243 -44.2683 63.2275 29.0251 -4.73108 24.8157 10.6396 -5.04619 5.80685 78.3582 21.118 3.37027 23.8337 -20.4969 -22.5982 
