2708 128
1 2.5552 0.927346 -2.13979 1.46194 1.50435 -4.14375 0.787082 -0.141739 0.447318 -0.700205 -0.65519 2.80556 -0.502252 -0.858573 -0.236239 -0.417553 -1.08181 0.154489 -1.94048 1.57423 -0.714137 0.100333 0.8437 -1.25118 0.600554 -1.68238 -2.61062 1.24331 -2.86549 -0.520572 2.19418 -2.48725 1.88738 -0.725916 4.36717 0.24097 2.26883 1.93998 2.41179 0.270365 1.41654 -0.78362 -1.45496 -2.10572 -1.53356 -0.917279 0.590262 -0.452284 -2.19541 3.24885 -2.64732 -3.06751 0.119965 -3.08974 -2.38385 -2.49197 1.0563 -0.362008 -0.874152 0.941622 -1.51808 -4.82607 -1.73067 0.403814 1.5031 -0.244475 -2.32748 -3.71111 2.07379 -2.55962 1.83769 -0.303761 0.679568 -0.902576 1.87121 -1.27227 -0.312971 -2.45629 0.636578 -1.7355 1.88271 2.08301 0.631631 -2.19609 2.9899 1.06561 -0.120719 -1.16345 -1.40055 -2.64012 -2.37292 -0.270539 0.00125612 -0.0832358 -2.24178 2.50512 0.657934 2.10778 2.10225 2.64901 -0.20942 2.08274 -1.67612 -2.23729 -0.517292 -2.07098 0.999312 2.30705 -0.336834 0.524612 -1.19819 -0.562782 -1.13681 -0.638107 0.940109 -0.382935 0.597904 -0.046049 0.2505 2.91575 1.64688 -0.81865 1.49095 1.71352 -0.275767 0.936174 -2.27582 -2.17013 
2 -1.64124 -1.09584 1.68128 -3.77215 -0.0915145 -1.80304 0.67996 0.887481 -0.516515 2.25608 -1.28613 1.49822 -1.24837 1.207 -1.14641 -1.5794 1.67817 -1.23526 -0.105832 0.67235 1.12304 -1.89181 -0.113357 1.19293 0.861245 2.58703 -2.03487 -2.05351 0.297824 0.217864 -2.26392 -0.463721 -0.568875 -3.42915 -1.55286 -1.12885 0.0167476 1.03632 2.98768 0.400805 1.1354 -1.70413 -0.652229 0.253211 -0.377928 0.367033 -1.42003 -1.04407 -1.8486 3.61551 0.478215 0.729814 -1.8549 1.62419 -2.62238 -0.321003 -2.01358 -1.13177 2.75362 1.24463 1.53025 -1.54675 -2.94146 0.165774 1.92241 2.46349 0.0769151 1.07155 -0.648856 1.49222 -2.54129 -2.05367 -0.405559 0.452324 -3.81099 -2.96898 3.42474 1.01325 -0.0684062 0.606354 1.90678 1.0601 -0.123268 -0.568046 -1.48241 1.26446 2.62647 0.763805 -0.561677 0.739048 0.770498 1.28365 -1.96939 -2.65341 -0.160868 1.3417 -0.20931 1.10436 1.13129 -0.0415315 -0.128139 -1.35559 1.58843 -0.646233 0.64551 -0.377048 -0.063166 0.585734 -2.30185 2.8675 0.878724 1.07293 -1.2573 0.021529 0.952571 -0.396952 0.775188 -0.284865 1.0745 -0.705851 -1.63816 -0.0862587 0.0161839 2.92424 4.50728 2.19715 -0.0168405 0.623079 
3 4.01763 -4.26709 -4.73499 3.28008 3.55505 0.295226 3.13535 0.584008 1.87511 -7.97292 4.41657 3.04238 4.06072 -6.48439 2.02856 2.36043 -2.6826 -0.325853 0.555469 -1.12271 -1.22575 -1.04913 -2.22344 -5.69977 -3.89709 -6.82913 0.390615 3.94925 -2.60066 -5.27776 8.08811 1.68283 2.80236 0.684862 7.50661 4.01207 -1.49666 2.44426 -9.91257 0.895628 1.99716 -2.16898 4.15273 -0.973173 5.96244 2.48586 4.2571 7.77118 2.35983 -5.22966 -2.8803 -3.2477 2.39915 -2.80312 3.0217 2.19251 -0.190702 1.48422 -8.66352 -2.84704 1.04952 0.486134 4.90217 -0.0103149 -2.97365 -6.34099 -3.56849 -5.04055 -4.9257 -6.46145 1.37086 5.57196 -2.45203 -1.11157 15.5786 4.44659 -0.5397 -0.684859 -4.36632 1.16118 -4.10735 -2.05644 -2.15912 0.0479622 4.27967 4.09021 -5.18815 0.539462 0.722223 0.635926 -2.05385 -3.74837 5.00405 2.99197 -3.58787 -7.02821 -0.613228 -1.78301 1.02997 -0.442278 3.21842 0.884882 0.37745 1.31173 2.89352 2.54022 0.770466 2.30958 5.98817 -1.52954 -3.93328 -6.36266 -0.773452 0.115065 -4.68401 3.8467 0.850356 2.4961 1.96906 4.7589 0.972076 -0.205025 -0.493177 -9.17898 -12.6068 -6.21621 3.94997 2.20989 
4 -2.05196 0.797463 1.54412 -4.26548 -0.298852 -0.161324 1.2025 0.129254 -1.58284 -0.129369 -0.929332 -0.369685 -0.61641 0.589227 -0.170544 0.22347 1.51854 0.527147 -0.0283826 -0.667282 -0.61353 -0.8348 0.303455 1.81101 0.551752 1.77663 -2.15135 -0.506119 1.36909 -0.95737 -1.41407 -0.238558 -1.0618 -3.09401 -0.671203 -1.08297 0.00282116 0.982243 1.8605 0.215042 0.268506 0.531933 1.04367 1.01789 1.04017 0.925105 0.422027 -1.459 -0.297483 3.90008 -0.393489 0.419727 -0.251794 1.50344 -0.709042 0.722783 -0.703246 -1.26983 0.535281 0.510445 1.45543 -0.494121 -1.83582 -0.386221 1.14502 1.0148 -0.292938 2.51977 -1.23278 0.824006 -1.50673 -0.57449 -0.309075 0.745646 -2.2873 -2.4935 0.883553 0.883274 -0.0516762 0.310507 0.722234 0.848322 -0.599161 0.427231 -1.86543 0.236495 1.53119 1.14473 -1.37268 0.0587186 0.371207 -0.00601625 -0.403432 -1.2251 1.13423 -1.12282 -0.293833 0.541734 0.724263 -1.36453 -0.254305 -0.12341 1.71188 0.609537 0.492858 0.365998 -0.3532 0.189454 -1.26173 1.98478 0.287006 -0.550435 -0.874494 0.0710481 0.284384 -0.478338 1.29929 0.425845 1.97776 -1.8411 -0.229836 0.697972 -0.734108 0.673511 0.739882 0.623777 -0.15676 0.464734 
5 2.61142 -1.19379 0.0852666 -0.326597 -0.14039 -3.49081 -0.261291 -0.03009 0.495567 4.26192 -0.963736 2.42523 -1.95176 0.924786 -0.0279148 -1.53791 -0.735207 -1.71539 -0.72863 2.12895 2.24385 -0.650232 1.6758 -0.470554 0.229133 0.366546 -3.18726 -1.28221 -2.398 0.557574 0.131455 -2.41007 1.59247 -2.69341 0.41563 0.0406512 0.768107 1.73085 4.05707 0.741445 1.55885 -1.60173 -3.51806 -2.44652 -3.89391 -0.540685 -2.15926 -2.98142 -3.04684 3.70942 -0.502783 -0.478217 -1.18907 -1.59091 -3.4917 -2.89179 -2.02423 -0.494956 2.86129 2.78524 -0.6432 -3.93727 -3.58748 1.14927 1.82238 2.82893 -1.61065 -3.24091 2.00522 0.391797 0.122853 -2.77143 1.82173 -1.37915 -3.37511 -2.53683 1.86283 -1.62099 1.18292 0.0932201 2.86177 2.0691 -0.148212 -2.46646 2.4422 2.51349 1.60407 -0.816622 -0.915125 -1.84665 -1.40965 1.38909 -2.19554 -3.40908 -2.33057 5.24958 0.506926 2.00596 2.01366 3.92846 -0.204347 -0.786112 -0.331631 -2.20626 -0.51456 -3.27589 0.509389 1.30488 -2.14179 1.77553 0.807685 2.31389 -0.594831 -1.1868 2.02618 -1.33492 -1.07898 -1.77434 -0.815116 2.75934 -0.607537 -1.67127 2.28012 4.58284 6.47586 3.07268 -2.46669 -1.27462 
6 2.02461 -2.59176 -2.09708 1.94414 -0.391759 -0.888356 0.876688 0.837146 0.328422 -0.547508 1.93668 3.12311 1.55449 -2.25986 0.465226 1.05189 -1.66751 -1.40724 1.55468 -1.99965 -0.331859 -1.42991 -0.813254 -3.1463 0.168105 -3.09151 -1.26276 2.08964 -0.782795 -2.21439 2.05433 1.60382 1.21357 -2.07542 1.07433 1.2723 -0.177212 2.01237 -4.07451 -1.27674 0.269931 -0.28414 1.71975 -0.689626 2.30821 2.72286 -0.585185 1.39816 2.61535 0.823495 0.605545 -1.63005 1.64869 -1.07795 3.76289 1.70358 0.345127 2.07211 -3.21801 -1.96905 1.43237 0.633001 2.13174 -0.735806 -0.202525 -4.32803 -1.68764 -1.24356 -2.45095 -2.2168 0.327987 3.26088 -0.612951 -2.3238 5.40968 2.58261 0.163968 -0.850325 -3.00232 2.24534 -1.47042 -0.243896 -1.79478 0.930779 2.67837 3.8961 -2.64507 -0.327419 -0.755465 0.760838 -0.691497 -1.21021 3.019 0.289477 -0.813368 -1.65278 -1.03005 -2.5 -0.294067 -2.27085 -0.261984 0.205755 1.02877 -1.06011 1.29139 1.02004 -0.413261 0.57846 2.7446 -0.563419 -0.0930666 -2.06924 -0.858214 0.484612 -1.45341 3.69105 0.751194 0.5024 -0.583157 2.03653 -1.22681 -1.21867 0.291651 -4.94782 -3.73468 -1.8346 1.72574 2.06169 
7 2.90989 -1.3697 -0.138645 -1.19373 -0.816009 0.238431 -0.74454 -0.606495 -0.0404803 2.05683 1.53426 -0.496211 -0.648832 0.557427 1.85004 0.610331 -2.02126 -0.649159 0.778197 -0.239893 2.1309 -0.371143 1.67351 -0.932525 -0.859741 -0.43157 -1.60632 0.142828 -0.823467 -1.03868 -0.0656743 -0.661875 0.284236 -2.47743 -1.20032 0.968597 -0.152291 0.740952 0.171627 -0.554616 -0.185472 1.37872 -1.50228 -1.55192 -1.86657 2.03843 -1.569 -3.17637 0.194273 2.32148 -0.340643 1.07594 0.813741 0.549053 1.21505 -0.222581 -1.06218 -0.208913 0.351627 2.30536 0.435246 -0.649586 -1.42079 0.838372 0.729309 -0.050653 -1.58388 -0.392559 0.175824 0.0243111 -0.308999 -1.28651 2.55002 -1.00824 -1.31073 -0.569692 -0.438644 -0.773971 -0.892354 1.61508 0.287801 0.363706 -1.96589 -0.434197 1.53693 2.96449 -0.981137 -0.33099 -0.273421 -1.32035 -1.50256 -0.00340442 0.819817 -1.67639 -0.00828583 0.789998 -0.256871 -0.450821 0.241481 0.958563 -0.541853 -0.417246 0.338528 -0.448327 0.504952 -0.253918 -1.16177 0.409887 -0.458365 1.12275 1.68011 0.196314 0.214362 -0.712144 -0.579063 -0.658113 -1.21268 -1.15014 -0.237936 1.08113 -0.779002 -0.525382 1.38533 -0.745668 2.67925 0.921568 -1.83635 0.696201 
8 0.449742 0.213245 -0.595224 0.196848 -0.394904 0.48286 0.589284 -0.365089 -0.768418 -0.915997 1.2034 0.49446 0.563195 -1.27068 0.607577 1.18447 -0.598781 0.357419 0.968474 -1.50621 -1.06938 -0.219644 -0.505107 -0.783529 0.176621 -1.42877 -0.735726 1.40499 0.105926 -1.6908 0.785804 1.06621 -0.111372 -0.797466 0.185704 0.558866 0.0605851 0.939637 -1.8773 -0.658878 -0.247075 1.00537 1.57757 0.034856 1.58243 1.74592 0.381719 -0.0228763 1.83107 0.827025 -0.148712 -0.605021 1.19977 -0.642022 2.00015 0.821392 0.891122 0.971566 -1.65066 -1.01885 0.433185 0.789635 1.45678 -0.391741 0.0831097 -2.46015 -0.76423 0.933232 -0.97891 -1.14728 0.559506 1.74363 -0.025471 -1.54182 2.17856 1.17055 -0.91041 -0.462518 -0.633505 1.06319 -0.917287 0.00139302 -0.73436 0.754248 0.52935 1.52531 -1.5501 -0.0408252 -0.669583 -0.284411 -0.439607 -0.924966 1.87418 0.464721 0.378685 -1.74335 -0.0513562 -1.2524 -0.837687 -1.86283 -0.189064 0.916668 0.256188 -0.132059 0.23622 0.590993 -0.482806 0.443825 1.44529 -0.70769 0.203716 -0.951437 -0.407441 -0.172659 -1.14524 1.52561 1.00728 0.437668 0.302842 0.297518 0.148923 -0.504853 -0.476874 -2.97548 -2.87055 -0.746735 0.659172 1.06807 
9 -0.431433 0.658385 1.16418 -2.40438 -1.16672 2.55753 0.0532034 -0.990895 -1.43355 -0.356139 1.25771 -1.98852 -0.103567 -0.0530464 1.27293 1.38437 -0.262103 0.94443 1.31214 -1.66514 -0.142978 0.227855 0.580227 1.14619 -0.511067 0.195653 -0.555729 0.107812 1.57447 -1.67279 -0.328031 1.0108 -1.06727 -1.40586 -1.78763 0.0989591 -1.14489 0.382123 -1.22754 -0.194889 -0.886131 2.22855 1.44858 0.595619 1.0939 1.64261 0.13891 -1.83037 1.90035 1.09363 -0.0145845 1.69559 1.34904 1.27181 1.61491 1.05437 -0.200144 -0.118055 0.00835243 0.190661 0.833324 1.68213 0.526961 0.40547 -0.0433965 -0.556294 -0.238217 2.66603 -0.878669 0.301936 -0.0828955 0.184144 0.912185 -0.569242 -1.21387 -0.0714425 -0.968901 0.379979 0.20669 1.48223 -0.80252 -0.274194 -0.943168 1.04363 -0.968197 0.674245 -0.606832 0.675678 -0.489998 -0.168782 -0.131489 -0.719997 0.948363 -0.244092 1.42628 -2.23046 0.0349819 -0.970294 -0.857582 -1.42047 -0.0921219 0.0830672 0.644118 1.2843 0.3991 0.543918 -0.644509 -0.116652 0.349824 0.179056 1.23935 -0.580634 0.324292 -0.238812 -1.09936 0.0208839 0.582254 0.0231693 0.697047 -1.41934 0.0685113 0.129209 -1.0043 -2.01981 -0.758457 -0.135091 -0.0310919 1.15083 
10 2.53091 -0.192407 -1.41631 0.49882 0.424904 -2.51679 0.123165 -0.213598 0.50573 0.807131 0.68224 1.72573 -0.591722 -0.052443 0.42641 -0.224429 -1.44878 -0.30471 -0.695371 0.630884 0.477231 -0.384753 0.730121 -1.41814 0.43416 -0.849563 -1.6094 0.669107 -2.18387 -0.439526 0.88395 -1.39649 1.03073 -1.14214 1.48807 0.550266 1.3723 1.3166 1.35652 -0.276875 0.550256 0.0621293 -1.46393 -1.79144 -1.65933 0.633042 -0.693695 -1.46713 -1.05779 2.70385 -1.23894 -1.16545 0.0599699 -1.34827 -0.757758 -1.51992 0.400678 -0.0332737 0.0647758 1.2022 -0.666177 -2.99213 -1.46348 0.490818 1.53876 -0.771635 -1.70344 -1.99503 1.20249 -1.56953 0.806632 -0.710453 1.43096 -1.1284 0.750585 -0.658825 -0.205736 -1.73475 -0.366936 -0.183532 1.19222 1.13101 -0.45216 -1.43599 1.96795 1.85651 -0.641996 -1.02597 -0.698959 -1.67819 -1.72694 -0.101215 0.507098 -0.7207 -1.44927 1.823 0.15299 0.648993 0.989302 1.49321 -0.615656 1.05109 -1.08273 -1.82716 -0.131633 -1.00763 -0.093471 1.61564 -0.379082 0.765563 0.0679868 -0.138567 -0.528615 -0.663088 0.20497 -0.0753913 -0.0727337 -0.545264 -0.177612 2.12386 0.432636 -0.696447 1.34773 0.400374 1.24037 0.991124 -1.94283 -0.615227 
11 -3.62891 2.16023 0.979488 -2.77967 0.219364 -0.720706 1.6345 0.316533 -1.50864 -1.5157 -0.832662 0.487065 -0.44573 -0.0654459 -1.52937 -0.337981 2.28703 1.37997 -0.38195 -0.678589 -2.5147 -0.240171 -1.41704 2.12796 2.01996 1.61779 -0.373332 -0.388504 1.12479 -0.389069 -1.44818 0.545988 -1.29873 -0.604443 -0.196258 -1.46185 0.742291 0.440818 1.15484 0.229282 0.070998 -0.123024 1.871 1.71342 2.13702 0.206165 0.776804 0.642495 0.20986 2.06099 -0.492816 -0.156573 -0.797437 0.925601 -1.5843 0.59313 1.23604 -0.588221 0.899216 -1.37537 0.665983 -0.51479 0.0139775 -0.532634 1.1928 -0.493572 1.21123 2.84678 -0.480637 -0.280137 -0.529709 0.331912 -1.66732 -0.136427 -0.835089 -1.25379 1.11143 0.873884 0.679041 -0.421891 0.523329 0.621669 1.42534 0.491914 -2.69883 -1.50848 1.22793 0.705406 -0.915431 0.948595 1.0462 -0.224146 -0.529608 0.433812 0.930803 -1.84562 0.379817 0.778159 -0.240121 -2.77473 -0.208793 1.1566 0.531774 0.104876 -0.338591 0.497172 0.566358 0.856941 -0.303755 0.567417 -0.235853 -0.377769 -1.08069 -0.195559 0.11879 1.0301 2.85217 1.16912 1.43418 -2.39543 0.948148 0.335528 -2.51172 0.566 -1.71836 0.579781 1.16237 0.415668 
12 -2.40596 0.199768 0.865342 -4.17854 0.519973 -3.49965 1.28234 1.23774 -0.552456 1.0781 -1.54984 2.30639 -1.28981 1.61282 -2.01456 -1.72682 1.77792 -0.40827 -1.34083 0.597874 -0.359513 -1.50331 -0.339311 1.2562 2.55695 3.19686 -1.7763 -1.43008 -0.113285 0.732648 -2.52295 -1.16892 -0.718246 -3.17705 -0.584655 -1.63132 1.5417 1.01228 3.9269 -0.0945048 0.775546 -1.39403 -0.613377 0.584762 -0.298644 0.384065 -1.23976 -0.826655 -2.08051 5.4501 -0.433561 -0.0329949 -1.86042 2.10013 -2.78748 -0.294204 -0.0511469 -1.50002 2.37078 0.604292 1.42498 -3.33091 -3.38579 -0.290865 3.00836 0.988905 0.496521 1.34673 0.159523 0.309888 -2.10889 -1.8932 -0.600832 0.62639 -2.93473 -3.27742 3.04928 0.629387 -0.760554 -0.428872 2.48063 1.75061 0.747397 -0.643951 -2.00373 0.0715545 2.5852 0.408447 -1.2453 0.996669 0.435916 0.926504 -1.43472 -1.22454 -0.23308 0.928625 -0.504849 1.55737 1.51956 -1.06417 -1.20757 0.112261 0.69472 -1.54238 0.494175 0.0122244 0.0679323 1.39457 -2.39914 3.41746 0.216436 -0.0507818 -1.63745 0.260302 1.34638 0.425134 1.83236 0.275933 1.368 -1.0828 -0.568183 0.345721 -0.766227 3.00132 3.30251 2.11355 -0.481495 0.0158059 
13 2.85945 0.899572 -1.835 0.686798 1.48765 -4.02802 0.672712 -0.392893 0.285414 -0.283095 -0.346662 2.46059 -0.935407 -0.450397 -0.0859351 -0.338237 -1.5838 0.190666 -2.16283 1.82689 -0.511827 0.51945 1.15083 -1.37293 0.838133 -1.0725 -2.31389 1.04765 -3.06037 -0.278917 2.11683 -3.0026 1.86806 -0.884994 3.78464 0.487693 2.34403 1.67299 2.43916 0.339864 1.0068 -0.663918 -2.10732 -2.2148 -2.36808 -0.582763 0.290246 -1.08918 -2.48494 3.62685 -2.87253 -2.24034 0.0962575 -2.33177 -2.32191 -2.72357 1.15041 -0.696521 -0.433185 1.54218 -1.51262 -5.35314 -2.45186 0.852395 1.87993 -0.27639 -2.11084 -3.38341 2.62423 -2.45655 1.80495 -1.06309 1.48565 -1.21229 1.10924 -1.72389 -0.348398 -2.39967 0.491145 -1.66293 2.08617 2.3363 0.715521 -2.39008 2.82674 1.09697 0.0246688 -1.19445 -1.44811 -2.59296 -2.75054 -0.307242 0.0116326 0.0833443 -2.38694 2.38035 0.544578 2.17244 2.0681 2.94489 -0.561537 1.73106 -1.91967 -2.46727 -0.332179 -2.06991 0.785939 2.55826 -0.59786 1.07987 -0.990961 -0.657481 -0.856256 -0.845146 1.10642 -0.369318 0.332295 -0.494233 0.382036 3.0792 1.86478 -0.913858 1.29067 2.09123 0.723062 1.16092 -2.58007 -2.10432 
14 -2.42724 1.36607 2.10415 -5.31158 -0.641429 0.810058 1.44688 -0.179824 -2.33903 -0.589336 -1.25583 -1.48882 -0.503222 0.558766 0.426178 1.06042 1.79194 1.02902 0.18373 -1.22804 -0.947744 -0.671605 0.821944 2.42666 0.0577473 1.81234 -2.93668 -0.12371 2.26945 -1.56996 -1.39364 -0.278944 -1.39432 -3.90232 -0.66113 -1.24378 -0.333767 1.1159 1.93681 0.301858 0.0795728 1.47066 1.73948 1.45643 1.53878 1.2103 1.23974 -2.21202 0.10087 4.65293 -0.520833 0.46284 0.343922 1.6724 0.0453153 1.29129 -0.964977 -1.60975 -0.265393 0.652628 1.81185 0.226885 -1.99668 -0.734115 0.752784 1.34814 -0.694523 3.47939 -1.94452 1.32008 -1.63324 -0.230112 -0.230693 1.25587 -2.6628 -2.96196 0.0294084 1.134 0.0501246 0.3797 0.35384 0.889575 -1.30394 0.970519 -2.22375 0.116369 1.62473 1.68465 -1.95173 -0.361248 0.352966 -0.330446 -0.080196 -1.40253 1.9887 -1.94847 -0.464486 0.34038 0.809981 -1.74212 -0.178245 -0.214458 2.5266 1.49661 0.58769 0.584727 -0.688529 -0.389552 -1.31229 2.05895 0.176045 -1.01413 -0.774511 0.177507 0.264172 -1.07989 1.23221 0.576196 2.742 -2.55844 -0.107998 1.17258 -0.681913 0.193601 0.0495499 0.0902888 -0.30172 0.462203 
15 2.31433 -0.984384 0.292819 -1.62473 -0.662774 0.995361 -0.635867 -0.993868 -0.019555 0.933338 1.73434 -0.898403 -0.248754 0.472742 1.86114 0.785856 -1.58707 -0.450269 0.821175 -0.671156 1.94033 -1.14829 1.49384 -0.851024 -1.42782 -0.00225533 -1.40891 0.0568772 -0.0759692 -1.42699 0.315119 -0.0612206 -0.133891 -2.21527 -0.924135 0.769153 -0.914446 1.21868 -0.0981963 -0.387281 -0.232904 1.73305 -0.107505 -1.13956 -0.600139 1.4762 -0.472528 -2.69744 0.174106 2.31165 -0.0893753 1.1283 0.963831 0.467587 1.18143 -0.502952 -1.40666 -0.346813 0.162113 1.80252 0.383866 -0.186593 -1.56672 0.893225 1.023 0.157809 -2.22287 0.518628 -0.50553 0.0388156 -0.461303 -0.983118 2.30256 0.26774 -0.879146 -0.857746 -0.775077 -0.649325 -0.639183 1.1517 0.156038 -0.0586361 -2.28227 -0.335882 0.568084 2.51145 -0.568968 -0.07446 -0.278518 -1.49678 -1.16878 -0.237665 1.11113 -1.39654 -0.201735 0.102821 -0.399716 -0.969897 0.362166 1.42582 -0.376473 -0.432187 -0.264321 0.0415776 1.12769 0.163467 -1.19183 0.449822 -0.828391 1.56904 1.01002 -0.679458 0.245356 0.329165 -0.931934 -1.28313 -0.867902 -0.783771 0.670865 0.934639 -1.02098 0.342034 1.81041 -1.59583 2.24396 0.306239 -2.11722 0.56008 
16 -0.595419 1.29804 -0.147018 0.903348 -0.408766 1.36328 0.131682 -0.628086 -0.997204 -1.10409 1.27493 -0.474743 0.385137 -1.31774 0.199987 0.898838 0.257621 1.00351 1.27259 -1.41176 -1.58562 -0.273706 -1.71255 -0.149492 0.46209 -1.20354 0.498968 1.23086 0.35847 -1.26656 -0.523344 1.79438 -0.967217 1.01235 -0.736106 0.206761 0.402737 -0.0551222 -1.83396 -0.744377 -0.457102 1.09935 1.93782 0.560892 2.00754 1.52431 0.718556 0.525452 2.02073 -1.10242 0.336268 -0.492524 0.324251 -0.97974 1.65295 0.712697 1.52388 1.19121 -0.791707 -1.40346 -0.305172 2.07743 2.46456 -0.585374 -0.0436129 -2.35512 0.169112 2.35175 -0.884275 -0.684451 0.416326 1.72121 -0.607608 -1.69038 1.48605 1.70489 -1.14922 0.0695602 0.266895 0.785329 -1.35887 -0.661514 -0.158918 0.985837 -0.774732 0.556799 -1.68871 -0.217993 0.356695 -0.474771 0.351686 -0.569544 1.41818 0.628185 1.34359 -2.09213 0.737065 -1.3204 -2.22683 -2.96541 0.182454 1.24871 0.089015 0.0943699 -0.670019 1.25912 -0.603654 0.100926 1.40888 -1.98177 0.54307 0.283331 -0.377167 -0.622516 -1.54733 1.11157 1.33312 0.693013 0.229875 -0.971653 0.366897 -0.337712 -0.99564 -2.92168 -3.4823 -0.405186 1.23642 1.46019 
17 -2.49305 1.83983 1.82777 -5.87558 -0.424037 -0.458061 1.8099 0.0465908 -2.12241 -0.644729 -1.41537 -1.04918 -0.837526 1.12092 0.0314098 0.714729 1.83195 1.30459 -0.607718 -0.951505 -1.25062 -0.571148 1.15701 2.6406 0.864177 2.36742 -3.06898 -0.218859 1.78138 -1.16289 -1.41479 -1.00169 -1.21235 -4.01089 -0.142789 -1.5988 0.247396 1.3884 3.03471 0.353976 0.0737316 1.53836 1.22141 1.34472 1.08674 0.99349 1.06003 -2.60895 -0.479419 6.01275 -1.02988 0.356771 0.0516687 1.89639 -0.790994 0.916709 -0.552212 -2.15088 0.267657 0.736776 1.61117 -1.29568 -2.99341 -0.689287 1.49719 1.1137 -0.647773 3.08166 -1.42656 0.755738 -1.34979 -0.710651 -0.0126021 1.48131 -2.74566 -3.71744 0.142025 0.816332 -0.21348 -0.181557 0.988692 1.28778 -0.968178 0.433133 -2.3467 -0.510598 1.98271 1.4605 -2.36526 -0.332159 0.151682 -0.384028 -0.329548 -1.27882 1.47561 -1.44694 -0.60871 0.989725 1.5077 -1.4073 -0.692311 0.286557 2.00845 0.9432 0.420415 0.294682 -0.349747 0.163857 -1.75747 2.74435 -0.154314 -1.37631 -0.806724 0.124553 0.842202 -1.05236 1.50356 0.570172 2.71587 -2.67365 0.450923 1.40492 -0.850485 0.996999 0.629272 0.364854 -1.07796 -0.0946413 
18 -2.33432 0.0274063 1.26055 -3.31187 0.00635749 -0.776389 0.947422 0.559989 -0.939318 0.278184 -0.569352 0.888386 -0.655908 0.523057 -1.12495 -0.776246 1.51219 -0.104161 0.00140206 -0.199049 -0.386153 -1.04504 -0.72241 1.30365 1.24811 2.01825 -0.868514 -1.18465 0.820031 -0.252818 -1.74574 0.283267 -0.96357 -2.14717 -1.24297 -0.980294 0.10898 0.612424 1.23574 0.0926162 0.352624 -0.780651 0.691681 0.944919 0.943274 0.674502 -0.563141 -0.1162 -0.419795 2.56882 0.0727471 0.715928 -0.965972 1.79815 -1.36845 0.425432 -0.376187 -0.717022 1.56473 -0.0278209 1.37846 -0.711363 -1.21279 0.0216378 1.47487 0.586677 0.650386 2.08921 -0.654247 0.538202 -1.67844 -0.825159 -0.785019 0.0401604 -2.08015 -1.73221 2.26463 1.03707 -0.135247 0.485622 0.95263 0.681331 0.473034 0.201975 -1.96837 0.28149 1.57818 0.766411 -0.554919 1.12228 0.746842 0.397815 -0.813033 -0.812048 0.439609 -0.77072 -0.103151 0.498071 0.24565 -1.59045 -0.261281 -0.315735 1.00974 -0.205018 0.576458 0.421832 0.0100092 0.743515 -1.04301 1.86132 0.591343 -0.0110498 -1.04733 0.113792 0.154599 0.658004 1.68151 0.386259 1.19597 -1.35471 -0.603192 0.0733801 -1.31793 1.01004 1.27323 1.18151 0.7519 0.896872 
19 0.324753 1.07426 -0.300897 -4.10252 -1.39043 0.163698 3.55335 -1.15995 -0.965606 -1.52745 2.11083 -0.327439 0.261273 -0.544338 2.58917 2.90874 -0.661144 1.87533 0.555536 -3.52452 -2.26189 0.781734 2.07979 0.301489 -0.354513 -0.551647 -2.61704 1.507 0.604145 -2.96825 4.42232 0.00262941 0.698238 -2.86255 1.85572 0.574923 -2.00574 3.60239 -1.29251 1.44596 -0.751573 3.37961 2.7512 0.505577 2.13139 2.08667 2.10161 -2.7961 2.20429 4.76901 -1.05235 0.617024 2.50934 -0.290765 1.03266 1.00183 -0.871096 -0.247892 -1.99534 -1.39068 1.27438 -1.05161 -0.642952 -0.317185 0.0070509 -3.49165 -2.27101 0.333855 -2.44302 -2.56522 2.69258 2.24178 1.32933 -0.217244 4.25114 -1.05832 -2.6755 -1.57043 -0.929104 1.11199 -0.788686 0.0281597 -2.41194 -0.178911 0.113967 -0.0213999 -0.768948 1.0457 -3.82409 0.285497 -0.540617 -3.1869 2.6319 -0.552382 -1.96333 -2.42326 -1.61254 -0.793102 2.11024 0.616376 -0.534826 1.1689 0.239428 1.57141 0.594344 -1.70894 0.673537 0.808833 1.38784 1.31551 -2.3789 -4.03817 1.08603 -0.677209 -0.140831 1.12274 1.08017 -0.0106201 1.32875 0.232278 2.37008 0.717998 -1.26611 -3.15623 -2.86776 -2.65666 -1.38151 -0.278695 
20 3.56521 1.47628 -3.48152 2.56342 0.772168 -4.78999 1.04805 -0.456753 1.50921 0.0690134 1.3702 2.60517 -0.372411 -0.25962 0.798464 0.0411333 -1.58039 0.746486 -1.5718 0.134068 -1.02446 -0.792018 0.363367 -2.6648 1.14069 -2.01053 -1.80484 2.35331 -3.97501 -0.351102 2.19418 -1.92681 1.59108 0.490858 4.08435 0.560601 2.91113 2.2608 2.69414 -0.331502 0.682635 1.1744 -1.189 -2.46514 -1.64905 0.576271 0.65089 -1.79169 -1.42916 3.61003 -1.6979 -3.70045 -0.364505 -4.26419 -1.18633 -2.65417 1.81329 0.462792 -0.921601 0.248737 -2.2068 -4.5697 -1.42655 -0.606925 2.32468 -3.06706 -3.04829 -3.29059 1.216 -3.60619 2.68427 0.546973 1.49663 -0.911779 4.41293 -0.205757 -2.5251 -3.64161 -0.634157 -1.69719 1.2729 0.906022 -1.16672 -2.51348 2.45209 1.04501 -1.9001 -2.21992 -1.37375 -3.21941 -2.0655 -0.924 1.71934 -0.645388 -2.67762 3.04029 0.14241 0.59301 1.46624 2.03502 -1.07498 3.28779 -2.58698 -2.82941 -1.47716 -1.3973 -0.0624623 2.22643 -0.109125 -0.349804 -1.90839 -0.764985 -0.465143 -1.20949 0.41239 -0.483161 0.0897167 -0.230081 -0.248798 3.04662 1.94704 -0.0466191 2.64324 -0.47239 -0.611944 0.150319 -3.67107 -1.77561 
21 -2.88647 -3.42624 4.80423 -4.5044 -2.4642 12.3413 -2.49992 -2.44241 -1.86676 -1.45736 4.89485 -5.89532 0.556397 -0.873504 2.31121 1.43639 -1.42035 0.288777 5.01998 -2.30253 3.59781 1.9803 -0.130956 3.20829 -4.40561 1.75511 4.79846 -4.56298 6.17974 -2.94779 -0.0456442 4.84539 -2.42439 -0.64577 -7.78329 1.42972 -8.15699 -2.25517 -10.214 1.52281 -2.88412 1.50336 4.02649 2.31294 2.54845 0.879716 -1.43981 0.884621 5.5637 -8.28623 1.72145 9.60152 3.75029 7.53563 3.10277 3.06768 -3.26481 0.730263 3.05126 0.172866 3.4507 8.14675 5.47828 5.41472 -3.52047 2.30545 3.07343 5.25515 -1.1225 2.60215 -1.43221 -1.64879 1.01127 -1.29311 -5.15476 3.17605 2.15786 3.60855 2.36813 5.64184 -3.07281 -2.66203 1.12913 3.88121 -3.01453 0.895762 -0.44335 3.02584 3.33121 4.68448 0.487652 -1.2303 -0.19974 1.17236 2.27528 -7.88843 0.771123 -3.47114 -3.31222 -1.49038 2.78281 -4.79626 0.489665 6.10962 3.80178 1.3398 0.371087 -0.403508 2.04227 0.366977 4.93049 -1.28751 2.53838 1.06341 -4.14119 1.69535 0.543424 -0.384089 -0.0160628 -2.29609 -2.02642 -1.31237 -5.28881 -4.08807 -0.145936 -0.623227 5.10814 4.76378 
22 2.29725 -1.81986 1.18273 -0.938019 -0.846399 -1.50944 -0.702006 -0.384096 0.426838 4.5019 -0.338594 1.27153 -1.84848 0.999233 0.365809 -1.3963 -0.521503 -1.92668 0.245902 1.75339 3.1809 -1.06765 1.7913 0.0859486 -0.787384 0.717662 -2.77499 -2.13967 -1.32253 0.107726 0.0496283 -1.47375 1.25523 -2.86302 -0.88768 0.0177644 -0.947625 1.77498 2.9509 1.115 1.34658 -1.28534 -2.76715 -2.13122 -3.25553 -0.657071 -2.16299 -3.1278 -2.39482 2.54033 0.393958 0.912502 -0.997562 -0.954901 -3.18737 -2.63954 -3.37042 -0.495919 3.74366 2.76279 -0.331973 -2.32048 -3.28856 1.76344 1.31945 3.67493 -1.62341 -2.37596 1.06998 1.19467 -0.270561 -3.00528 1.89243 -1.01446 -4.41101 -2.42319 2.12904 -0.997914 1.54076 0.917396 2.29625 1.28489 -0.669754 -2.05866 1.77448 2.69079 1.88148 -0.326929 -0.339722 -1.44148 -0.903724 1.42169 -2.56526 -4.09626 -2.15291 4.64521 0.562263 1.28008 1.67235 4.19697 0.390969 -1.9653 -0.0359037 -1.13951 -0.038517 -3.08861 0.547042 0.82987 -2.24541 1.86733 1.36866 2.3955 -0.0607781 -0.791137 1.66467 -1.76012 -1.40878 -1.95792 -0.808524 2.18524 -1.39383 -1.47726 2.2566 4.0107 7.26352 2.8337 -2.07829 -0.56431 
23 -1.577 -0.658336 1.6581 -2.7372 -0.81187 1.63472 0.290822 -0.183091 -0.992197 0.238441 0.860446 -0.237777 -0.419465 0.0114143 -0.234624 -0.0810636 0.421227 -0.084433 1.13019 -0.715186 0.34532 -0.193566 -0.264256 1.30075 0.181518 1.26368 0.0782422 -1.50842 1.46979 -0.948682 -0.587089 1.16987 -0.701351 -1.67402 -2.23253 -0.26478 -1.69943 0.485206 -1.4085 0.399824 -0.355463 -0.0675568 1.14787 0.811835 1.06721 0.756028 -0.86102 -0.237417 1.12123 0.450546 0.443421 2.34455 0.326927 2.18054 -0.220447 0.707471 -0.927714 -0.113599 1.76843 -0.257616 1.35351 0.859047 0.258582 1.18509 0.341952 0.319703 0.812002 1.98772 -0.653038 0.480155 -0.766728 -0.615631 -0.067646 -0.950287 -2.05042 -0.381176 1.75815 1.02094 0.367634 1.67796 -0.0183034 0.0235685 0.443829 0.701561 -1.35049 0.648152 0.761085 0.916163 -0.0369951 1.54892 0.425993 -0.153883 -0.508134 -0.486949 0.259329 -1.73332 0.108548 -0.455296 -0.415875 -1.11261 0.249691 -1.10896 0.577557 0.744619 0.955491 0.054026 0.355825 0.610383 0.0392791 1.1067 1.36341 -0.247695 -0.0403908 0.0886818 -0.462045 1.21366 1.2177 -0.047538 0.354953 -1.00051 -0.623053 -0.585796 -1.91347 -0.317571 0.880524 0.610284 1.36408 1.52159 
24 -3.34893 2.4207 2.50225 -6.99504 -0.634849 -0.0946812 2.34158 -0.0667283 -2.91877 -1.02473 -2.01678 -1.39409 -0.957181 1.05004 -0.0626859 1.15209 2.28288 1.68866 -0.709974 -1.15826 -1.94885 -0.0915558 1.46184 3.40598 1.04117 2.74623 -3.68114 -0.203675 2.54245 -1.43897 -1.19981 -1.23477 -1.2813 -4.77834 -0.0240551 -1.9191 -0.0468162 1.6315 3.1411 0.711062 -0.0505755 1.72401 1.72749 1.90347 1.46107 0.872035 1.63048 -2.87428 -0.330117 6.86914 -1.25302 0.518658 0.444092 2.23229 -0.771584 1.23968 -0.610168 -2.4802 0.0175652 0.490726 1.97242 -1.28274 -3.2605 -0.7655 1.31758 1.43171 -0.523814 3.72772 -1.67131 1.04644 -1.21323 -0.529272 -0.217452 1.45655 -3.30807 -4.32559 0.0261449 1.09196 0.125768 -0.233738 1.00206 1.74337 -0.792382 0.789663 -2.72354 -0.964382 2.57467 2.01313 -3.12715 -0.152112 0.164737 -0.64802 -0.497246 -1.18308 1.75906 -2.08883 -0.698933 1.14975 1.79873 -1.72352 -0.693097 0.033478 2.55049 1.42742 0.515709 0.0219909 -0.118191 0.0199774 -1.75973 3.03951 -0.406415 -1.84314 -0.797122 0.198275 1.349 -0.903768 1.88334 0.674516 3.27352 -3.16408 0.832395 1.42822 -1.46446 1.33938 0.202903 0.0737885 -0.745607 -0.230222 
25 3.37079 0.431011 -1.65664 1.50007 0.964681 -3.59352 0.367339 -0.564276 0.611233 0.764033 -0.414953 2.14149 -0.749655 -0.545965 0.607243 -0.244385 -1.09074 -0.347147 -1.38932 1.54599 0.383074 -0.827653 1.04578 -1.74532 -0.348292 -1.58094 -3.28838 1.18459 -2.95434 -0.616859 1.86121 -2.55157 1.76967 -1.30005 3.70221 0.448299 1.86581 2.15754 3.09134 0.411405 1.60313 -0.438826 -1.736 -2.52641 -2.20689 -0.532754 0.757298 -1.67372 -2.67742 3.3303 -1.76474 -3.12176 -0.320782 -3.81604 -2.10411 -2.96245 -0.248127 -0.257168 -0.530385 1.77685 -1.61504 -4.07364 -2.47108 0.198222 1.59766 0.670093 -3.32163 -3.46633 1.26774 -1.57314 1.34126 -0.709208 1.27509 -0.56979 1.11288 -1.62034 -0.882159 -2.59236 0.700876 -1.40955 1.80781 1.76889 -0.901868 -2.3509 2.92483 2.08966 -0.0930452 -1.1865 -1.17652 -3.63868 -2.32328 0.0856746 -0.0561711 -1.7494 -2.21688 3.52471 0.601813 1.43588 2.01605 3.40295 0.0608235 1.16478 -1.15498 -2.02844 -0.652652 -2.09423 0.138151 1.65715 -1.09777 0.547402 -1.13345 0.201991 -0.890788 -0.773052 1.05743 -1.73687 -0.574202 -0.604239 0.548041 3.33228 0.758196 -0.590252 3.16893 1.74514 1.48536 0.965036 -2.95833 -1.89879 
26 -2.54745 1.46058 2.31347 -5.86964 -0.646004 -0.534528 1.66749 0.164614 -2.20418 -0.017364 -1.76551 -0.672168 -1.09461 1.164 -0.420914 0.371425 1.94638 0.850835 -0.544238 -0.515811 -0.897465 -0.570592 1.31854 2.88279 1.01114 2.56146 -3.28784 -0.78885 1.8874 -1.01123 -1.40688 -1.05125 -0.91203 -4.43537 -0.446648 -1.77347 -0.161256 1.60024 3.08739 0.567898 0.229273 0.924245 0.901208 1.24783 0.809398 0.5722 0.59147 -2.61738 -0.68002 6.09683 -0.771926 0.696767 -0.0381436 1.98077 -1.26808 0.651986 -1.04578 -2.16467 1.04103 0.759135 1.62295 -1.4906 -3.31988 -0.275039 1.53031 1.79188 -0.493515 2.75891 -1.25017 1.09096 -1.37085 -1.07799 -0.0794898 1.03881 -3.75467 -3.97993 0.908288 0.939138 0.13054 0.0339452 1.28824 1.58351 -0.603176 0.337869 -2.10204 -0.289503 2.57834 1.54022 -2.37987 -0.100001 0.170828 -0.0697322 -1.05852 -1.66562 1.15185 -0.903264 -0.461509 1.16255 1.68227 -0.997722 -0.587557 -0.391069 2.08915 0.754086 0.517179 -0.231507 0.0552812 0.252188 -1.91362 2.98442 0.176236 -0.993605 -0.809545 0.231626 1.4052 -0.812036 1.46195 0.306423 2.38218 -2.48731 0.1346 0.928664 -0.930757 1.8123 1.68815 0.762606 -0.816131 -0.0641572 
27 -3.69442 -1.72994 2.59414 -5.10754 0.607124 -2.14525 0.935145 1.3449 -0.998473 1.8259 -2.00867 3.15095 -1.43504 1.18403 -3.06209 -2.44754 2.16271 -1.95376 -0.702025 1.34848 0.547366 -1.52152 -1.14429 1.32086 2.20738 4.40632 -1.13533 -3.15027 0.986698 0.969596 -2.65437 -0.515697 -0.765934 -4.07153 -2.31013 -1.36369 -0.0994239 0.663517 2.19123 0.557366 0.97984 -3.90511 -0.398034 1.21877 -0.0846702 -0.223323 -1.93844 0.938441 -2.39044 3.7978 0.496757 1.66914 -2.04162 3.75318 -3.24775 -0.243116 -1.42554 -1.15917 3.48133 0.460767 2.64985 -2.36026 -3.16294 0.836157 2.68969 2.72072 1.64877 1.96646 0.166246 1.75158 -3.35692 -2.67009 -1.31445 -0.0966588 -4.93883 -3.27245 5.80677 2.01715 -0.126277 0.5838 2.70869 2.13931 2.02474 -0.120184 -2.53398 0.921128 4.16501 1.35857 -0.649717 2.93101 0.905413 1.64291 -2.61409 -1.17292 -0.770401 0.300875 -0.475577 1.2073 1.16624 -0.910055 -0.490288 -2.45725 1.22822 -1.28902 1.96969 -0.22907 0.434071 1.44207 -2.53879 4.41871 0.905267 0.297346 -1.85892 1.04523 1.5617 1.65012 2.06141 -0.0917395 1.61444 -0.275027 -2.0245 -0.764064 -1.78808 4.11609 5.03881 2.57509 2.01595 1.01363 
28 0.823778 -0.283358 -0.64552 0.72511 -0.0269471 0.443475 0.329559 -0.24773 -0.918827 -1.15917 0.603645 0.973251 0.741465 -1.74531 0.373203 1.13745 -0.854831 -0.161202 0.905238 -0.946632 -0.840301 -0.1122 -0.426372 -1.08875 -0.131943 -1.91573 -1.0965 1.47649 0.104281 -1.81483 1.08408 0.90283 0.248313 -1.14721 0.665537 0.764715 0.102458 0.913304 -2.23296 -0.78305 0.0738443 0.248883 1.37502 -0.206866 1.49233 1.38267 0.369253 0.611288 1.57714 0.603133 -0.46143 -0.972618 1.51925 -0.793796 2.14102 0.729052 0.82931 1.06302 -2.30435 -0.754646 0.51959 0.640188 1.51641 -0.177243 -0.191145 -1.90274 -0.952377 0.333446 -0.608243 -0.974489 0.349649 1.75947 -0.203523 -1.72779 2.03773 1.18675 -0.382415 -0.362384 -0.452627 1.00209 -0.804492 0.436315 -0.383446 0.813698 1.35494 2.13367 -1.35267 0.0761776 -0.623658 -0.457723 -0.819611 -0.723229 1.77765 0.784388 0.453016 -1.68951 0.0814391 -1.02176 -0.734854 -1.53107 0.0552504 0.593106 0.456963 -0.331183 0.662212 0.493115 -0.400036 0.503858 1.60874 -0.639848 0.400758 -0.934881 -0.776728 0.155937 -1.1316 1.68958 0.972906 0.439474 0.387661 0.969351 -0.166019 -0.922783 -0.259495 -2.74479 -3.01995 -0.582496 1.05858 0.941544 
29 -1.51716 0.676796 0.45059 -1.22059 -0.0958633 0.1978 0.795406 -0.0226499 -0.984699 -0.852063 0.364204 0.467515 -0.0244522 -0.618291 -0.557314 0.141845 0.810651 0.518948 0.506023 -0.821443 -1.25249 -0.447591 -1.15498 0.560923 0.901506 0.282528 -0.197432 0.0717083 0.607122 -0.910568 -0.572438 0.994621 -0.738175 -0.596636 -0.540393 -0.346226 0.0958668 0.5012 -0.64565 -0.162271 -0.0445506 0.0382641 1.53405 0.793288 1.69988 0.916302 0.267024 0.51991 0.887604 0.78729 -0.0250201 0.0623125 -0.0642091 0.388016 0.0583032 0.564588 0.672287 0.240731 0.152803 -0.995036 0.57404 0.401546 0.727668 -0.137357 0.640194 -1.09904 0.380098 1.93068 -0.722012 -0.41906 -0.323323 0.65383 -0.810078 -0.919901 0.183227 0.0195331 0.61157 0.452274 0.0848502 0.557302 -0.201497 0.137717 0.403122 0.568322 -1.18638 0.284116 -0.0136481 0.34552 -0.32003 0.517152 0.414318 -0.325157 0.376546 0.230427 0.560954 -1.69088 0.270639 -0.339177 -0.748544 -2.12698 -0.00205272 0.516101 0.379564 -0.0319011 0.120052 0.647747 0.00806864 0.65743 0.435175 0.0210815 0.306233 -0.323507 -0.694459 -0.136482 -0.623221 1.23625 1.7372 0.629339 0.753464 -0.936061 0.133454 -0.224325 -1.42846 -1.04284 -1.57653 0.152688 1.15236 1.04739 
30 1.75028 -0.987495 -1.56434 0.733631 0.451448 -0.614941 0.210126 -0.190372 0.848853 -0.957686 2.61201 1.41402 0.529023 -0.824419 0.415557 0.169925 -1.56418 -0.243187 0.375141 -0.70369 0.118352 -0.924131 -0.777302 -2.16038 0.149517 -1.06726 0.712552 0.811162 -1.39842 -1.10019 1.21114 0.759282 0.334567 0.23948 0.466648 1.12071 0.162718 0.922263 -2.18625 -0.656704 -0.146795 0.230647 0.60375 -0.849919 0.81299 1.54947 -0.336798 0.757137 0.858927 0.0634577 -0.385875 -0.0948214 0.396453 -0.237886 1.03347 -0.230398 0.79029 0.762704 -0.628901 -0.522604 -0.0291105 -0.778773 0.69671 0.543356 1.0754 -3.05037 -0.982398 -0.428046 -0.304422 -2.30196 0.46563 0.634399 0.647338 -1.0782 3.32636 1.24536 -0.0742659 -0.866815 -1.55442 0.727264 -0.454259 -0.467598 -0.570687 -0.465838 0.742663 1.76933 -1.80625 -0.780963 0.390694 0.0537903 -0.844077 -0.835882 1.93421 0.760148 -1.33935 -1.13656 -0.224107 -1.11248 -0.380436 -0.343053 -0.335941 0.910367 -1.43104 -1.14051 0.83263 0.898187 -0.326501 1.62857 1.0278 0.241092 -0.0192731 -1.45978 -0.225498 0.0714153 -1.61821 1.55263 0.665072 0.134415 -0.0674446 1.56015 -0.0363735 -0.25073 0.0762173 -2.99686 -1.42129 -0.488667 -0.148332 1.02237 
31 -4.47642 1.18902 2.01355 -0.607833 -0.784191 8.56874 -0.804586 -1.31857 -2.60741 -4.66021 2.34747 -4.48922 2.04448 -2.64473 0.831395 2.11284 1.49329 2.22201 3.92577 -3.27941 -1.85222 0.372735 -3.68402 2.19555 -1.811 -0.878372 3.91998 0.181231 4.80629 -2.9179 -2.07654 5.82739 -3.79405 2.6598 -4.06375 0.42471 -2.54108 -2.69566 -7.33714 -0.974804 -1.80262 2.02586 6.12634 3.36553 6.18802 2.07219 1.95216 3.48203 5.61641 -7.24643 1.32326 2.55287 1.806 2.56991 4.4913 3.96869 1.64331 1.82164 -1.96566 -2.60622 1.59771 8.76385 7.39332 0.170744 -2.8508 -1.91595 2.59954 7.43547 -2.64583 1.26327 -1.67163 2.89984 -2.50271 -0.64616 0.549328 4.12262 -0.728626 3.20827 1.36079 2.59378 -4.28262 -3.04958 0.700219 4.40036 -4.13684 -0.56167 -2.39248 1.8149 2.70724 1.92441 2.21115 -1.1719 2.28531 2.93594 5.35221 -8.58775 1.37497 -3.27128 -5.53533 -6.99086 2.01267 0.262939 1.65092 4.21404 0.847859 4.58956 -1.40294 -1.39776 3.26199 -3.61225 2.47073 -0.346142 -0.00576787 0.427666 -5.23764 1.66445 2.70904 2.26343 1.50772 -4.53687 -0.522536 0.350471 -4.30421 -6.88179 -8.22328 -1.56715 5.34856 4.2988 
32 -2.53707 -0.95242 2.17232 -3.34287 -0.486754 -1.10636 1.18233 0.620977 -0.857894 1.37852 -0.455381 2.44333 -1.10247 0.391228 -2.23745 -1.43258 1.42922 -1.16985 0.164147 0.272692 -0.143925 -0.884807 -0.729587 1.17647 1.94234 2.66336 -0.625076 -2.4025 0.818487 0.0857149 -0.558627 0.448455 -0.00387223 -2.54115 -1.85836 -0.998254 -1.33916 1.55415 0.265262 0.917413 0.410853 -2.31136 0.523977 0.8965 0.780874 -0.213479 -1.41997 0.508445 -0.53754 2.50843 0.825509 1.92196 -1.02625 2.01236 -2.425 -0.399606 -1.33657 -0.36227 3.4001 -0.949862 1.43412 -1.46417 -1.6993 1.16623 1.82807 0.821606 1.18087 1.32865 -0.340406 0.444061 -0.976719 -1.18137 -0.830602 -1.35785 -2.8266 -1.88627 3.96953 1.05219 0.35469 1.0621 1.46461 1.1898 1.58002 -0.25414 -1.61628 0.456955 2.81358 0.869993 -0.872199 2.51249 0.877596 0.527707 -1.93038 -0.992686 -1.60281 -0.0168701 -0.171757 0.377585 0.681777 -0.367932 -0.240582 -1.86415 0.259045 -0.921161 1.15009 -1.05682 1.34567 1.45866 -0.923094 2.58469 0.515082 -0.0286202 -0.700691 0.546763 1.38255 2.28814 1.98261 -0.329338 0.376473 -0.20067 -0.948179 -1.12197 -2.08887 2.16803 3.23315 1.40713 1.70624 1.01166 
33 3.33966 -0.811301 -1.46565 0.251338 0.328486 -2.43243 -0.422596 -0.193486 0.707724 1.51775 0.946941 1.42873 -0.862041 0.413998 0.764049 -0.360691 -2.14297 -0.570105 -0.689103 0.995707 1.42904 -0.140411 1.34924 -1.52047 0.248344 -0.723899 -1.56525 0.352927 -2.44699 -0.253958 0.561015 -1.8082 1.15698 -1.55852 0.92067 0.781006 1.39755 0.998438 1.46609 -0.464373 0.388282 0.196588 -2.46525 -2.26255 -2.71411 0.896898 -1.57697 -2.22249 -1.18803 2.86106 -1.42692 -0.492197 0.199235 -0.629924 -0.612592 -1.53879 0.184454 -0.28167 0.487891 2.13604 -0.568961 -3.32225 -1.9034 0.971385 1.57459 -0.403897 -1.65634 -2.42512 1.77106 -1.37704 0.582731 -1.55007 2.22397 -1.27389 -0.180206 -0.786182 0.00410778 -1.75046 -0.633302 0.170045 1.41241 1.24288 -0.580648 -1.5856 2.45465 2.35584 -0.775431 -1.15377 -0.454278 -1.73624 -2.17801 0.110398 0.37087 -0.94873 -1.35409 2.22411 0.106321 0.823385 1.10057 1.93804 -0.815536 0.756801 -1.07775 -1.96309 0.0270685 -1.06252 -0.30573 1.67993 -0.618621 1.1802 0.830865 0.108831 -0.33686 -0.851371 0.168327 -0.287393 -0.649839 -0.967373 -0.586349 2.31494 0.2041 -0.878538 1.53728 0.769991 2.48997 1.48635 -2.42396 -0.537759 
34 -2.34679 -0.252814 1.53163 -3.06428 -0.339908 -1.12231 1.49504 0.469478 -1.0358 0.659132 -0.595413 1.98213 -0.839743 0.0935849 -1.57077 -0.802622 1.36325 -0.476093 0.0163273 -0.0821675 -0.762582 -0.525846 -0.552044 1.1613 1.65289 1.92437 -1.11417 -1.50811 0.756273 -0.30602 -0.262938 0.192725 -0.0668776 -2.47979 -0.859734 -0.897382 -0.731621 1.48594 0.541807 0.79921 0.392193 -1.5261 0.803708 0.877637 0.886421 0.0724482 -0.641807 0.182045 -0.311268 2.74507 0.24111 0.943741 -0.596934 1.34114 -1.91747 -0.089423 -0.740278 -0.319109 2.03 -0.867245 1.33005 -1.37939 -1.2241 0.596287 1.40206 0.401277 0.718922 1.18558 -0.427072 0.151825 -0.601296 -0.542715 -0.858017 -1.11613 -1.79242 -1.67546 2.78585 0.657146 0.383276 0.697734 1.20108 1.22365 1.16549 -0.0635504 -1.30887 0.3119 2.12806 0.860933 -1.2679 1.76601 0.569332 0.101036 -1.2248 -0.803886 -0.990909 -0.351772 -0.130176 0.458325 0.746507 -0.73231 -0.189493 -1.00614 0.585606 -0.540548 0.743344 -0.929104 0.992947 1.24379 -0.570403 1.97116 0.129645 -0.355166 -0.785468 0.181383 1.09164 1.85656 1.96895 -0.00096529 0.738567 -0.269128 -0.306558 -0.85125 -1.83063 1.60798 1.63942 0.967844 1.3678 0.682607 
35 -2.57612 2.02116 1.8986 -6.19852 -0.462349 -0.359358 1.68662 0.0495947 -2.18807 -0.57939 -1.50049 -1.46225 -0.887831 1.3975 0.187024 0.751553 1.93866 1.45862 -0.620186 -1.02874 -1.13814 -0.682304 1.27654 2.87251 0.810093 2.54955 -3.16388 -0.204364 1.90778 -1.13091 -1.91348 -1.04049 -1.49571 -4.12567 -0.362867 -1.72924 0.441047 1.2084 3.47978 0.184731 0.0152336 1.89157 1.15665 1.3956 1.00495 1.1632 1.0274 -2.99933 -0.524482 6.29816 -1.04858 0.388505 -0.0241568 2.11064 -0.689982 1.05784 -0.529997 -2.34811 0.288901 1.04452 1.66289 -1.16353 -3.18156 -0.853052 1.5797 1.3009 -0.670064 3.44547 -1.48106 0.988768 -1.64764 -0.888509 0.101179 1.84074 -3.16528 -3.92487 -0.0451263 0.913528 -0.298473 -0.230249 1.01451 1.21047 -1.20968 0.51744 -2.61229 -0.579951 1.96652 1.47892 -2.31407 -0.544874 0.215512 -0.290382 -0.308439 -1.4277 1.93417 -1.45144 -0.632206 1.0406 1.44673 -1.60597 -0.787895 0.442916 2.1992 1.0815 0.334776 0.558047 -0.632328 -0.019053 -2.01436 2.82352 0.0305261 -1.23988 -0.83875 0.0924084 0.728006 -1.48431 1.40204 0.617212 2.8566 -3.101 0.37527 1.69429 -0.702528 1.00413 0.803033 0.509274 -1.3892 -0.0867793 
36 3.81515 -0.449168 -2.09603 2.02215 1.49909 -2.03104 0.133686 -0.788991 0.704056 -1.61917 1.00407 2.29464 0.335773 -1.65115 0.583648 0.377126 -2.43406 -0.502553 -1.01156 1.06632 0.168768 -0.276117 0.695794 -2.79183 -0.818453 -2.35512 -1.55934 1.53921 -2.49404 -1.46939 3.49262 -1.45858 1.97032 -0.459124 3.84361 1.43819 0.791326 1.99524 -0.750502 0.0201277 0.906922 -0.582382 -0.468332 -2.32418 -0.672006 -0.345717 0.994626 0.486726 -1.19351 1.47739 -2.21206 -2.09022 1.215 -2.63019 -0.307109 -2.28482 0.56812 0.232588 -2.01316 0.791829 -1.23454 -3.39013 -0.886991 1.19522 1.10104 -1.16141 -3.06599 -3.27876 1.37453 -2.7953 1.70488 0.201603 1.31097 -0.955855 3.36295 -0.122126 -0.716306 -2.26556 -0.0703344 -0.910931 0.748013 1.30713 -0.167324 -1.72599 3.37624 2.37841 -1.01782 -1.03171 -0.660542 -2.45576 -2.83595 -0.809819 1.41634 0.818706 -2.63484 0.773873 0.291162 0.421353 1.40554 3.06895 0.100279 1.10431 -2.26007 -1.86341 0.995605 -1.04493 0.39957 2.39163 0.497198 0.62529 -1.06584 -1.84325 -0.665733 0.371135 -0.395959 0.108736 0.0880871 -0.235876 0.60647 4.12923 0.79314 -0.782348 1.97225 -1.02083 -1.06887 -0.262481 -1.71175 -1.20019 
37 -1.66823 -0.348087 0.166095 -1.57533 0.224488 -1.3997 0.863514 0.635253 -0.145926 -0.505216 0.854054 2.38696 -0.083963 0.0497486 -1.82285 -0.881806 0.511621 -0.45988 -0.0414359 -0.601249 -0.919794 -1.26244 -1.5911 -0.381911 2.22752 1.5131 0.684428 -0.611703 0.0457623 -0.106141 -0.710622 1.04859 -0.526566 -0.86349 -1.01602 -0.458526 0.208576 0.924385 -0.729194 -0.56654 -0.186705 -1.02319 1.20346 0.723504 1.62007 0.895336 -0.930478 1.34942 0.398821 1.92221 0.389361 0.602039 -0.603314 1.61283 -0.325231 0.169467 0.956973 0.25853 1.26138 -1.56072 0.979547 -1.16207 -0.321102 0.258826 2.18458 -2.09019 0.780193 1.74965 -0.36145 -1.10074 -0.776971 0.0989532 -0.769754 -0.895897 0.476034 -0.192209 2.15745 0.456406 -1.19667 0.505172 0.584063 0.399063 1.0058 0.119406 -1.5801 0.451804 0.591229 -0.0356282 -0.258349 1.92068 0.509185 -0.0855218 0.421047 0.838202 -0.85988 -1.33973 -0.439219 -0.653113 -0.304835 -1.99789 -0.969738 0.213872 -0.798061 -1.50486 1.11407 0.951027 0.217594 1.6944 -0.0264034 1.63895 0.182953 -1.15985 -0.938451 0.871406 -0.263122 2.66954 2.25703 0.484788 0.466591 -0.14955 -0.562265 -0.239481 -1.6243 -0.94803 0.0432356 0.452848 1.18127 1.27436 
38 -3.72924 3.77384 0.826587 2.7041 -1.27693 7.71236 -0.493524 -1.79909 -3.06573 -4.53239 2.56832 -4.55286 2.08062 -3.57485 0.933552 3.08971 1.65449 3.45099 4.14692 -4.16495 -4.34996 0.759938 -4.79492 1.33454 -0.430935 -2.99857 3.82162 2.75983 3.56219 -2.83762 -2.01082 6.19568 -3.73329 5.08287 -3.26987 0.462215 -0.54752 -2.6918 -6.99848 -1.72307 -2.1074 3.41365 6.42104 3.25715 6.63035 2.92005 3.01107 3.08446 6.73924 -7.77979 1.70971 0.151437 1.52104 -1.05658 5.80768 3.75667 3.87123 3.16504 -3.20208 -4.31116 -0.431066 9.63553 9.08215 -1.81322 -3.02982 -4.81315 2.46199 7.87912 -2.88374 0.196212 0.442824 5.26707 -2.78678 -2.64285 3.18193 5.88645 -3.75754 2.06922 1.63395 2.03115 -5.41119 -3.39802 0.240938 4.44237 -3.61754 -1.09304 -4.42111 0.574332 2.30242 0.114561 2.48432 -1.54551 3.46684 3.27408 5.93921 -7.92244 2.04836 -3.94781 -7.29395 -8.8766 1.57175 2.42295 1.29143 3.15843 -1.72108 4.5882 -1.70736 -2.06394 4.60943 -6.95138 1.62299 1.01238 0.0740134 -1.04013 -5.00962 2.11669 2.84805 2.46692 0.590845 -4.90993 0.934669 0.0305077 -3.99463 -8.4265 -11.5034 -2.36594 5.1585 4.09686 
39 1.67635 -1.91009 -1.64438 1.24451 -0.228347 -0.710523 0.739496 0.508084 0.223556 -0.55327 1.79318 2.41843 1.13764 -1.75663 0.424243 0.832583 -1.37209 -0.98722 1.19595 -1.56284 -0.261343 -1.2045 -0.687309 -2.48759 0.151302 -2.31759 -0.960948 1.61577 -0.742029 -1.89865 1.61257 1.29009 0.843297 -1.64454 0.791216 1.06779 -0.103701 1.68618 -3.14021 -1.01016 0.202274 -0.0838228 1.39499 -0.60835 1.83592 2.30158 -0.444461 0.977313 2.00618 0.882552 0.294428 -1.15459 1.25505 -0.785397 2.78042 1.16759 0.349457 1.54521 -2.35837 -1.42834 1.04955 0.290476 1.53284 -0.435142 0.135625 -3.54556 -1.42006 -0.767324 -1.84043 -1.9359 0.252548 2.3838 -0.300688 -1.90602 4.24532 1.89854 0.116632 -0.72967 -2.33006 1.76484 -1.07569 -0.167299 -1.41562 0.599796 1.93773 3.16865 -2.12363 -0.305971 -0.570275 0.453441 -0.652576 -1.00441 2.46896 0.230905 -0.73677 -1.4415 -0.723861 -1.92394 -0.2822 -1.74364 -0.252311 0.341395 0.551455 -0.929183 1.06274 0.861701 -0.405761 0.755713 2.07572 -0.271648 0.00701903 -1.69125 -0.711335 0.309945 -1.32202 2.84461 0.739725 0.394362 -0.285306 1.66391 -0.877735 -0.920191 0.183403 -4.03177 -2.86296 -1.29387 1.16962 1.68857 
40 -1.2398 1.52819 0.915869 -2.40424 -0.637292 1.70623 0.883816 -0.70728 -1.7552 -1.41425 0.396116 -1.5742 0.139611 -0.51677 0.846372 1.49399 0.710028 1.38821 0.838133 -1.67961 -1.36749 -0.170407 -0.0450212 1.21821 -0.17018 0.00562715 -1.21677 0.811321 1.53548 -1.85878 -0.342577 0.822586 -1.14642 -1.39427 -0.44571 -0.321836 -0.351576 0.662569 -0.489777 -0.122337 -0.41726 1.96468 2.20845 1.01854 2.03624 1.47382 1.38464 -1.09625 1.4926 1.71196 -0.353756 0.205601 0.915705 0.367467 1.29308 1.16478 0.270133 -0.288416 -1.01765 -0.389443 0.735332 1.38098 0.440117 -0.519619 0.0566077 -0.793286 -0.556935 2.95123 -1.56274 0.0466702 -0.215667 0.992183 -0.117519 -0.0483525 -0.0901723 -0.518093 -1.21645 0.452162 0.154921 0.652208 -0.837531 -0.073571 -1.01025 1.07954 -1.37012 0.202438 -0.372844 0.842898 -0.966739 -0.584159 0.134234 -0.889387 1.09682 -0.129828 1.69532 -2.59806 0.0603349 -0.646372 -0.62505 -2.14218 0.0690818 0.690055 1.18205 1.26132 0.0875847 0.928257 -0.625536 -0.1711 0.353442 -0.0498152 0.222842 -0.937854 -0.272493 -0.190106 -0.923561 -0.132655 1.21368 0.678702 1.617 -1.81081 0.471256 0.61716 -0.915468 -2.04937 -2.39974 -0.619495 0.212517 0.878616 
41 -0.195148 -1.28484 -0.140527 -2.11043 0.243335 -1.75418 0.504154 0.765569 0.694654 0.745309 1.01785 1.55536 -0.302172 0.855663 -0.534171 -1.14925 0.314446 -0.820724 0.0531869 -0.277389 0.935864 -2.20429 -0.610728 -0.503152 0.828568 1.40327 -0.215134 -0.910254 -0.669172 -0.141163 -1.30028 0.466269 -0.520794 -1.51038 -1.01567 -0.266407 0.255143 0.966361 0.927799 -0.477014 0.457474 -0.530169 -0.020419 -0.176846 0.515818 1.30285 -1.35293 -0.187504 -0.585762 2.33894 0.338175 0.582338 -1.32864 1.36933 -0.988093 -0.0581034 -0.677292 -0.464574 1.60783 0.354517 0.954607 -1.34288 -1.61301 0.0946242 2.11752 -0.683547 -0.322765 0.717415 -0.885049 -0.526351 -1.70839 -0.964119 0.0820932 0.531254 -0.106524 -1.11692 2.06816 0.284136 -1.65447 0.641234 0.84494 -0.214552 -0.722292 -0.682344 -1.13883 1.30149 0.440553 -0.153458 0.187133 0.819745 0.500107 0.372762 0.0821646 -1.12917 -0.724622 0.141968 -0.574044 -0.0671064 0.46004 -0.497338 -0.608409 0.0767761 -0.0392604 -1.09495 0.866504 0.950286 -0.432899 1.16993 -1.0691 2.13851 0.485243 -0.305757 -0.810949 0.281037 -0.653326 0.43109 0.821797 0.0842204 0.489352 -0.204706 -1.23109 0.514149 0.147068 -0.349642 2.16133 1.01673 -0.550985 1.05641 
42 0.832884 0.12234 -1.20445 1.21726 -0.100106 0.149085 0.819316 -0.342081 -0.512077 -1.23214 1.47652 1.03047 0.721138 -1.89773 0.611357 1.175 -0.822051 0.41002 0.932373 -1.36474 -1.42313 0.0797659 -0.907616 -1.29469 0.164943 -2.20211 -0.463061 1.74576 -0.515067 -1.76727 1.52077 1.07587 0.319186 -0.0691364 0.916461 0.922269 0.241171 0.947745 -2.52785 -0.461917 -0.0522696 0.570248 1.54183 -0.189383 1.64754 1.68191 0.586427 0.727866 1.9199 -0.159061 -0.38069 -1.09681 1.16506 -1.41276 1.83312 0.677366 1.20013 1.36632 -2.07033 -1.41115 0.101267 0.644882 2.20938 -0.381599 -0.27777 -3.08426 -0.718988 0.0658123 -0.844598 -1.80742 1.16059 2.22232 -0.28407 -2.17218 3.53986 1.84069 -0.983121 -0.776434 -0.555001 1.01237 -1.14793 -0.0839677 -0.418175 0.536144 1.14149 1.57494 -2.06942 -0.263281 -0.529246 -0.254327 -0.584838 -1.15531 2.03212 0.768451 -0.154202 -1.75189 0.159989 -1.16004 -0.942433 -1.78084 0.111479 1.18762 0.014634 -0.31133 -0.0435543 0.338183 -0.153278 0.694322 2.11323 -1.41112 -0.186255 -0.93238 -0.396612 -0.58308 -1.30558 2.03846 1.09558 0.514617 -0.0158206 0.897985 0.593136 -0.918193 -0.691312 -3.18467 -3.90755 -1.02226 1.09246 1.03386 
43 -2.45264 0.505522 1.04912 -3.8546 -0.0780177 -1.61704 1.53525 0.630754 -0.565014 0.466919 -0.565516 1.05901 -1.00323 0.98159 -1.06396 -1.13112 1.64854 0.368837 -0.43396 -0.185865 -0.619486 -0.349945 -0.0241599 2.17878 1.53343 2.23951 -0.828802 -1.72283 0.430942 0.0202904 -1.06981 -0.078382 -0.641762 -1.64891 -0.767904 -1.19008 -0.091907 0.954478 2.08428 0.771547 0.460447 -0.606487 0.197376 0.800579 0.570431 0.101607 -0.885591 -0.638427 -0.667997 2.96164 -0.413107 1.16869 -1.14635 1.73164 -3.00591 0.0219772 -0.54313 -1.12271 2.56804 -0.0289537 1.06007 -1.84088 -1.57349 0.387068 1.48755 0.722311 1.01571 1.03142 0.0467171 -0.061955 -0.802147 -1.21085 -0.529556 0.204209 -2.08631 -2.29362 2.49945 0.542291 0.408695 0.250094 1.47928 0.659551 1.1496 -0.607777 -1.84383 -0.872208 1.93269 0.634375 -0.98775 1.5323 0.959198 0.197293 -1.48366 -0.951708 -0.471527 0.0194029 -0.0479035 1.6189 1.07458 -0.44228 -0.298217 0.311947 0.415948 -0.118198 0.0440375 -0.823753 1.02172 1.1555 -1.09869 2.00224 0.246805 0.0718813 -0.627896 -0.489852 0.528802 0.54426 1.93152 0.252547 0.526523 -1.60482 0.398131 0.036739 -2.03514 2.21534 1.89634 1.6439 -0.0387931 0.0270582 
44 3.74895 -2.05838 0.415451 -0.241139 -1.7496 0.17531 -1.50753 -0.769797 0.018773 4.74649 1.17473 -0.0638541 -1.39951 0.86676 1.86175 0.0942791 -2.40598 -1.55959 1.34963 0.330701 3.26656 0.150033 2.36424 -0.688428 -0.888433 -0.599553 -2.06788 -0.765539 -1.13144 -0.453834 -0.109456 -0.761104 0.89737 -2.73797 -2.40286 1.08004 -0.708595 0.809651 0.758756 -0.267646 -0.0146326 0.819394 -2.98647 -2.31747 -3.59805 1.58218 -3.20017 -4.37642 0.0200553 1.98256 0.439546 1.75704 0.7375 -0.0399474 0.437728 -1.0057 -2.04221 0.381854 2.07254 2.89563 0.0691321 -0.557749 -1.49233 1.47655 0.430572 1.27883 -1.22846 -1.58264 1.25643 0.950125 0.201983 -2.0674 3.23436 -2.46404 -3.55042 -0.385946 0.249397 -1.19206 0.297615 2.41704 0.89577 0.775361 -1.54703 -0.82662 2.72317 3.69617 -0.554948 -0.660349 -0.236503 -1.3954 -1.52292 0.789954 -0.446148 -2.96955 -0.571946 3.1461 0.182748 -0.170438 0.120328 2.28015 -0.453023 -1.29328 0.28729 -0.905265 -0.113981 -2.07321 -0.717098 0.130701 -0.637618 0.639359 2.76688 2.20277 0.590983 -1.36933 0.336599 -0.648659 -2.07002 -2.21735 -1.84072 1.92016 -1.284 -1.93465 1.72575 1.09557 5.50187 2.25076 -1.96715 0.487237 
45 1.79626 -1.56448 -1.81855 0.814856 0.934077 -0.12192 1.16424 0.0153457 0.492864 -2.51594 2.31125 1.58467 1.30024 -2.3157 0.837997 0.956152 -1.39675 -0.190218 0.549755 -0.887035 -0.451445 -0.720434 -0.846686 -2.3819 -0.937358 -2.44804 -0.174543 1.5448 -1.11652 -2.34309 2.81927 0.884884 0.913645 -0.420608 2.19144 1.56103 -0.439122 1.44165 -3.74545 -0.0650505 0.504642 -0.332683 1.67917 -0.598005 2.20299 1.67886 1.0124 2.12699 1.30366 -0.713994 -0.991578 -0.968664 1.11106 -0.898024 1.51029 0.662023 0.221166 0.820819 -2.80234 -1.06126 0.536667 -0.164157 1.64725 0.212868 -0.284428 -3.17659 -1.60645 -1.29906 -1.696 -2.75343 0.589129 2.00074 -0.367886 -1.15154 5.56582 1.62891 -0.148083 -0.610063 -1.82337 0.958201 -1.31706 -0.525403 -0.995506 -0.0155558 1.60855 2.32684 -2.19191 -0.0390136 -0.0247657 0.128521 -1.03171 -1.51734 2.36224 0.932634 -1.42322 -2.6198 -0.279183 -1.08584 0.127136 -0.574787 0.698873 0.617639 -0.181621 -0.108825 1.24214 0.958292 0.0276435 1.41573 2.21005 -0.219763 -0.915241 -2.48179 -0.462305 0.00650196 -1.98616 1.98819 0.785886 0.747113 0.66785 1.97402 0.204896 -0.383799 -0.227304 -4.03086 -4.22044 -1.8661 1.13614 1.24564 
46 -2.01435 -0.105016 0.938248 -2.53335 -0.0323424 -1.27359 1.19056 0.514729 -0.817533 0.126578 -0.206994 1.98187 -0.571785 0.10233 -1.58823 -0.736443 0.985272 -0.348364 -0.122952 -0.221774 -0.892481 -0.686877 -0.851682 0.613146 1.8748 1.70839 -0.58286 -0.979077 0.457087 -0.228384 -0.59628 0.320376 -0.307717 -1.93096 -0.810499 -0.731623 -0.076385 1.12918 0.282347 0.156638 0.161861 -1.19509 0.820861 0.788842 1.01677 0.466584 -0.687508 0.465185 -0.11396 2.63023 0.0864899 0.649169 -0.530549 1.45271 -1.18005 0.0697625 0.111743 -0.200033 1.48358 -0.918792 1.17547 -1.36901 -0.943827 0.353801 1.69044 -0.492071 0.700958 1.45499 -0.261155 -0.284559 -0.725498 -0.338193 -0.746574 -0.975061 -1.04015 -1.19032 2.34243 0.565957 -0.237504 0.513791 0.993724 1.03393 1.07337 0.0577689 -1.34032 0.366584 1.46014 0.505988 -0.933026 1.586 0.401028 0.0532662 -0.515485 -0.0847999 -0.662398 -0.756991 -0.223658 0.156225 0.331553 -1.3412 -0.558177 -0.361253 0.158311 -0.911464 0.811357 -0.113821 0.548785 1.35203 -0.415528 1.81642 0.203621 -0.63266 -0.922005 0.376361 0.552239 1.99386 2.03134 0.227108 0.741229 -0.315298 -0.303885 -0.559322 -1.68819 0.683259 0.867807 0.822967 1.15154 0.810458 
47 1.92363 -1.58266 -0.0620712 0.697358 0.21154 -0.610085 -0.631049 -0.457683 0.678242 0.902997 1.95677 1.82755 -0.420955 -0.423152 -0.458544 -0.760251 -1.42007 -1.44126 0.405233 0.65831 1.29157 -1.35694 -0.711046 -2.07488 0.221651 -0.00558719 0.47541 -0.550684 -1.47461 -0.36808 0.728521 0.312466 0.680884 -0.182189 -0.73543 0.904175 -0.477737 1.09752 -1.42431 -0.150082 0.196312 -1.21691 -0.484467 -1.2785 -0.433797 0.481997 -1.06317 0.453867 -0.505283 0.028764 0.370097 0.827239 -0.435908 -0.290227 -0.328957 -1.71938 -0.535818 0.559464 1.64155 0.239842 -0.475133 -1.26157 -0.830901 1.57579 1.77099 -0.907011 -0.889139 -0.451206 0.444394 -1.04755 0.0274036 -0.940027 1.07811 -1.68149 0.274983 0.149277 1.38001 -0.535324 -0.414967 0.784546 0.456179 0.179193 0.00864358 -1.1129 0.733194 2.35138 -0.134548 -0.794905 0.798831 -0.183719 -0.882986 0.230853 0.188033 -0.294299 -2.16591 0.582391 0.220201 -0.820957 -0.349293 1.29851 -0.114911 -0.87283 -1.78189 -1.91103 1.06999 -0.0847025 0.0679687 1.80009 -0.20758 1.02089 0.582923 -0.0484047 -0.211088 0.380379 -0.410468 1.06469 0.134174 -0.840307 -0.236148 2.28854 -1.00718 -1.01865 0.716402 -0.725508 2.22642 0.732141 -0.129869 0.942479 
48 5.04311 0.214664 -2.74788 2.84235 1.2802 -4.38092 -0.484684 -0.635681 1.3662 1.27849 0.813299 2.39971 -1.16222 -0.125905 0.574872 -0.641384 -2.65262 -0.371047 -1.83211 2.29294 0.885491 -0.284591 0.972666 -2.96915 0.525067 -1.85634 -1.83247 1.38564 -4.53817 0.159494 1.59376 -3.09732 2.1099 -0.0400738 3.32681 1.09379 3.02511 1.35072 2.7496 -0.321021 0.94691 -0.308966 -3.44908 -3.51255 -3.92162 0.0248376 -0.51055 -2.013 -2.83046 2.74587 -2.26379 -2.70219 -0.534092 -3.51598 -1.73271 -3.65198 1.13371 -0.0804084 0.0657912 2.45138 -2.51949 -5.33953 -2.55105 0.930909 2.31403 -0.74478 -2.90538 -4.25064 2.97119 -2.52964 1.88202 -1.61787 2.56248 -1.75742 1.36707 -0.911792 -1.15232 -3.2081 0.0485639 -1.50679 1.99952 1.79505 -0.384415 -3.01171 3.70435 2.40564 -1.19053 -2.29731 -0.355674 -3.92137 -3.25062 0.138833 0.418118 -0.877875 -2.57631 4.04753 0.842807 1.47418 1.38861 3.58647 -0.701984 1.71831 -2.57369 -3.45384 -0.946757 -1.7439 -0.174622 2.55499 -0.853445 0.326566 -0.366487 0.514906 -0.591688 -1.36487 0.785325 -1.15599 -1.00945 -1.18707 -0.483481 4.15915 1.228 -1.11109 3.21068 1.59119 2.25829 1.64158 -3.69113 -1.76099 
49 2.42223 -2.27071 1.32938 0.0163731 -0.0444244 -3.31513 -0.305526 -0.100417 0.697656 5.4366 -2.11623 2.91452 -2.21713 0.405504 -0.299966 -2.37168 0.598035 -2.97781 -0.331865 3.32392 3.50712 -2.14091 1.22596 -0.403458 -1.32551 0.510707 -4.48425 -2.46355 -2.27438 0.446144 0.374694 -2.48824 2.07359 -3.39825 0.849598 -0.219461 -0.469012 2.52438 4.99395 2.08828 3.08265 -3.64242 -3.40254 -2.72648 -3.8828 -2.06831 -1.28998 -2.28195 -4.7924 2.6091 0.483314 -1.13003 -2.50064 -3.29535 -5.5989 -4.19148 -4.79598 -0.532494 3.94436 3.30869 -0.805974 -3.43571 -4.48143 1.4135 1.47259 6.02586 -2.66383 -4.08987 0.898946 1.89994 -0.737563 -3.37136 0.861908 -0.705502 -4.68912 -3.63277 3.34492 -1.23723 2.6956 -0.0855469 3.34088 2.07861 -0.640982 -3.1468 2.4957 3.44439 3.34524 -0.259492 -0.457639 -2.55988 -0.844287 2.31711 -4.08253 -5.86635 -3.27618 7.0273 1.07206 2.3575 2.70266 6.00734 1.47089 -2.83512 0.625533 -1.7405 -0.399107 -4.31982 0.947807 0.861543 -3.31281 1.96046 0.261137 3.65505 -0.973207 -0.97519 2.83531 -2.97587 -1.76036 -2.11857 -0.092452 3.72225 -1.94988 -1.88991 3.98343 6.6241 8.75033 3.44774 -1.92461 -1.41022 
50 2.83897 -2.23546 1.25765 -0.395275 -0.714008 -3.01697 -0.776596 -0.195063 0.659083 6.16942 -1.35563 2.4239 -2.55877 1.20703 -0.0757748 -2.24383 -0.329178 -2.73183 -0.183544 2.9357 3.77897 -1.15522 2.06467 0.00391607 -0.584945 0.836633 -3.79594 -2.7332 -2.23652 0.814985 0.0636455 -2.45854 1.98003 -3.35208 -0.467115 -0.129012 -0.507654 2.11149 4.64441 1.63238 2.15016 -2.63292 -4.20814 -2.85002 -4.76427 -1.47496 -2.80073 -3.50934 -3.89946 3.08616 0.404135 0.321097 -1.81442 -1.94043 -4.87947 -3.80224 -4.10758 -0.586299 4.75344 3.54319 -0.739533 -3.64691 -4.40821 1.9781 1.6013 5.16481 -1.81114 -3.93752 1.92073 1.63219 -0.244391 -3.87966 1.94827 -1.49155 -5.68555 -3.2384 3.13728 -1.40355 2.31558 0.602335 3.37007 2.08982 -0.306265 -2.99478 2.69916 3.14744 2.84204 -0.593197 -0.562025 -1.91069 -1.12513 2.2085 -3.89066 -5.29863 -3.04924 6.959 0.861837 2.26188 2.35954 5.69348 0.553384 -2.48856 0.063219 -1.9716 -0.499074 -4.49512 0.986976 1.01971 -3.01906 2.09123 1.35155 3.71047 -0.356342 -1.25241 2.80044 -2.19971 -1.88497 -2.55741 -1.26155 3.24165 -1.6085 -2.23593 3.06792 6.46709 9.56308 3.95626 -2.46422 -1.25009 
51 3.32071 1.18762 -1.98376 0.641536 1.77837 -4.48171 0.68816 -0.619049 0.219516 -0.250576 -0.501103 2.5477 -1.25445 -0.386763 -0.0264335 -0.307011 -1.98087 0.343376 -2.7014 2.34392 -0.612908 1.04402 1.48634 -1.5472 0.981825 -1.02372 -2.52736 1.18216 -3.54641 -0.101502 2.4604 -3.85917 2.16982 -0.931386 4.31305 0.657673 2.79494 1.6283 2.90125 0.513287 0.986158 -0.76769 -2.76771 -2.54718 -3.2307 -0.76535 0.418728 -1.44963 -3.08503 4.0765 -3.49807 -2.37761 0.166468 -2.48053 -2.68529 -3.26156 1.45628 -0.94239 -0.494927 2.04927 -1.80656 -6.33481 -3.00552 1.13275 2.10022 -0.110147 -2.26212 -3.89183 3.42344 -2.67447 2.19822 -1.53633 1.97592 -1.47207 0.910282 -2.12297 -0.591549 -2.76013 0.725715 -2.06803 2.49168 2.89167 1.02041 -2.77973 3.24449 1.03782 0.127896 -1.33835 -1.6936 -3.03233 -3.3912 -0.35666 -0.0717813 0.284278 -2.72627 2.74966 0.644964 2.63473 2.3994 3.58455 -0.705245 1.81292 -2.2878 -2.802 -0.418246 -2.5036 0.84407 2.91907 -0.792424 1.31022 -1.18259 -0.759811 -0.822512 -1.0994 1.48407 -0.546043 0.177926 -0.740136 0.518718 3.65532 2.40122 -1.11695 1.39918 2.82703 1.06739 1.34774 -3.02405 -2.589 
52 1.21233 -1.84715 1.29634 -0.897498 0.0163928 -2.75011 0.182138 0.138925 0.322036 3.92054 -1.63451 2.62979 -1.76502 0.316294 -0.629345 -1.97913 0.769791 -2.31422 -0.288556 2.44344 2.4432 -1.82454 0.739393 -0.0319978 -0.611379 0.86611 -3.51076 -2.19215 -1.50392 0.183875 0.180432 -1.7629 1.47992 -3.14127 0.486838 -0.378635 -0.515942 2.22266 3.70681 1.69349 2.40407 -3.09257 -2.25581 -1.77121 -2.47445 -1.43787 -1.08398 -1.46378 -3.61797 2.59881 0.314905 -0.560207 -2.0204 -1.91098 -4.58536 -2.99968 -3.72881 -0.600816 3.32466 2.25698 -0.186771 -2.93343 -3.66403 1.20196 1.46646 4.46815 -1.80485 -2.71185 0.430883 1.32495 -0.851785 -2.6373 0.367252 -0.619236 -3.7222 -3.14911 3.2771 -0.644484 1.86078 0.104977 2.70549 1.75074 -0.232118 -2.34189 1.45576 2.63086 2.9601 0.0589198 -0.560501 -1.37736 -0.475222 1.69856 -3.25366 -4.4304 -2.63255 4.85571 0.709215 1.89378 2.23853 4.17195 1.06213 -2.30415 0.644513 -1.38831 0.0198209 -3.18903 0.938627 1.01168 -2.57479 2.07833 0.214877 2.42766 -0.961778 -0.601774 2.21379 -1.72649 -0.755551 -1.46201 0.215145 2.56646 -1.54777 -1.46719 2.4242 5.11264 6.70912 2.71339 -1.07377 -0.79878 
53 -1.6488 0.581359 2.23248 -4.6624 -0.935462 1.23996 0.923395 -0.218024 -2.62063 0.207297 -1.53953 -1.33624 -0.360804 0.225162 0.719811 1.39701 1.35714 0.257552 0.724641 -1.18419 -0.33735 -0.914618 0.970854 1.72678 -0.422775 1.21502 -3.67834 0.230021 2.3905 -1.8342 -1.49771 -0.198544 -1.20781 -4.8319 -1.0244 -0.886548 -0.396097 1.12506 1.52971 -0.115781 0.18478 1.27265 1.53359 1.11778 1.19104 1.64371 0.960548 -2.50411 0.276708 4.73275 -0.0846167 0.129315 0.772419 1.35756 1.25743 1.48134 -1.35154 -1.12678 -1.02077 1.04497 2.10562 0.938586 -1.88846 -0.90632 0.447868 1.67696 -1.21022 3.42366 -2.19844 2.02329 -2.06644 0.0070955 -0.0350566 0.73968 -3.06853 -2.63259 -0.0402138 1.16312 -0.131448 0.93819 0.161436 1.16053 -1.95862 1.41036 -1.36296 1.53365 1.4104 1.73477 -1.98191 -0.823849 0.0235169 -0.0427744 0.244537 -1.82835 2.44385 -1.64844 -0.556314 -0.294678 0.485161 -1.87596 -0.150182 -0.92176 3.25547 1.34412 0.897511 0.699478 -1.33153 -0.890495 -1.18209 1.88532 0.700885 -0.628273 -0.982444 0.389995 0.255064 -1.04057 0.616344 0.28139 2.71337 -1.84207 -1.01996 0.694642 0.20212 -0.220127 0.412242 0.0948153 -0.00219834 0.86479 
54 -13.0842 -2.68382 -28.5099 3.07403 3.07856 -38.8841 -53.99 -5.16212 -48.3054 -13.6302 42.9228 33.7444 -38.0684 7.05404 -87.7575 -40.6436 -27.2209 -0.874315 2.97567 -43.6754 8.91889 -14.6824 -8.52388 33.2573 -14.2663 -17.2717 82.0085 40.9731 -50.4367 11.6323 35.8309 26.0254 51.2112 43.9771 -36.9832 70.1316 45.4852 -45.863 89.112 12.9349 -4.3268 -13.3141 -50.2674 -2.38194 -36.6906 -39.3811 33.9223 -43.4694 -1.36626 11.0034 8.09132 -31.8253 16.9782 -24.1524 -23.7747 31.6648 -58.7482 -33.3934 15.1903 -23.0635 -46.3216 -17.4579 83.32 21.7407 -70.0089 -38.2025 128.977 0.484843 16.5335 64.6586 46.6776 -20.4663 -71.2289 30.2518 62.1784 1.17628 -43.0299 8.9816 -41.9675 -30.2175 58.4916 15.3388 51.652 -71.7755 14.1681 14.3692 64.9139 19.1728 16.9244 6.64 2.64811 9.75474 2.44731 -5.5134 -15.5482 -82.4508 35.2783 22.3776 20.5216 -28.8445 -6.61736 32.9809 2.28273 79.9398 42.8061 -29.7262 45.5048 -22.2855 -61.1697 23.4446 12.2034 -22.1301 -24.8095 -53.2144 9.09839 -55.0975 -61.5371 -40.23 57.6133 -8.32017 -12.24 23.072 -30.012 -29.9554 38.9546 28.8931 43.4951 49.2456 
55 3.36367 0.33151 -2.39305 1.88127 1.0926 -4.38764 0.212155 -0.214473 1.00632 0.928478 0.430256 2.86926 -0.953149 -0.156652 0.00915327 -0.723336 -1.74789 -0.242938 -1.6678 1.60368 0.0902528 -0.254481 0.525046 -2.21549 1.09873 -1.25965 -1.83597 1.1172 -3.65311 0.112808 1.34438 -2.48887 1.72707 -0.519471 2.99343 0.600384 2.69323 1.52694 2.54419 -0.197109 0.923045 -0.551275 -2.45293 -2.56993 -2.79646 0.0479942 -0.511742 -1.36515 -2.22226 3.15124 -1.91564 -2.56638 -0.480159 -2.78471 -1.84718 -2.80856 1.24245 0.058587 0.107617 1.36268 -1.67991 -4.88253 -1.97703 0.491453 2.1966 -1.02779 -2.14151 -3.46308 2.34942 -2.42818 1.65134 -0.989845 1.57606 -1.6436 1.49914 -0.782729 -0.481624 -2.71074 -0.0334801 -1.2341 1.96435 1.83722 0.105764 -2.39304 2.8178 1.80238 -0.728182 -1.77597 -0.843936 -2.61683 -2.48997 0.00804159 0.326905 -0.634074 -2.41032 3.28498 0.531743 1.34322 1.44422 2.37093 -0.796677 1.77574 -2.06609 -3.05305 -0.777692 -1.72866 0.16107 2.42681 -0.630876 0.548558 -0.565232 0.111161 -0.826026 -1.08692 0.899653 -0.178333 -0.0757831 -0.687806 -0.352946 3.39103 1.16571 -1.0578 2.04014 1.50806 1.41812 1.3888 -2.64225 -1.50849 
56 -3.23063 2.66705 2.76356 -7.51434 -0.734756 0.323531 2.15458 -0.20053 -3.15918 -1.05344 -2.27636 -2.2458 -0.975434 1.28875 0.364152 1.44306 2.40972 1.87836 -0.675956 -1.22031 -1.67511 -0.31051 1.88864 3.7381 0.571813 2.81019 -4.23013 -0.0549387 2.86502 -1.66191 -1.64219 -1.42128 -1.56914 -5.24902 -0.0857586 -2.06774 0.00676131 1.56757 3.7347 0.590343 -0.026314 2.33325 1.73852 1.91176 1.41255 1.0236 1.93748 -3.59292 -0.455634 7.39813 -1.34482 0.44661 0.529683 2.28965 -0.481804 1.39964 -0.90975 -2.87989 -0.250889 1.08999 2.0229 -0.965802 -3.72675 -0.987786 1.25661 2.03884 -0.970132 4.17952 -2.00223 1.51889 -1.62152 -0.721342 0.00486375 2.11023 -3.96088 -4.82245 -0.467498 1.23221 0.108434 -0.316952 0.932649 1.6878 -1.46489 0.933479 -2.89821 -0.860719 2.62418 2.18133 -3.17404 -0.818278 0.0982169 -0.557842 -0.463773 -1.60998 2.45962 -2.14201 -0.717662 1.19243 1.88476 -1.71321 -0.648818 0.0313553 3.04174 1.84751 0.490244 0.336341 -0.542712 -0.392928 -2.1776 3.19044 -0.242299 -1.78048 -0.81476 0.249766 1.26989 -1.86273 1.53635 0.711877 3.7157 -3.67879 0.665277 1.91405 -0.920533 1.27841 0.393247 0.0683333 -1.30624 -0.300638 
57 3.13308 0.412557 -2.19588 1.84205 1.09709 -3.92783 0.289155 -0.286816 0.900168 0.518287 0.450412 2.5768 -0.771432 -0.360546 0.0431195 -0.558671 -1.52184 -0.157728 -1.50726 1.44686 -0.0365101 -0.451233 0.343423 -2.13422 0.844659 -1.33183 -1.72839 1.15749 -3.36705 -0.106211 1.4252 -2.17622 1.58493 -0.33233 3.02284 0.583932 2.4115 1.53942 2.19516 -0.12789 0.940281 -0.491314 -1.96007 -2.35935 -2.24113 0.0207328 -0.0809464 -1.05728 -2.0815 2.75076 -1.78951 -2.54487 -0.483494 -2.86711 -1.67966 -2.67294 1.07583 0.0442642 -0.111512 1.17858 -1.66208 -4.38924 -1.80917 0.42604 2.03193 -1.00446 -2.22574 -3.0936 1.90765 -2.32949 1.51527 -0.733597 1.3375 -1.39765 1.72602 -0.783041 -0.571433 -2.49633 -0.000394153 -1.24837 1.66148 1.56566 -0.0643165 -2.24562 2.53497 1.69768 -0.712549 -1.61527 -0.71854 -2.64554 -2.26521 -0.0882065 0.405916 -0.581191 -2.23332 2.80326 0.563775 1.1702 1.29005 2.23901 -0.554655 1.64734 -1.9077 -2.73882 -0.680768 -1.42347 0.135784 2.25985 -0.521131 0.40274 -0.72719 -0.0219978 -0.802783 -0.930754 0.687589 -0.317331 -0.0148073 -0.534889 -0.070051 3.12199 1.10065 -0.850456 2.03422 1.09933 0.9558 1.10362 -2.43534 -1.34067 
58 -1.186 1.34325 1.1366 -2.7893 -0.886046 2.3597 0.743217 -0.865581 -1.86451 -1.417 0.709436 -1.98685 0.19033 -0.432956 1.12086 1.74914 0.424522 1.39745 1.07592 -1.96644 -1.14699 0.040046 0.255845 1.34397 -0.392087 0.0934605 -1.07496 0.704106 1.90381 -2.03985 -0.221469 0.997568 -1.24453 -1.61568 -0.90265 -0.1931 -0.814026 0.623804 -1.01836 -0.144071 -0.698982 2.32359 2.33755 1.10988 2.08831 1.67086 1.22419 -1.35367 1.91038 1.6618 -0.285088 0.816452 1.34744 0.902453 1.7601 1.4373 0.117913 -0.29729 -1.01921 -0.334883 0.990045 1.75287 0.563786 -0.290193 -0.109481 -0.840062 -0.488093 3.2181 -1.61749 0.153115 -0.194599 0.948132 0.182617 -0.0778833 -0.331274 -0.380082 -1.3404 0.557681 0.0690403 1.01049 -1.02144 -0.176472 -1.1276 1.31792 -1.41023 0.281719 -0.48217 0.993323 -0.983872 -0.344834 0.0651275 -1.02395 1.2736 0.00205921 1.81206 -3.0142 -0.0760407 -0.918483 -0.696044 -2.16165 0.00867443 0.477357 1.18315 1.57144 0.362339 0.967447 -0.692092 -0.266157 0.471648 0.104144 0.485899 -1.19088 -0.0346176 -0.0705775 -1.08734 -0.0202266 1.10735 0.581627 1.5546 -1.90386 0.385794 0.611563 -1.12668 -2.43081 -2.32732 -0.760196 0.251951 1.04978 
59 0.784654 0.477132 2.24824 -3.97751 -2.47953 5.73128 -0.548923 -2.42337 -1.93606 0.0050745 2.80937 -4.67849 -0.313599 0.364278 3.31523 2.85429 -1.96663 1.49416 2.24348 -2.59563 0.969462 1.98 2.84689 2.02147 -2.10591 0.190026 -0.270447 -0.371842 2.76112 -2.58549 1.23452 1.09569 -0.989845 -1.86935 -3.30458 0.942378 -3.5119 0.418727 -3.05191 0.420007 -2.14046 4.45687 1.36727 0.419811 0.342165 2.0312 -0.189033 -4.13029 3.36676 0.6703 -0.23463 4.66885 3.4623 2.69735 2.87551 1.34045 -1.33171 -0.433599 0.421053 1.13189 1.07576 2.85264 0.648859 1.95262 -1.1183 -0.152252 -0.38657 2.97103 -0.427693 0.641494 1.14266 -0.493691 3.16941 -0.916579 -2.66077 0.0887469 -2.41551 0.203565 0.872219 2.80941 -1.51124 -0.67308 -1.54878 1.33996 -0.484473 0.649888 -1.1164 1.18362 -0.829006 -0.105021 -0.92566 -1.56347 1.34255 -0.147024 1.36125 -3.22124 -0.154935 -1.52188 -0.809544 0.239979 -0.0448333 -0.736213 0.153892 2.95357 0.978997 -0.482149 -0.498334 -0.483145 0.812061 0.438989 2.19559 -1.28551 2.04168 -0.477793 -1.47334 -0.53023 -0.531411 -0.969182 0.167051 -1.41689 0.627255 -0.0678042 -1.60931 -2.87729 0.235061 -0.595339 -0.914706 1.11458 
60 0.825847 -2.03007 1.36677 -1.85444 -0.447092 -2.96407 0.414195 0.414324 -0.00011871 4.42982 -1.36739 3.05608 -2.06061 0.778059 -0.944379 -1.94315 0.158752 -2.25678 -0.322813 2.04978 2.0828 -0.557173 1.25352 0.407437 0.599647 1.4255 -2.97415 -2.54229 -1.29031 0.542119 0.217656 -1.77879 1.58046 -3.58607 -0.565467 -0.325079 -0.613341 2.01345 3.06177 1.48057 1.64071 -2.90819 -2.78838 -1.48619 -2.95039 -0.873818 -2.51425 -1.91562 -2.72816 3.41467 0.117683 0.802907 -1.33686 -0.212912 -4.18267 -2.28991 -2.98908 -0.545198 3.87241 1.89651 0.45281 -3.5003 -3.46874 1.62981 1.55238 3.44385 -0.48673 -2.62097 1.34733 0.995047 -0.395348 -2.81472 0.870067 -1.79263 -4.31214 -2.8786 3.84547 -0.557577 1.40255 0.855453 2.90879 2.21296 0.76441 -2.01709 1.57662 2.25683 2.92583 0.108016 -1.15366 0.147869 -0.564046 1.43664 -3.15903 -3.49864 -2.75795 4.37661 0.307946 2.004 2.20487 3.45317 0.168119 -2.21854 0.432472 -1.72259 0.205021 -3.64649 1.35933 1.37581 -1.96861 2.55032 0.897756 2.09292 -0.622937 -0.833476 2.5176 0.0438784 -0.283499 -1.7432 -0.715031 2.30942 -1.08184 -2.20119 0.669192 5.31502 7.03326 3.04938 -0.627062 -0.592256 
61 -1.63749 -0.648654 1.16849 -2.6 -0.57998 -0.392859 0.606867 0.438457 0.00133769 0.69633 0.956978 1.02356 -0.652183 0.730821 -1.15028 -1.20266 0.90439 -0.352944 0.500664 -0.413966 0.401968 -1.16364 -0.54333 1.16398 1.20694 1.90778 0.396071 -2.00271 0.511938 -0.189126 -0.920148 1.08777 -0.510653 -1.10742 -1.94288 -0.804246 -1.20972 1.04396 -0.0436426 0.369155 0.0233045 -0.58444 0.661603 0.546616 1.04679 0.335151 -1.49172 -0.026467 0.297674 1.35842 0.71144 2.06922 -0.906348 1.90706 -1.76853 -0.0324529 -0.936684 -0.395422 3.23502 -0.634103 0.868178 -0.641809 -0.815405 1.0602 1.54395 -0.109812 0.866916 1.30672 -0.577264 -0.253397 -0.784192 -1.0308 -0.294697 -0.418827 -1.66681 -0.982852 2.63291 0.687932 -0.164938 1.11241 0.71567 -0.181263 0.673998 -0.311062 -1.74612 0.0697048 1.25134 0.304911 0.0854631 1.89245 0.978444 0.19561 -1.09271 -0.900951 -0.919616 -0.395992 -0.0478094 0.0805064 0.192417 -0.548081 -0.205546 -0.568074 -0.321049 -0.33989 0.651198 -0.107989 0.893711 1.25644 -0.632573 1.73263 0.907824 -0.0653204 -0.2037 0.216685 -0.00557884 1.27439 1.55905 -0.019682 -0.165025 -1.11816 -0.670602 -0.184694 -1.66954 0.453418 2.23262 1.15925 0.49658 1.13852 
62 2.44545 -2.02723 -1.55132 0.959038 -0.350728 -1.42736 0.0123087 0.417255 0.921503 1.21718 2.04316 2.11792 0.264003 -0.453873 0.544337 -0.0589861 -1.63378 -1.22226 0.849871 -0.682468 1.08235 -1.29793 -0.170819 -2.22661 0.295523 -1.35548 -0.611645 0.653519 -1.65468 -0.91311 0.549525 0.595615 0.721449 -1.33674 -0.230682 0.995288 0.271908 1.28575 -1.25354 -0.989897 0.224257 0.0532119 -0.439792 -1.34729 -0.124961 2.09665 -1.76664 -0.467552 0.893961 1.26669 0.322367 -0.326599 0.304134 -0.400315 1.34253 0.130593 -0.0741277 1.0397 -0.217386 -0.000859269 0.417028 -0.776573 0.159623 0.116118 0.965142 -2.4818 -1.17246 -1.25236 -0.656807 -1.53656 0.00532042 0.506669 0.854872 -1.71944 2.21531 1.13386 0.512372 -1.03274 -2.02671 1.63283 -0.149927 -0.169376 -1.37132 -0.361219 1.76338 3.0562 -1.72341 -0.865717 0.0177974 0.0261569 -0.715401 -0.278759 1.49754 -0.786519 -1.12261 0.486333 -0.47551 -1.14661 -0.113678 -0.424879 -0.665834 0.335519 -0.218419 -1.53564 0.533435 0.289647 -0.566645 1.03711 0.848013 0.310118 0.798076 -0.354115 -0.368868 -0.281109 -0.952881 1.6667 -0.0478676 -0.351745 -0.994216 1.75014 -1.05055 -0.898796 0.832866 -2.30376 0.403008 0.18481 -0.307206 1.30132 
63 2.0572 -0.814569 -0.854698 -0.231567 -0.178697 -1.69911 -0.112142 0.085332 0.467757 1.37621 0.906257 1.15311 -0.59045 0.363345 0.494339 -0.365425 -1.18277 -0.531509 -0.00285374 0.240889 1.1544 -0.655503 0.838539 -0.792427 0.300793 -0.446552 -1.31549 -0.00912424 -1.47037 -0.481134 0.0493792 -0.646092 0.625856 -1.56348 0.10053 0.308879 0.626812 1.10463 0.985545 -0.441774 0.354247 0.317682 -1.33157 -1.457 -1.32335 1.02946 -1.51483 -1.75946 -0.353453 2.41351 -0.577378 -0.115354 0.0149414 -0.270995 -0.447159 -0.737371 -0.254887 -0.0999222 0.804042 1.22459 -0.0958177 -1.96274 -1.23831 0.58188 1.2565 -0.48933 -1.15728 -1.32113 0.598003 -0.918119 0.114106 -0.902694 1.34889 -0.991514 -0.263344 -0.56065 0.433415 -1.06401 -0.653951 0.649544 0.893046 0.591182 -0.739518 -0.974332 1.42883 1.97541 -0.52996 -0.722834 -0.359717 -0.918443 -1.07843 0.106712 0.211421 -1.23165 -0.802864 1.47717 0.0226265 0.356563 0.680857 0.864055 -0.571212 0.525037 -0.385679 -1.31032 0.0253449 -0.623813 -0.180524 1.17144 -0.37523 0.907382 0.945288 0.24776 -0.337769 -0.609366 -0.0700327 0.0607953 -0.159779 -0.595088 -0.573237 1.11968 -0.265921 -0.609015 0.909476 0.122414 1.95594 1.21359 -1.56424 0.108437 
64 -0.00749268 -2.13191 2.12821 -1.87645 -0.00843605 -2.21458 0.687478 0.42177 0.121912 3.40576 -1.8836 2.57719 -1.55447 0.162739 -1.03963 -2.14351 1.66764 -2.56204 0.0275671 2.13984 2.23299 -2.33296 0.0963307 0.36963 -0.783219 1.38683 -3.46932 -2.65964 -0.760909 -0.129312 -0.00266427 -1.0995 1.21863 -3.58094 -0.0505876 -0.750556 -1.21565 2.35247 3.14434 1.93858 2.5481 -3.77386 -1.30663 -1.01693 -1.21478 -1.46132 -0.736476 -0.441101 -3.34996 2.18261 0.744475 -0.109006 -2.24464 -1.2978 -4.7256 -2.48225 -4.27389 -0.781269 3.45697 1.71473 0.395082 -2.31132 -3.50978 1.06008 1.30958 4.86252 -1.42816 -1.74707 -0.584488 1.60422 -1.69154 -2.43296 -0.508338 -0.219157 -3.81685 -3.47603 4.26092 0.241968 1.80127 0.412216 2.46281 1.41868 -0.142714 -1.96338 0.51349 2.61223 3.58859 0.767116 -0.414852 -0.496309 0.15363 1.74628 -3.51686 -4.51621 -2.578 3.77195 0.409988 1.71174 2.17172 3.57173 1.53507 -2.96222 1.3913 -1.00014 0.591611 -2.66039 1.06289 0.759387 -2.52593 2.50232 -0.0206748 2.06599 -1.07807 -0.114098 2.07768 -1.45733 -0.330558 -1.05105 0.804849 1.91263 -1.9502 -1.26923 1.88283 4.74851 6.4275 2.2148 0.153742 -0.182438 
65 1.96394 -1.53371 0.401961 -0.449292 -0.674115 -1.661 -0.383157 -0.0112354 0.359266 3.37717 0.256552 1.54028 -1.31431 0.602297 0.0935296 -1.05429 -0.6915 -1.52212 0.34962 0.999215 2.10685 -0.961828 0.975386 -0.414243 0.0847931 0.217739 -1.86946 -1.24649 -1.3989 -0.0376966 -0.141954 -0.759685 0.953146 -2.13757 -0.895328 0.146125 -0.260048 1.42605 1.7209 0.317291 0.866687 -0.895889 -2.07755 -1.67897 -2.16111 0.308387 -2.15673 -2.17861 -1.25542 2.21137 0.314718 0.594021 -0.763253 -0.593169 -1.82649 -1.63394 -1.91391 -0.0755203 2.65042 1.69172 -0.163881 -1.89225 -2.13739 1.1383 1.31908 1.44571 -1.01991 -1.64557 0.7015 0.30858 -0.192992 -1.86302 1.41232 -1.50557 -2.52033 -1.34695 1.74304 -0.811152 0.417045 1.06464 1.5209 0.888743 -0.527413 -1.46702 1.49232 2.4749 0.810555 -0.528652 -0.246764 -0.80423 -0.676488 0.933514 -1.37953 -2.76801 -1.55624 3.12825 0.326454 0.676285 0.858817 2.2064 -0.0839237 -1.0307 -0.0524289 -1.45684 -0.0699929 -1.87217 0.270982 0.943081 -1.17166 1.23964 1.30557 1.71992 -0.238542 -0.786337 0.912793 -0.363409 -0.685657 -1.38542 -0.930205 1.59133 -1.06602 -1.3568 1.30573 2.14939 4.87474 2.15978 -1.30735 0.10127 
66 19.9726 28.1636 6.0639 48.5684 8.86378 88.0302 7.44933 -0.497425 -56.0014 -2.43692 22.3379 -34.078 -6.04882 -65.8486 16.5851 -6.35283 60.6619 65.9801 -49.7958 -29.9453 -70.6139 0.17599 4.31185 44.6231 53.279 57.7444 -49.3015 -65.2201 3.92832 27.0098 -17.4888 24.4781 52.1106 -2.96439 -23.4938 55.5684 -11.4103 67.3141 -35.315 -71.6865 -15.7612 -6.70589 -9.5722 -19.8331 16.3707 -1.96849 61.711 -17.548 -21.3919 -83.0157 39.8216 0.0308677 8.99758 41.8983 41.2194 -21.9702 7.67567 -14.7735 2.60255 5.04404 -84.6227 83.9339 -57.8676 59.1481 -23.0324 9.58673 31.2581 -34.9432 -10.6616 84.5057 -19.447 -21.1886 -20.4276 66.003 43.1035 -5.21241 -28.3413 20.9776 66.5935 -45.9469 30.3404 14.481 49.3974 46.1288 57.6437 -4.90159 -67.1309 -18.1351 78.193 24.7878 -8.75564 -3.13934 10.4483 19.4898 61.995 -4.83436 28.9813 -5.95943 47.4925 -70.4567 -11.2813 -59.319 -3.5421 -32.2801 -1.62404 -47.9597 -39.4458 -21.7838 58.3038 -67.8307 -64.5952 3.30955 -37.916 70.8214 -45.2978 11.1113 -22.38 -26.5311 -2.41336 -29.4738 -0.213601 -13.5074 -30.4892 14.1527 0.449643 23.9814 9.66295 -62.2547 
67 -45.1585 23.0366 23.2854 28.7858 -2.37971 48.7233 -37.2713 20.6241 -3.83627 72.718 -37.4722 31.2696 -17.0035 0.890688 -8.83629 -24.0405 -34.6489 -22.1334 54.7705 46.7097 -53.9841 -33.019 -37.4594 -74.2439 -88.1057 4.44892 29.8612 -8.7228 -56.344 -51.394 -19.0524 0.102173 -35.0365 5.80689 18.7654 58.095 49.74 -22.2063 -18.1618 41.8183 -34.862 -47.1549 -17.2669 -49.8948 50.5365 62.5866 20.6257 5.78503 42.3698 73.0211 53.6889 -4.65805 45.9111 13.3246 10.3777 -38.9652 21.28 31.5022 48.8299 -44.6491 -31.582 -57.6 57.7989 32.9253 -65.0909 -19.7375 1.8165 -15.003 58.4357 -14.5444 26.9083 21.4445 26.6776 16.9269 -32.9342 -18.7852 -19.4392 -0.176834 -9.3944 18.1534 -23.1273 36.8461 -77.4531 22.964 -50.3658 -79.4262 -12.6134 76.491 58.6759 30.5568 37.2759 -62.967 -32.1675 -7.45988 -22.6717 12.531 -36.7648 -27.1923 -10.0961 -75.1999 56.1657 24.1401 -51.3419 -11.2244 31.2695 16.2821 -40.7128 12.2673 6.41331 40.1227 42.8921 -15.4025 -6.38955 56.9595 100.303 35.6852 -22.1453 -14.4961 15.6438 44.8347 -82.5495 -43.167 77.8146 -9.59975 41.9914 -47.4193 -3.07799 9.17772 
68 -0.959162 -0.128615 -0.542544 -1.1229 1.83743 2.48349 1.06669 -0.392836 0.0458816 -5.78066 2.00255 -1.24735 1.78366 -2.27547 0.760603 0.864908 0.620641 1.41203 0.423631 -0.849744 -0.761447 -1.50386 -1.81129 -0.142924 -2.40281 -1.15129 1.02055 0.646659 0.915503 -2.93005 1.42745 1.71938 -0.888807 0.784938 2.33207 0.549274 -1.2219 0.426837 -3.6674 0.55154 0.569644 0.232735 3.97741 0.926193 4.5112 0.466203 3.40523 3.58925 0.958592 -2.75744 -1.45493 -0.458946 0.485253 0.237657 0.363943 1.09546 -0.122247 -0.544395 -2.62127 -0.894615 0.617669 1.62485 2.10222 0.435408 -0.723972 -1.11827 -1.3606 1.35713 -2.84397 -1.95865 -0.934492 1.49538 -1.79576 2.02943 4.54499 0.701227 -0.201704 0.992103 -0.683941 -0.207369 -1.89153 -1.74945 -0.78556 0.61783 -1.51881 0.169213 -1.28565 1.05419 1.32243 -0.111049 -0.0290062 -1.60215 1.66905 1.35404 0.429507 -5.3254 0.42294 -0.613442 -0.186367 -1.31052 2.14826 0.833931 0.145617 2.35321 1.63191 2.90754 -0.0251377 1.06479 1.2345 -0.0277436 -1.21634 -3.19253 -0.650578 0.826857 -3.324 -0.41991 1.70113 2.16256 2.94305 -0.849065 0.404801 1.79046 -0.874548 -4.34456 -6.11648 -2.32326 1.49582 1.38454 
69 1.94855 -0.808991 -2.00651 1.7534 0.246995 -0.468051 -0.219488 -0.257224 1.25025 -0.836039 3.52366 1.3283 0.710177 -0.712697 0.3892 0.129662 -1.80183 -0.157697 0.736769 -1.21616 0.0179987 -1.27627 -1.44373 -2.72901 0.563157 -1.26041 1.77086 1.16671 -1.67554 -0.844787 0.680269 1.49359 -0.0427566 1.39846 -0.270642 1.23798 0.480528 0.567537 -2.7074 -1.28526 -0.576731 0.760312 0.784818 -0.845498 1.08346 2.06112 -0.687771 0.916144 1.5288 -0.72867 0.208225 -0.0461938 0.182127 -0.408955 1.82138 -0.140348 1.51641 1.33468 -0.405755 -1.0848 -0.418326 -0.102064 1.4608 0.243741 1.35758 -4.34563 -0.696211 0.178081 -0.379609 -2.65919 0.621028 1.03843 0.751983 -1.33467 4.08349 2.27522 -0.614464 -0.982147 -2.0134 0.887991 -0.925342 -1.13625 -0.742078 -0.330254 0.362883 1.68541 -2.6816 -1.33368 0.988386 0.139005 -0.514185 -0.827694 2.56798 1.14735 -1.16592 -1.24831 -0.225513 -1.89644 -1.32196 -1.17496 -0.711334 1.47134 -2.08768 -1.56992 0.506789 1.60385 -0.711673 1.55256 1.31628 -0.462603 0.20385 -1.18859 -0.068268 0.0585499 -2.18568 1.92496 0.688802 0.181596 -0.634345 1.30964 -0.181171 -0.0956536 0.12977 -4.19754 -1.87056 -0.60764 -0.188004 1.46201 
70 -0.188474 1.07394 -0.575331 0.70416 -0.102577 1.13211 0.289638 -0.577802 -0.631741 -1.72723 1.62596 -0.394262 0.661396 -1.29908 0.437312 0.980294 -0.0237559 1.03023 1.04828 -1.50111 -1.4313 -0.55253 -1.51914 -0.507954 0.178081 -1.29169 0.515429 1.40828 0.143848 -1.49737 -0.0757548 1.68894 -0.857078 0.934634 -0.143849 0.36999 0.374691 0.198937 -1.97647 -0.795882 -0.405317 1.30171 2.10004 0.39633 2.23424 1.60111 0.963562 0.6698 1.90708 -0.7837 0.0118987 -0.618886 0.477182 -0.862851 1.74997 0.702664 1.48343 0.966084 -1.25172 -1.28822 -0.234122 1.64041 2.16535 -0.539518 0.14081 -2.6968 -0.320724 2.02132 -1.09315 -1.19127 0.359207 1.75698 -0.451152 -1.06377 2.38421 1.56507 -1.29713 -0.105771 -0.278024 0.596661 -1.38349 -0.823611 -0.521765 0.787025 -0.658011 0.629507 -1.88288 -0.25245 0.327557 -0.552621 0.136338 -0.845565 1.85779 0.838109 1.01901 -2.37644 0.464366 -1.33628 -1.80108 -2.57912 0.115814 1.49902 -0.185926 0.114073 -0.275323 1.55346 -0.665558 0.363596 1.39024 -1.53574 0.196671 -0.493402 -0.372271 -0.323109 -1.86708 0.936798 1.30317 0.842779 0.521728 -0.720186 0.400634 0.0988865 -0.6938 -3.49277 -3.77581 -0.749028 0.77809 1.33609 
71 3.20017 2.93505 -2.09204 0.319309 2.84098 -6.25819 1.85905 -0.649039 -0.441495 -1.97333 -2.79799 2.98365 -1.17878 -1.02776 -0.355663 0.0526458 -0.858716 0.981059 -4.24884 3.16362 -2.03121 0.701771 2.13828 -1.0485 0.675604 -1.53593 -5.1754 2.2242 -3.78421 -0.675537 3.63943 -5.54219 2.84252 -1.81351 7.93042 -0.0972562 3.82409 2.91078 5.39961 1.26348 2.22757 -1.08713 -2.26202 -2.64494 -2.67928 -2.27394 2.99334 -1.35036 -4.99273 6.5741 -4.99594 -5.08113 0.04069 -4.76711 -4.23836 -4.26992 1.33075 -2.0796 -2.17835 2.32842 -2.53294 -8.29589 -4.87156 0.279718 2.37185 1.3683 -4.13328 -4.82291 3.09917 -3.01805 2.5732 -1.03497 1.16155 0.089192 1.58472 -4.3393 -1.38188 -3.33761 1.58912 -4.19776 3.28721 4.08674 0.759805 -3.56473 3.81541 0.349316 1.398 -1.031 -3.19391 -5.17157 -3.99624 -0.558003 -0.544493 -0.0334601 -3.02229 3.4531 0.82567 4.21735 4.23198 5.04865 -0.255763 2.63311 -1.85194 -2.77413 -0.685808 -3.27477 1.45685 3.04969 -1.64408 1.78422 -3.20467 -1.60293 -1.71783 -0.717381 2.68034 -2.36154 0.578819 -0.0941106 2.38235 3.90945 3.41319 -0.23203 2.72424 4.3113 -0.22446 0.852146 -4.26568 -4.53297 
72 -3.00684 -3.5111 4.99255 -4.64702 -2.56035 12.9519 -2.59501 -2.56304 -2.00925 -1.6007 5.10614 -6.16325 0.58237 -0.939146 2.40026 1.55113 -1.45049 0.330403 5.20314 -2.40799 3.72214 2.06123 -0.102322 3.3491 -4.62788 1.76646 5.10177 -4.72963 6.46614 -3.08017 -0.0187841 5.12554 -2.58405 -0.607601 -8.15011 1.50643 -8.56383 -2.43239 -10.7419 1.63176 -3.06103 1.64795 4.29914 2.46814 2.70639 0.945433 -1.46916 0.924453 5.86562 -8.75434 1.75938 10.0334 3.92907 7.83167 3.31083 3.25692 -3.36498 0.780102 3.10388 0.154477 3.55666 8.58779 5.77792 5.58929 -3.70838 2.38753 3.23564 5.51211 -1.15988 2.71573 -1.45704 -1.65917 1.03967 -1.34707 -5.32279 3.34988 2.18523 3.74857 2.45373 5.86588 -3.25109 -2.79695 1.14114 4.12144 -3.12007 0.865487 -0.557422 3.13069 3.52902 4.86379 0.510198 -1.32521 -0.133924 1.29014 2.4603 -8.34241 0.799553 -3.65339 -3.51618 -1.55833 2.95006 -4.97697 0.470631 6.41879 3.95507 1.41686 0.381729 -0.482949 2.21055 0.320498 5.12042 -1.38251 2.67981 1.13959 -4.36992 1.76547 0.60666 -0.334405 -0.055447 -2.41699 -2.10339 -1.34679 -5.57485 -4.39787 -0.286834 -0.714432 5.33377 4.95077 
73 0.0289285 -2.21303 2.04795 -1.8462 0.123649 -2.23662 0.527539 0.320105 0.053156 3.45124 -1.79454 2.6317 -1.6376 0.0988883 -1.04803 -2.113 1.57709 -2.56143 -0.0229276 2.19123 2.3003 -2.36941 0.189804 0.331321 -0.716495 1.41886 -3.35674 -2.70695 -0.632794 -0.0327246 -0.0610797 -1.10809 0.987326 -3.49869 0.169411 -0.630884 -1.32102 2.42078 2.97967 2.00867 2.5932 -3.60037 -1.25619 -1.02297 -1.27703 -1.4204 -0.575051 -0.499522 -3.52111 2.17475 0.774516 -0.0966411 -2.38395 -1.3344 -4.74113 -2.38031 -4.31652 -0.748067 3.41013 1.6036 0.532034 -2.06069 -3.70956 1.21242 1.43484 4.69929 -1.36161 -1.76945 -0.571591 1.82919 -1.58269 -2.33368 -0.465732 -0.256535 -3.74665 -3.33167 4.19944 0.239061 1.66469 0.258369 2.35977 1.46962 -0.266419 -1.88509 0.545343 2.50277 3.63191 0.823322 -0.455734 -0.538073 0.239183 1.69826 -3.62576 -4.52249 -2.46203 3.89647 0.586474 1.62156 2.28546 3.48018 1.37599 -2.97358 1.43891 -0.814978 0.629033 -2.60896 1.16101 0.889348 -2.58606 2.57126 -0.0417154 2.02407 -1.25233 -0.290529 2.04658 -1.33184 -0.294728 -1.06215 0.842529 2.01691 -2.00012 -1.23297 1.83099 5.00193 6.44121 2.4221 0.100334 -0.253248 
74 3.42648 1.0978 -2.98821 2.71148 0.664788 -5.59419 0.354832 -0.164506 1.14579 1.97189 -0.10916 3.40364 -1.06563 0.187973 0.18822 -0.690277 -1.42738 -0.106987 -1.7654 1.10846 -0.319675 -0.5532 0.631944 -2.31381 1.56642 -1.50547 -2.84797 1.75115 -4.0326 0.468222 0.977185 -2.7233 1.68825 -0.684748 3.39466 0.231853 3.61396 1.90247 4.35213 -0.518902 1.126 0.106972 -2.62249 -2.80129 -3.31684 0.153587 -0.56929 -2.48792 -2.38944 4.53127 -1.52245 -3.98285 -0.658118 -4.13541 -1.87989 -3.05889 1.60674 0.55086 -0.0833521 1.16825 -1.94345 -5.10818 -2.04814 -0.590132 2.53524 -1.25143 -2.62294 -3.792 2.39138 -2.34276 2.0715 -0.455529 1.5389 -1.59629 1.71721 -0.667791 -1.47416 -3.59188 0.109432 -1.57506 2.39268 2.11389 -0.480233 -2.45818 3.0655 1.76948 -0.991796 -2.24235 -1.52189 -3.40185 -2.34466 0.189239 0.540247 -1.42298 -2.29791 4.91093 0.420405 1.23701 1.60846 2.20282 -1.28786 2.68935 -2.0443 -3.49526 -1.72628 -2.34243 -0.207492 1.99488 -0.982577 -0.0194422 -0.948414 0.80341 -1.01216 -1.35624 1.45882 -0.630941 -0.261289 -0.679801 -0.70516 3.54094 1.21423 -1.01027 3.04205 1.87057 1.63391 1.63139 -3.52859 -2.11363 
75 -0.87053 1.44065 1.2658 -4.60456 -1.11388 0.957649 1.9041 -0.84133 -1.79647 -0.894765 0.263625 -1.52522 -0.230691 0.212489 1.53059 1.91709 0.530043 1.42662 0.379671 -2.07395 -1.17003 -0.0480092 1.70208 1.63115 -0.377511 0.737954 -2.8118 0.55475 1.65807 -2.21748 1.00098 -0.228937 -0.520147 -3.32872 0.257835 -0.491664 -1.19281 2.10765 0.687295 0.710752 -0.361434 2.6772 2.03219 0.844662 1.55749 1.3975 1.59424 -2.88613 0.983753 4.63731 -0.765141 0.691745 1.42809 0.68793 0.59258 0.884941 -1.01431 -1.17595 -0.792397 0.0773878 1.24878 -0.181632 -1.61025 -0.317609 0.47646 -0.31217 -1.57553 2.22074 -1.95053 -0.141829 0.309132 0.566169 0.809559 0.726081 -0.337686 -2.22605 -1.45992 -0.109126 -0.11825 0.610195 -0.131658 0.496842 -1.89106 0.434119 -1.09846 0.0829843 0.551411 1.27708 -2.59064 -0.583963 -0.252426 -1.43789 0.967499 -1.11109 0.46441 -1.92849 -0.777403 -0.200481 1.26833 -0.338896 -0.329281 0.309673 1.31184 1.56664 0.536262 -0.389912 -0.179733 0.0449705 -0.346757 1.63641 -0.626302 -2.14994 0.178566 -0.0620399 0.11244 -0.658369 0.905057 0.18943 2.07665 -1.38468 0.850408 1.03143 -0.513658 -1.21362 -0.763306 -0.954527 -1.21764 0.00728631 
76 -1.35341 1.24221 1.5834 -5.45151 -1.83578 1.61774 2.66163 -0.928601 -1.97445 -0.967782 0.914068 -1.57442 -0.0247701 0.0791832 1.85248 2.45453 0.545251 1.56718 0.968615 -3.18469 -1.61078 0.226569 1.96786 1.90152 -0.367812 0.774207 -2.74962 0.450626 2.30691 -2.72112 2.01615 0.468931 -0.422984 -3.69811 -0.106678 -0.396771 -2.41829 2.79993 -0.474738 1.11646 -0.743369 3.20639 3.03445 1.34224 2.4875 1.74406 1.69998 -3.04445 2.10638 4.81545 -0.324669 1.5396 2.05504 1.08416 1.04871 1.51683 -1.49518 -0.901558 -0.801201 -0.908378 1.78668 0.410912 -1.1614 -0.277916 0.0944557 -1.19795 -1.43164 2.55711 -2.82962 -0.427193 0.905181 1.32014 0.774913 0.466536 0.503943 -1.95949 -1.58084 -0.0890976 -0.350435 1.33003 -0.639207 0.145019 -2.16973 0.754622 -1.3434 -0.158487 0.492383 1.70621 -3.24839 0.420757 0.199548 -2.13794 1.34767 -1.10988 -0.0827394 -2.75831 -1.26761 -0.801708 1.43616 -0.521119 -0.353443 0.0186635 1.46043 2.1818 0.790506 -0.808221 0.252234 -0.0708497 0.324496 1.71255 -0.978238 -2.9711 0.708847 -0.0011835 0.129692 0.278809 1.22969 0.139716 1.90063 -1.5856 1.02094 0.955719 -1.3652 -2.13001 -1.30797 -1.72893 -0.750656 0.339698 
77 0.391687 -0.185591 -0.776247 0.812874 -0.107345 0.58043 0.550535 -0.167464 -0.455394 -1.20063 1.50638 0.689087 0.749029 -1.64336 0.377096 0.881252 -0.422014 0.213885 1.14113 -1.28654 -0.971541 -0.550406 -1.23323 -1.0834 0.0525167 -1.70165 -0.0908868 1.28384 -0.148863 -1.68735 0.68758 1.50423 -0.119741 -0.110574 0.199095 0.698189 0.0136455 0.69059 -2.53924 -0.622335 -0.043745 0.419475 1.73165 0.056895 1.99693 1.74971 0.424086 0.966987 1.8629 -0.488866 0.0339029 -0.684861 0.73022 -0.811565 1.82494 0.875554 0.850391 1.173 -1.57708 -1.27928 0.305899 1.18812 2.04138 -0.343353 -0.113775 -2.6707 -0.534419 0.808093 -1.3005 -1.31618 0.315679 1.89005 -0.527342 -1.67328 2.84905 1.65096 -0.452327 -0.194111 -0.761034 1.14321 -1.24495 -0.458151 -0.601678 0.718176 0.406952 1.63453 -1.79183 -0.111193 0.00917943 -0.0403455 -0.152411 -0.847486 1.78296 0.512846 0.296265 -2.05897 0.178168 -1.34253 -1.2218 -2.16265 0.229942 0.785978 0.298521 -0.134628 0.200198 1.04172 -0.410358 0.531062 1.75682 -1.12794 0.197072 -0.725927 -0.500233 -0.283901 -1.56345 1.7537 1.0881 0.621131 0.213684 0.284463 -0.0295509 -0.565684 -0.623535 -3.31143 -3.37935 -0.84628 1.29471 1.51988 
78 -2.82251 2.08141 0.978816 -3.29871 0.0578362 -0.66074 1.64211 0.07442 -1.61849 -1.30082 -0.907099 0.011345 -0.52051 0.0433658 -0.792451 0.140816 1.86478 1.40589 -0.485351 -0.659872 -2.08913 -0.140296 -0.468809 2.09754 1.3867 1.44844 -1.27291 -0.111643 1.09017 -0.728888 -0.990486 -0.103957 -1.02728 -1.43279 0.194537 -1.25088 0.566395 0.756498 1.60093 0.408744 0.14186 0.414261 1.55925 1.38765 1.60072 0.337877 1.019 -0.440148 -0.0709443 2.97231 -0.812221 -0.185248 -0.366763 0.778765 -1.38302 0.483812 0.710139 -0.962375 0.514356 -0.637309 0.741 -0.867517 -0.721169 -0.505594 1.05132 0.00427338 0.438375 2.42932 -0.610724 -0.15627 -0.409588 0.137899 -1.01054 0.207609 -1.02073 -1.86279 0.517699 0.547129 0.585744 -0.432928 0.606339 0.858591 0.63414 0.329098 -2.16297 -1.0912 1.192 0.793998 -1.38722 0.270998 0.551068 -0.419418 -0.410178 -0.0907753 0.860139 -1.54567 0.166706 0.939816 0.365449 -1.92857 -0.193386 1.0181 0.831217 0.337073 -0.205076 0.110816 0.365973 0.677313 -0.585749 0.93071 -0.345736 -0.659427 -0.902384 -0.273393 0.319065 0.256307 2.2614 0.891893 1.72183 -2.11576 1.03323 0.495365 -1.83251 0.680515 -1.20363 0.415391 0.341711 0.0619835 
79 -2.93969 0.83673 1.55014 -1.03043 -0.73784 5.73856 -0.311692 -1.03318 -2.00531 -2.98539 1.83896 -2.94514 1.18414 -1.77953 0.670292 1.57746 0.906733 1.5524 2.74645 -2.42596 -1.30012 0.191736 -2.28824 1.5568 -1.08738 -0.485207 2.19379 0.107278 3.26383 -2.30311 -1.22906 3.85785 -2.51031 1.15364 -2.86995 0.271664 -1.88106 -1.35327 -4.94776 -0.548812 -1.25633 1.58821 4.24689 2.23348 4.21744 1.71438 1.25238 1.85462 3.92279 -4.08018 0.805237 1.95784 1.38129 1.81072 3.00222 2.63398 0.932011 1.14303 -1.08777 -1.74218 1.21854 5.64425 4.67932 0.260389 -1.63494 -1.45646 1.52512 5.20903 -1.9495 0.673342 -0.978646 1.89798 -1.428 -0.793182 0.207627 2.5147 -0.487252 2.05386 0.881757 2.0322 -2.78846 -1.85216 0.284841 2.91234 -2.78719 -0.047616 -1.56662 1.29506 1.46688 1.24867 1.30979 -0.947686 1.59878 1.70122 3.40469 -5.89694 0.881591 -2.26706 -3.57276 -4.71844 1.2611 0.134515 1.14353 2.78661 0.658311 2.8645 -0.872379 -0.6878 2.15407 -2.10054 1.74486 -0.435393 -0.00933027 0.173552 -3.41716 1.30249 2.01477 1.42024 1.14809 -3.0103 -0.288922 0.110377 -3.04754 -4.7351 -5.32502 -1.02352 3.47931 3.02953 
80 2.71191 -2.65621 -2.82521 2.29525 1.04417 -0.588948 -0.589958 0.316197 2.22888 -2.0633 4.27624 2.39896 1.8283 -1.08547 0.118021 -0.127509 -2.39873 -1.28917 0.820035 -1.28926 1.01408 -2.94416 -2.00678 -4.44075 -0.0839237 -1.54545 2.34675 1.34282 -1.81486 -1.29769 0.949979 2.30403 0.00941702 0.98892 0.184931 1.72452 0.204157 0.855118 -4.27503 -2.14741 -0.336292 0.0454384 1.57853 -1.11192 2.27815 2.43608 -0.762472 2.69657 1.55745 -1.00049 0.499136 -0.436372 0.375891 0.244919 3.09226 0.22819 1.32189 1.56261 -1.66421 -1.28886 0.268258 0.039485 1.46229 0.293271 1.86359 -5.19039 -1.62095 -0.0668015 -1.39344 -3.24474 -0.68942 1.45592 0.343468 -0.201374 6.04549 2.85321 0.190383 -0.728911 -3.8869 1.01938 -1.24952 -1.69303 -1.54984 -0.102885 0.609167 3.1096 -3.15038 -1.42665 1.76552 0.567964 -0.67085 -0.827758 3.74716 1.82599 -1.55621 -2.25506 -0.928089 -2.98464 -1.17921 -1.30353 -0.768144 1.14649 -2.40244 -1.98276 2.24498 3.34655 -1.38279 1.96869 1.46683 0.574783 0.0934607 -2.71939 -0.621742 1.70629 -3.3539 2.40523 0.66094 0.694548 -0.0533074 2.30927 -1.71126 0.562788 1.17412 -6.42025 -2.46552 -1.35674 0.085585 2.25125 
81 1.44169 2.39015 -1.80024 3.6021 0.672611 -1.03252 -0.236387 -0.947646 -0.349187 -1.13172 0.797614 0.731475 -0.0836534 -1.65678 -0.0484225 0.419541 -0.76985 1.30067 -0.213694 0.220775 -2.01992 0.577477 -1.4404 -1.21271 0.992115 -2.47352 0.165115 2.14264 -1.97858 -0.537964 0.477107 -0.00622663 0.220224 2.52772 1.73129 0.574098 2.47459 -0.0812294 -0.201712 -0.768752 0.0539052 0.568145 0.0490624 -1.00741 -0.0894233 0.38732 0.898054 0.42167 0.386353 -0.949089 -1.18107 -2.49253 0.0692547 -3.42741 0.203706 -1.3661 3.04355 1.29313 -1.08581 -0.637952 -2.29566 -0.623541 1.98898 -0.31816 0.520659 -2.45532 -0.56604 -0.333314 1.63767 -2.06485 2.09581 1.24667 0.0980543 -2.54443 2.37306 1.71053 -2.07625 -1.6611 1.20635 -0.8734 -0.299957 0.411205 0.893196 -0.540055 1.28733 0.403151 -2.18714 -1.56938 0.278077 -2.50645 -1.1658 -0.384268 1.19415 1.21607 0.151222 0.245876 1.56734 0.0990716 -1.71372 -1.0324 -0.0342494 2.78103 -1.73751 -1.62986 -1.80088 -0.0672402 -0.0941337 1.17962 1.3029 -2.83079 -0.0844328 0.969843 -0.632058 -1.40087 -0.814368 0.499866 0.993066 0.377003 -0.436646 1.00005 1.81035 -1.04578 0.118085 -1.25149 -3.50149 0.408804 -0.340947 -0.313964 
82 -2.94969 -0.157009 2.33228 -5.08248 -0.275814 -0.435606 0.97771 0.763878 -1.78186 0.981671 -1.90965 0.190902 -0.80155 0.980606 -0.861311 -0.484675 2.36362 -0.480478 0.188331 -0.290195 0.106139 -1.82397 -0.206175 1.95437 0.708838 2.75545 -2.61015 -1.25837 1.82589 -0.51978 -2.99974 -0.0645155 -1.52554 -4.30053 -1.799 -1.48516 0.110382 0.723348 2.68949 -0.0351626 0.728197 -0.638734 0.799583 1.34773 0.989856 1.08326 -0.271137 -1.19684 -0.962958 4.39286 0.393967 0.496512 -1.12546 2.34063 -0.946573 1.05466 -1.50928 -1.38391 1.12265 0.938184 2.33171 -0.0887272 -2.52869 -0.738671 1.49608 2.2995 0.0703361 3.2928 -1.76041 2.19284 -3.27208 -1.14609 -0.940224 1.13648 -4.00892 -3.15679 2.4667 1.80783 -0.343251 0.651156 1.17079 1.0826 -0.735908 0.760932 -2.54399 0.993172 2.56034 1.54949 -1.1107 0.596754 1.026 0.919424 -1.12507 -2.1106 1.75804 -0.691085 -0.487413 0.519181 0.624194 -2.03142 -0.230641 -1.16701 2.90499 0.415815 0.927542 0.880061 -0.874158 -0.265228 -2.12277 2.79786 0.867105 0.291487 -1.55216 0.464191 0.519604 -0.582659 1.25034 0.402038 2.37913 -2.19336 -1.66498 0.674862 -0.414604 1.61305 2.41563 1.36794 0.563845 1.07753 
83 1.81847 -1.53699 -2.07306 1.02075 1.66331 0.0742154 1.41187 -0.0432312 0.663595 -3.88916 2.33006 1.42372 1.67311 -2.93475 0.925109 1.0281 -1.21842 0.0681833 0.275161 -0.58339 -0.624638 -0.903619 -1.14787 -2.51402 -1.66121 -2.89573 -0.0866454 1.75699 -1.21778 -2.77998 3.47172 0.812059 1.03195 0.0366966 3.3991 1.7087 -0.533873 1.49361 -4.20105 0.306855 0.911116 -0.68337 2.21529 -0.572459 2.88945 1.25657 2.08682 3.19039 0.956939 -1.60994 -1.55497 -1.50514 1.05434 -1.36026 1.10394 0.55492 0.0872573 0.564109 -3.57151 -1.09798 0.354933 -0.183143 1.89993 0.278782 -0.637298 -2.95087 -2.05541 -1.71076 -2.09702 -3.19952 0.564933 2.25103 -0.874666 -0.510885 6.74596 1.6175 -0.241284 -0.510948 -1.73113 0.45383 -1.58797 -0.764829 -1.012 -0.176419 1.63102 2.15211 -2.28646 0.147636 0.281164 -0.202973 -1.17918 -1.76849 2.41699 1.22674 -1.62343 -3.3251 -0.0715466 -0.809133 0.411617 -0.213815 1.39324 0.756672 -0.225848 0.359404 1.44524 1.28018 0.237633 1.61039 2.37319 -0.342132 -1.5858 -3.06135 -0.616646 0.132292 -2.4037 1.52821 0.895939 1.19633 1.34531 2.14204 0.49363 0.0088185 -0.106401 -4.36436 -5.55047 -2.43902 1.34582 1.07982 
84 2.75126 0.834335 -1.99078 0.898182 1.29186 -4.62843 0.873947 -0.00372518 0.747649 -0.304885 -0.293551 2.64994 -1.0554 -0.305048 -0.289751 -0.539015 -1.317 0.199343 -2.09999 1.68387 -0.600255 0.0577019 0.936632 -1.43325 1.16579 -1.13806 -2.42984 1.15317 -3.35527 -0.112288 2.00143 -2.89043 1.91171 -1.01705 3.98677 0.0984305 2.60112 2.0125 2.66151 0.239983 1.03873 -0.480156 -2.08796 -2.23361 -2.1021 -0.404029 0.242708 -1.0413 -2.34254 3.99427 -2.6698 -2.53057 -0.224676 -2.52911 -2.31473 -2.59305 1.15372 -0.64183 -0.458963 1.19472 -1.60797 -5.52796 -2.34807 0.543439 2.19554 -0.774689 -2.16123 -3.46452 2.18889 -2.52643 1.73278 -0.748813 1.1451 -1.24421 1.63859 -1.61764 -0.302056 -2.48495 0.203025 -1.78237 2.14004 2.24216 0.408036 -2.3941 2.76853 1.15638 -0.124009 -1.20436 -1.52597 -2.54107 -2.55028 -0.266368 0.0693808 -0.521719 -2.42186 2.54911 0.460334 2.15052 2.27865 2.53318 -0.515356 1.87373 -1.80296 -2.65373 -0.612716 -1.70656 0.85298 2.65281 -0.617125 1.05824 -1.06276 -0.743514 -0.806681 -0.988181 1.2192 -0.133719 0.411855 -0.270468 0.24766 2.8839 1.78562 -0.604863 1.38535 1.94644 0.558755 1.0425 -2.47245 -2.0291 
85 2.81981 1.10944 -2.18305 1.10445 1.50782 -4.82341 0.770171 -0.195401 0.589707 -0.0219204 -0.663814 2.8985 -1.01625 -0.265507 -0.283116 -0.693873 -1.32066 0.264888 -2.44137 2.02026 -0.552212 0.423943 1.19251 -1.21554 1.07295 -1.12533 -2.58345 0.978933 -3.37993 -0.0160824 2.02497 -3.24041 2.0537 -0.803525 4.2759 0.193068 2.6986 1.83057 3.30396 0.402319 1.2581 -0.770505 -2.35609 -2.40785 -2.6733 -0.955409 0.166146 -1.23134 -2.80721 3.95884 -2.91099 -2.82411 -0.167106 -2.83113 -2.99066 -3.02381 1.25717 -0.663489 -0.146258 1.49616 -1.75763 -5.8925 -2.54151 0.69862 2.02465 -0.0872234 -2.19866 -4.03272 2.86808 -2.62029 2.02624 -1.12246 1.28993 -1.07357 1.12742 -1.81378 -0.297661 -2.77756 0.701927 -1.99416 2.48081 2.48597 0.876865 -2.6446 3.01318 0.85708 0.126898 -1.42463 -1.56195 -2.77245 -2.71375 -0.168658 -0.319305 -0.259762 -2.621 3.24403 0.661479 2.54055 2.42136 3.184 -0.590734 2.10627 -2.07384 -2.68774 -0.738708 -2.47245 1.00618 2.6769 -0.811842 0.967269 -1.13267 -0.392297 -0.955929 -0.967326 1.44491 -0.561309 0.378261 -0.40831 0.077204 3.14411 2.00768 -0.933676 1.54649 2.73523 0.987965 1.44821 -2.95266 -2.50549 
86 -2.07914 0.422935 1.43952 -3.90359 -0.222607 -1.51674 1.27336 0.504377 -1.31795 0.925803 -1.34497 1.02651 -1.12285 0.823022 -1.01317 -0.605699 1.45507 -0.0270757 -0.445278 0.0668036 -0.535152 -0.518754 0.235408 1.71087 1.50669 2.1458 -2.08908 -1.12538 0.709085 -0.185072 -1.39713 -0.684374 -0.528163 -3.17046 -0.731973 -1.19444 0.347161 1.08936 2.47795 0.375157 0.466813 -0.606925 0.0206636 0.700895 0.0513046 0.460269 -0.614953 -1.30268 -0.928083 4.27068 -0.377867 0.46582 -0.711602 1.5337 -1.85242 0.0962845 -0.558349 -1.09591 1.61683 0.461142 1.34366 -1.78359 -2.24376 0.00943649 1.61037 1.21209 0.318237 1.48909 -0.168644 0.709119 -1.23086 -1.16045 -0.328546 -0.182374 -2.96673 -2.65924 2.04665 0.620636 0.223456 0.254375 1.57794 1.52304 0.466363 -0.0935526 -1.38534 0.256318 2.12275 0.848383 -1.52651 0.637432 0.285701 0.398407 -1.20908 -1.30346 0.236322 0.144183 -0.169384 1.14046 1.05429 -0.853635 -0.536417 -0.351787 1.26705 -0.381819 0.315136 -0.603154 0.231015 0.777577 -1.41123 2.29373 0.458204 0.0561396 -1.02441 -0.165322 1.13545 0.366024 1.48506 0.0454363 1.21657 -1.08077 -0.176503 -0.183332 -1.09523 2.25107 2.17809 1.50589 0.0585871 0.182956 
87 -1.09307 -1.1865 0.657463 -2.84696 -0.26461 -2.62717 0.9232 1.25042 0.155641 2.13545 -0.404588 2.15282 -1.05235 1.20412 -1.2393 -1.7169 1.17683 -1.05998 -0.098994 0.272986 0.852958 -1.71272 -0.128202 0.805892 1.56051 1.95444 -1.33786 -1.79952 -0.406738 0.310057 -1.73565 -0.0724441 -0.154858 -2.63974 -1.27973 -1.03501 0.176518 1.28461 2.38763 0.100311 0.886316 -1.32064 -0.780786 -0.022683 -0.203962 0.674257 -2.13636 -0.864026 -1.05079 3.45653 0.446843 0.7009 -1.71598 1.43825 -2.48457 -0.123648 -1.32086 -0.752626 2.88732 0.459502 1.18886 -2.03052 -2.28375 0.161055 1.98406 0.753585 0.359291 0.170576 -0.497637 0.26536 -1.67141 -1.49135 -0.334522 -0.16717 -2.22209 -2.08149 3.2705 0.473748 -0.756511 0.802136 1.67896 0.638411 0.0546183 -0.810387 -0.952893 1.00055 1.73848 0.184609 -0.553721 1.25559 0.835648 0.877514 -1.51857 -2.19662 -0.765204 1.4446 -0.328904 0.993972 1.10843 -0.300013 -0.542976 -0.493358 0.886915 -1.17835 0.283378 -0.469908 0.406698 1.04257 -1.45813 2.3654 0.863886 0.794309 -0.976442 -0.255762 0.763104 0.67556 1.03248 -0.217835 -0.0421362 -0.653187 -1.16599 -0.276148 -0.492564 2.07874 3.7614 2.00401 -0.192966 0.694843 
